#! FIELDS phi psi file.free der_phi der_psi
#! SET min_phi -pi
#! SET max_phi pi
#! SET nbins_phi  33
#! SET periodic_phi true
#! SET min_psi -pi
#! SET max_psi pi
#! SET nbins_psi  17
#! SET periodic_psi true
   -3.141592654   -3.141592654   20.996964646  -54.633260382   11.438657362
   -2.951193099   -3.141592654   11.982421274  -38.971373895   14.323408743
   -2.760793544   -3.141592654    6.449125634  -18.972148264   16.808355901
   -2.570393989   -3.141592654    4.671438179   -0.412013484   18.810595412
   -2.379994435   -3.141592654    5.891080645   11.927554607   20.474042368
   -2.189594880   -3.141592654    8.698547559   16.273672996   22.109859907
   -1.999195325   -3.141592654   11.683260108   14.331432228   23.995615726
   -1.808795770   -3.141592654   14.017542513   10.221824573   26.139440897
   -1.618396215   -3.141592654   15.722717470    8.372732706   28.158648336
   -1.427996661   -3.141592654   17.523166023   11.446839293   29.386558894
   -1.237597106   -3.141592654   20.386968481   19.246768039   29.170941156
   -1.047197551   -3.141592654   24.989623053   29.085365301   27.207819152
   -0.856797996   -3.141592654   31.357978247   37.136155706   23.694358114
   -0.666398442   -3.141592654   38.820471493   40.082250244   19.214276354
   -0.475998887   -3.141592654   46.211635977   36.266974424   14.447488498
   -0.285599332   -3.141592654   52.235975526   25.947345150    9.857005447
   -0.095199777   -3.141592654   55.809863211   10.981435108    5.542676383
    0.095199777   -3.141592654   56.324433785   -5.592990689    1.315379764
    0.285599332   -3.141592654   53.829893363  -19.954531100   -3.064116797
    0.475998887   -3.141592654   49.130835851  -28.135514845   -7.606634656
    0.666398442   -3.141592654   43.712961921  -27.172150789  -11.935617685
    0.856797996   -3.141592654   39.414385963  -16.582129394  -15.366755894
    1.047197551   -3.141592654   37.845636512    0.747356117  -17.201148405
    1.237597106   -3.141592654   39.779360641   19.177777407  -17.071185022
    1.427996661   -3.141592654   44.822542685   32.471236212  -15.146289242
    1.618396215   -3.141592654   51.546594479   36.400272300  -12.042172282
    1.808795770   -3.141592654   58.023114747   29.994963674   -8.528777946
    1.999195325   -3.141592654   62.429254997   15.142595858   -5.201470187
    2.189594880   -3.141592654   63.463644234   -4.808818092   -2.298039380
    2.379994435   -3.141592654   60.509554451  -26.138400357    0.278863881
    2.570393989   -3.141592654   53.661160144  -45.076115889    2.794524848
    2.760793544   -3.141592654   43.733446871  -57.886622931    5.480880716
    2.951193099   -3.141592654   32.206871316  -61.488455524    8.405578746

   -3.141592654   -2.771993518   27.681862524  -47.564163073   18.635895830
   -2.951193099   -2.771993518   19.866200541  -33.582044175   21.827487460
   -2.760793544   -2.771993518   15.161697022  -15.679551231   23.974335409
   -2.570393989   -2.771993518   13.825540235    1.026739651   25.077324585
   -2.379994435   -2.771993518   15.205373792   12.343476800   25.457035935
   -2.189594880   -2.771993518   18.077937123   16.703645164   25.615463734
   -1.999195325   -2.771993518   21.207534798   15.488097088   25.979455938
   -1.808795770   -2.771993518   23.835613765   12.073279938   26.664147344
   -1.618396215   -2.771993518   25.898135150   10.084847683   27.377500975
   -1.427996661   -2.771993518   27.911328743   11.754976330   27.539027408
   -1.237597106   -2.771993518   30.608867631   17.065272833   26.558009891
   -1.047197551   -2.771993518   34.519333581   24.010273752   24.134786678
   -0.856797996   -2.771993518   39.673225393   29.592587223   20.401361482
   -0.666398442   -2.771993518   45.539261648   31.059033332   15.834421762
   -0.475998887   -2.771993518   51.156917360   26.836900085   11.014268115
   -0.285599332   -2.771993518   55.409534170   16.863029359    6.350624066
   -0.095199777   -2.771993518   57.311576246    2.524925784    1.955749326
    0.095199777   -2.771993518   56.272151260  -13.470868829   -2.294362581
    0.285599332   -2.771993518   52.326615810  -27.303426761   -6.543341969
    0.475998887   -2.771993518   46.294946827  -34.699877757  -10.720051237
    0.666398442   -2.771993518   39.748451228  -32.323252986  -14.426878461
    0.856797996   -2.771993518   34.664685304  -19.542616135  -17.048707392
    1.047197551   -2.771993518   32.784946619    0.500912936  -18.029814355
    1.237597106   -2.771993518   34.930241833   21.585822238  -17.165802327
    1.427996661   -2.771993518   40.635363321   36.873071666  -14.727300834
    1.618396215   -2.771993518   48.310212020   41.829921980  -11.321701188
    1.808795770   -2.771993518   55.850869354   35.642762876   -7.605416800
    1.999195325   -2.771993518   61.323635358   20.689218781   -4.001359419
    2.189594880   -2.771993518   63.417000804    0.831531926   -0.582756703
    2.379994435   -2.771993518   61.580961279  -19.958566898    2.843240492
    2.570393989   -2.771993518   55.988325767  -38.046343851    6.524222001
    2.760793544   -2.771993518   47.475589823  -50.124359235   10.544135932
    2.951193099   -2.771993518   37.452212288  -53.607839254   14.718620022

   -3.141592654   -2.402394382   34.957729819  -41.086648990   18.488947128
   -2.951193099   -2.402394382   28.183427752  -29.216115598   21.016134489
   -2.760793544   -2.402394382   24.093276812  -13.557740020   22.390576413
   -2.570393989   -2.402394382   22.986554051    1.449946177   22.704550719
   -2.379994435   -2.402394382   24.361372205   12.044729233   22.314063131
   -2.189594880   -2.402394382   27.186033813   16.628061889   21.673492613
   -1.999195325   -2.402394382   30.364311241   16.091415301   21.115099329
   -1.808795770   -2.402394382   33.155159860   13.068827759   20.701343558
   -1.618396215   -2.402394382   35.373223318   10.531624089   20.209077375
   -1.427996661   -2.402394382   37.324444605   10.471631374   19.258433794
   -1.237597106   -2.402394382   39.538709283   13.192278047   17.516607057
   -1.047197551   -2.402394382   42.447893925   17.431062989   14.880243847
   -0.856797996   -2.402394382   46.141061506   21.009124036   11.524463943
   -0.666398442   -2.402394382   50.273236836   21.657423293    7.803265396
   -0.475998887   -2.402394382   54.114039281   17.742421905    4.073897259
   -0.285599332   -2.402394382   56.718958942    8.713443915    0.524808248
   -0.095199777   -2.402394382   57.165728443   -4.639095753   -2.863917862
    0.095199777   -2.402394382   54.832435414  -19.944379183   -6.234434288
    0.285599332   -2.402394382   49.700803629  -33.283507887   -9.660598550
    0.475998887   -2.402394382   42.590889646  -39.959366967  -12.987535082
    0.666398442   -2.402394382   35.160810813  -36.204449634  -15.788269593
    0.856797996   -2.402394382   29.529444987  -21.287378141  -17.507082189
    1.047197551   -2.402394382   27.557346257    1.311492822  -17.708334342
    1.237597106   -2.402394382   30.090124691   24.765567135  -16.307385610
    1.427996661   -2.402394382   36.572217463   41.711522847  -13.623430430
    1.618396215   -2.402394382   45.254991527   47.440297058  -10.219055137
    1.808795770   -2.402394382   53.883825375   41.394318883   -6.639971380
    1.999195325   -2.402394382   60.450556528   26.443186070   -3.189680562
    2.189594880   -2.402394382   63.661904971    6.889612201    0.133737699
    2.379994435   -2.402394382   63.042584006  -13.176028463    3.531775912
    2.570393989   -2.402394382   58.826441748  -30.387460068    7.198504314
    2.760793544   -2.402394382   51.831648102  -41.953219687   11.127421231
    2.951193099   -2.402394382   43.349289153  -45.772241987   15.044109323

   -3.141592654   -2.032795246   40.599478401  -36.694830920   13.654555216
   -2.951193099   -2.032795246   34.480674678  -26.790465874   15.193148567
   -2.760793544   -2.032795246   30.657782216  -13.135841082   15.802609464
   -2.570393989   -2.032795246   29.475298415    0.338755621   15.581935178
   -2.379994435   -2.032795246   30.549030904   10.112224195   14.799458905
   -2.189594880   -2.032795246   32.975232727   14.440457779   13.769416175
   -1.999195325   -2.032795246   35.729188602   13.809953935   12.709470410
   -1.808795770   -2.032795246   38.058898990   10.438710398   11.671224376
   -1.618396215   -2.032795246   39.707526655    7.109714375   10.556139233
   -1.427996661   -2.032795246   40.905099619    5.955909919    9.202687169
   -1.237597106   -2.032795246   42.158180245    7.673665359    7.493273243
   -1.047197551   -2.032795246   43.957856822   11.421509586    5.431575392
   -0.856797996   -2.032795246   46.518498323   15.255781314    3.140198219
   -0.666398442   -2.032795246   49.631513852   16.798381934    0.789596918
   -0.475998887   -2.032795246   52.653421437   14.003532608   -1.493744599
   -0.285599332   -2.032795246   54.633606459    5.811590352   -3.707422168
   -0.095199777   -2.032795246   54.558441651   -7.333818373   -5.961120074
    0.095199777   -2.032795246   51.681023974  -23.035489653   -8.401721375
    0.285599332   -2.032795246   45.902849583  -36.957806600  -11.060343418
    0.475998887   -2.032795246   38.067539702  -43.771660885  -13.736887140
    0.666398442   -2.032795246   29.971321303  -39.203531370  -15.983136810
    0.856797996   -2.032795246   23.929601478  -22.439974927  -17.247739913
    1.047197551   -2.032795246   21.967194627    2.611512321  -17.115794718
    1.237597106   -2.032795246   24.978725921   28.411496461  -15.523737615
    1.427996661   -2.032795246   32.323958045   46.971487056  -12.794063886
    1.618396215   -2.032795246   42.085511884   53.354737001   -9.475623436
    1.808795770   -2.032795246   51.842045972   47.239161333   -6.094328916
    1.999195325   -2.032795246   59.493198501   31.989675196   -2.948246448
    2.189594880   -2.032795246   63.747770148   12.357762683   -0.057923446
    2.379994435   -2.032795246   64.192015125   -7.418828764    2.736960583
    2.570393989   -2.032795246   61.115034180  -24.190168101    5.598431237
    2.760793544   -2.032795246   55.323116183  -35.609958706    8.530680960
    2.951193099   -2.032795246   48.009399848  -39.988561832   11.329184854

   -3.141592654   -1.663196111   41.062916437  -36.231486418   13.082631693
   -2.951193099   -1.663196111   35.020078991  -26.472906733   13.876797953
   -2.760793544   -1.663196111   31.238877960  -13.035055044   13.516124493
   -2.570393989   -1.663196111   30.045198929    0.090359372   12.140697608
   -2.379994435   -1.663196111   31.024890138    9.343646694   10.068659865
   -2.189594880   -1.663196111   33.240911731   12.974395756    7.654328181
   -1.999195325   -1.663196111   35.638783476   11.523882602    5.158911724
   -1.808795770   -1.663196111   37.454506819    7.343716600    2.717568746
   -1.618396215   -1.663196111   38.452314678    3.426094831    0.382959774
   -1.427996661   -1.663196111   38.926840932    2.138621192   -1.804669097
   -1.237597106   -1.663196111   39.487723374    4.329377245   -3.773098317
   -1.047197551   -1.663196111   40.741028445    9.108848809   -5.418823107
   -0.856797996   -1.663196111   42.985137495   14.257398707   -6.655972759
   -0.666398442   -1.663196111   46.024684426   16.965699569   -7.474007317
   -0.475998887   -1.663196111   49.148461965   14.785010254   -7.968099071
   -0.285599332   -1.663196111   51.276068511    6.454343038   -8.341191869
   -0.095199777   -1.663196111   51.252183219   -7.539741377   -8.840293053
    0.095199777   -1.663196111   48.219988353  -24.480896606   -9.671949965
    0.285599332   -1.663196111   42.051161667  -39.553453907  -10.880429825
    0.475998887   -1.663196111   33.658273513  -46.888100486  -12.279393614
    0.666398442   -1.663196111   24.998588059  -41.821715205  -13.468146553
    0.856797996   -1.663196111   18.591106827  -23.507905399  -13.975635747
    1.047197551   -1.663196111   16.630084931    3.745133335  -13.461965574
    1.237597106   -1.663196111   20.071556819   31.719559531  -11.890523988
    1.427996661   -1.663196111   28.204678517   51.779644687   -9.528069752
    1.618396215   -1.663196111   38.945763024   58.660639056   -6.795957239
    1.808795770   -1.663196111   49.684371166   52.119907283   -4.064250008
    1.999195325   -1.663196111   58.177059578   35.888168427   -1.498737533
    2.189594880   -1.663196111   63.067534177   15.144669318    0.950360429
    2.379994435   -1.663196111   63.948618850   -5.573596843    3.443552829
    2.570393989   -1.663196111   61.156505908  -22.995458465    6.087041640
    2.760793544   -1.663196111   55.552259617  -34.799573115    8.797013148
    2.951193099   -1.663196111   48.371304257  -39.387555155   11.269670875

   -3.141592654   -1.293596975   41.691076763  -37.299270691    9.250495567
   -2.951193099   -1.293596975   35.355491158  -28.463170839    9.283719119
   -2.760793544   -1.293596975   31.125841788  -15.703974990    8.351704210
   -2.570393989   -1.293596975   29.385495803   -2.934267427    6.570411860
   -2.379994435   -1.293596975   29.775414959    6.198422551    4.158033139
   -2.189594880   -1.293596975   31.386887418    9.765332962    1.324778072
   -1.999195325   -1.293596975   33.163220632    8.194583998   -1.786486243
   -1.808795770   -1.293596975   34.332421675    3.897567851   -5.056183311
   -1.618396215   -1.293596975   34.677743050    0.074527245   -8.299110149
   -1.427996661   -1.293596975   34.556214463   -0.684631262  -11.217366649
   -1.237597106   -1.293596975   34.670079603    2.543209305  -13.447260799
   -1.047197551   -1.293596975   35.711309262    8.705474945  -14.684947524
   -0.856797996   -1.293596975   38.013627346   15.241804515  -14.824874934
   -0.666398442   -1.293596975   41.343917622   18.943857517  -14.025174593
   -0.475998887   -1.293596975   44.886868916   17.080174206  -12.661110577
   -0.285599332   -1.293596975   47.421887593    8.317041801  -11.203079132
   -0.095199777   -1.293596975   47.660658973   -6.730444141  -10.055262905
    0.095199777   -1.293596975   44.655215071  -25.026225173   -9.444130623
    0.285599332   -1.293596975   38.260885974  -41.312969752   -9.342453801
    0.475998887   -1.293596975   29.463789454  -49.236761036   -9.497719463
    0.666398442   -1.293596975   20.377204546  -43.787910345   -9.527631487
    0.856797996   -1.293596975   13.712120920  -24.106731297   -9.083004754
    1.047197551   -1.293596975   11.819924275    5.103034479   -7.998543501
    1.237597106   -1.293596975   15.708855471   34.988798833   -6.371304630
    1.427996661   -1.293596975   24.599992039   56.329084522   -4.478855998
    1.618396215   -1.293596975   36.258830248   63.598453609   -2.622863681
    1.808795770   -1.293596975   47.911294096   56.676707037   -0.978029033
    1.999195325   -1.293596975   57.198831255   39.639099189    0.470044580
    2.189594880   -1.293596975   62.719264868   18.018588037    1.869144157
    2.379994435   -1.293596975   64.072701022   -3.464310880    3.385253146
    2.570393989   -1.293596975   61.618456661  -21.549370522    5.078192149
    2.760793544   -1.293596975   56.224968768  -34.051955517    6.826822016
    2.951193099   -1.293596975   49.108725531  -39.485786429    8.337980265

   -3.141592654   -0.923997839   42.741945177  -38.493368318    4.349219783
   -2.951193099   -0.923997839   36.070985247  -30.769617490    3.318509881
   -2.760793544   -0.923997839   31.314122595  -18.873677922    1.567266785
   -2.570393989   -0.923997839   28.917795118   -6.594580962   -0.744373490
   -2.379994435   -0.923997839   28.588473575    2.336559597   -3.437089406
   -2.189594880   -0.923997839   29.454032570    5.791208958   -6.396749797
   -1.999195325   -0.923997839   30.459801994    4.067382034   -9.565671876
   -1.808795770   -0.923997839   30.829391734   -0.351173179  -12.835618932
   -1.618396215   -0.923997839   30.374476662   -4.009356887  -15.937052096
   -1.427996661   -0.923997839   29.534360847   -4.036216138  -18.431035501
   -1.237597106   -0.923997839   29.133209114    0.598514238  -19.836606417
   -1.047197551   -0.923997839   29.979514847    8.659330941  -19.837186717
   -0.856797996   -0.923997839   32.461705715   17.144256389  -18.444521487
   -0.666398442   -0.923997839   36.305295032   22.314200072  -16.017911424
   -0.475998887   -0.923997839   40.561446311   21.030680789  -13.131678303
   -0.285599332   -0.923997839   43.823117282   11.838383983  -10.358793301
   -0.095199777   -0.923997839   44.624171962   -4.455994033   -8.072653581
    0.095199777   -0.923997839   41.901060056  -24.344904703   -6.363405967
    0.285599332   -0.923997839   35.498891095  -41.988034741   -5.056832455
    0.475998887   -0.923997839   26.502150670  -50.501705599   -3.854944377
    0.666398442   -0.923997839   17.199608657  -44.628999193   -2.508531496
    0.856797996   -0.923997839   10.485021313  -23.687272762   -0.959019917
    1.047197551   -0.923997839    8.822448157    7.075009051    0.632608740
    1.237597106   -0.923997839   13.213909607   38.186262149    1.971702059
    1.427996661   -0.923997839   22.774866154   60.029091160    2.818767503
    1.618396215   -0.923997839   35.127949616   67.085431587    3.122698092
    1.808795770   -0.923997839   47.389068162   59.548371641    3.045652790
    1.999195325   -0.923997839   57.159939898   41.863185064    2.874611362
    2.189594880   -0.923997839   63.057038071   19.788933553    2.875892108
    2.379994435   -0.923997839   64.719931830   -1.964754059    3.182238092
    2.570393989   -0.923997839   62.527707208  -20.315996649    3.740956263
    2.760793544   -0.923997839   57.327358273  -33.309617804    4.330689520
    2.951193099   -0.923997839   50.278593418  -39.578424717    4.632962398

   -3.141592654   -0.554398704   43.313724760  -40.956502709    0.525563498
   -2.951193099   -0.554398704   36.057192408  -34.406230490   -1.323973334
   -2.760793544   -0.554398704   30.523949177  -23.308682694   -3.679143341
   -2.570393989   -0.554398704   27.241969845  -11.399340908   -6.332742698
   -2.379994435   -0.554398704   25.984380842   -2.589873119   -9.124829540
   -2.189594880   -0.554398704   25.903080134    0.764142044  -12.008055439
   -1.999195325   -0.554398704   25.940464075   -1.062919514  -14.977000784
   -1.808795770   -0.554398704   25.341530934   -5.314178113  -17.907646130
   -1.618396215   -0.554398704   24.008765499   -8.125349787  -20.442883095
   -1.427996661   -0.554398704   22.537736913   -6.394291407  -22.047294509
   -1.237597106   -0.554398704   21.916538082    0.732465766  -22.226468110
   -1.047197551   -0.554398704   23.043905847   11.448440875  -20.789511674
   -0.856797996   -0.554398704   26.271248220   22.042594595  -17.982118563
   -0.666398442   -0.554398704   31.166292940   28.258725457  -14.397466869
   -0.475998887   -0.554398704   36.559579029   26.843463006  -10.732788061
   -0.285599332   -0.554398704   40.840914086   16.626530047   -7.505899493
   -0.095199777   -0.554398704   42.423079607   -1.057598652   -4.883577134
    0.095199777   -0.554398704   40.227958951  -22.123698189   -2.685157425
    0.285599332   -0.554398704   34.182947270  -40.338455380   -0.531044231
    0.475998887   -0.554398704   25.501909329  -48.738069761    1.903212509
    0.666398442   -0.554398704   16.584284934  -42.326093900    4.659734891
    0.856797996   -0.554398704   10.360080799  -20.901447207    7.413020172
    1.047197551   -0.554398704    9.237875703    9.840855204    9.595250423
    1.237597106   -0.554398704   14.103365531   40.294098532   10.670587725
    1.427996661   -0.554398704   23.967546833   61.069427099   10.431801853
    1.618396215   -0.554398704   36.417266272   67.099837437    9.102732643
    1.808795770   -0.554398704   48.615884352   58.969652364    7.219679471
    1.999195325   -0.554398704   58.264262276   41.242888627    5.378129999
    2.189594880   -0.554398704   64.072548937   19.515388556    3.989368543
    2.379994435   -0.554398704   65.723127592   -1.845113821    3.166888467
    2.570393989   -0.554398704   63.569444971  -20.105428396    2.746628642
    2.760793544   -0.554398704   58.376068195  -33.540508632    2.394244238
    2.951193099   -0.554398704   51.197967458  -40.784135449    1.742196600

   -3.141592654   -0.184799568   42.869342448  -44.374944277   -2.240777077
   -2.951193099   -0.184799568   34.870456725  -38.716160664   -4.332561087
   -2.760793544   -0.184799568   28.458664876  -28.152119517   -6.700456949
   -2.570393989   -0.184799568   24.231342531  -16.441803420   -9.162139983
   -2.379994435   -0.184799568   22.006701914   -7.703331577  -11.619926083
   -2.189594880   -0.184799568   20.943416647   -4.439574747  -14.089620225
   -1.999195325   -0.184799568   19.987915273   -6.237887973  -16.587577484
   -1.808795770   -0.184799568   18.445889378   -9.910603933  -18.956508592
   -1.618396215   -0.184799568   16.369771006  -11.149888651  -20.777894517
   -1.427996661   -0.184799568   14.558841534   -6.785370976  -21.485350204
   -1.237597106   -0.184799568   14.165243138    3.538786086  -20.639845189
   -1.047197551   -0.184799568   16.112767458   17.120182659  -18.204428674
   -0.856797996   -0.184799568   20.603046691   29.392637978  -14.621415389
   -0.666398442   -0.184799568   26.933821216   35.729276742  -10.626398782
   -0.475998887   -0.184799568   33.655255144   33.160461009   -6.922084287
   -0.285599332   -0.184799568   38.981467338   21.271462616   -3.867230381
   -0.095199777   -0.184799568   41.311702939    2.271721750   -1.363228402
    0.095199777   -0.184799568   39.700356525  -19.138270184    1.037497583
    0.285599332   -0.184799568   34.275914685  -36.662363020    3.852739162
    0.475998887   -0.184799568   26.407913149  -43.863519743    7.335737828
    0.666398442   -0.184799568   18.510943921  -36.634811112   11.245737943
    0.856797996   -0.184799568   13.360580690  -15.566699496   14.866039279
    1.047197551   -0.184799568   13.106853083   13.392374768   17.293740036
    1.237597106   -0.184799568   18.397371761   41.117029750   17.861821346
    1.427996661   -0.184799568   28.149977948   59.157763366   16.477329054
    1.618396215   -0.184799568   40.041164817   63.343334925   13.647954118
    1.808795770   -0.184799568   51.451245165   54.660615492   10.224456545
    1.999195325   -0.184799568   60.316916911   37.476378783    7.021986238
    2.189594880   -0.184799568   65.506266058   16.814155095    4.529977746
    2.379994435   -0.184799568   66.740513325   -3.581654258    2.824704588
    2.570393989   -0.184799568   64.307929591  -21.409022411    1.660515394
    2.760793544   -0.184799568   58.852162220  -35.100804902    0.646406588
    2.951193099   -0.184799568   51.305773889  -43.163890793   -0.583000567

   -3.141592654    0.184799568   41.926874164  -47.397745800   -4.461274082
   -2.951193099    0.184799568   33.302449395  -42.201913656   -6.236267343
   -2.760793544    0.184799568   26.201811125  -31.851470870   -7.986314706
   -2.570393989    0.184799568   21.264438273  -20.182861640   -9.655692772
   -2.379994435    0.184799568   18.325007193  -11.480332008  -11.283869746
   -2.189594880    0.184799568   16.536420702   -8.271551800  -12.967692929
   -1.999195325    0.184799568   14.861831510   -9.880878362  -14.721572281
   -1.808795770    0.184799568   12.696383489  -12.661564362  -16.335106595
   -1.618396215    0.184799568   10.262139770  -11.986555730  -17.351807995
   -1.427996661    0.184799568    8.545766215   -4.860294582  -17.240766409
   -1.237597106    0.184799568    8.798437310    8.334854482  -15.683029125
   -1.047197551    0.184799568   11.871370641   23.921480483  -12.803319688
   -0.856797996    0.184799568   17.725952054   36.641393745   -9.162894035
   -0.666398442    0.184799568   25.352682506   41.868931690   -5.497069864
   -0.475998887    0.184799568   33.062804906   37.345188656   -2.360483820
   -0.285599332    0.184799568   39.007611017   23.702362648    0.145574072
   -0.095199777    0.184799568   41.717160447    4.056916032    2.391078442
    0.095199777    0.184799568   40.501787663  -16.533097709    4.997984662
    0.285599332    0.184799568   35.744260227  -32.152674265    8.470801085
    0.475998887    0.184799568   28.932573261  -37.374182641   12.848530286
    0.666398442    0.184799568   22.379799243  -29.294141611   17.545695379
    0.856797996    0.184799568   18.558657770   -9.309206338   21.509756686
    1.047197551    0.184799568   19.239271303   16.677001417   23.654132148
    1.237597106    0.184799568   24.785430158   40.469795879   23.354205062
    1.427996661    0.184799568   34.059170583   54.948327422   20.739127019
    1.618396215    0.184799568   44.918333365   57.005556036   16.596857638
    1.808795770    0.184799568   55.060058673   47.956486878   11.990990465
    1.999195325    0.184799568   62.726858529   31.757056833    7.816634043
    2.189594880    0.184799568   66.972268058   12.645070769    4.530737073
    2.379994435    0.184799568   67.551200291   -6.378125532    2.135204421
    2.570393989    0.184799568   64.670032192  -23.445335801    0.342748138
    2.760793544    0.184799568   58.842070747  -37.076526745   -1.203186282
    2.951193099    0.184799568   50.882413128  -45.583132992   -2.769118199

   -3.141592654    0.554398704   42.499804662  -48.423096302   -4.115226101
   -2.951193099    0.554398704   33.609967474  -43.952907114   -5.078721954
   -2.760793544    0.554398704   26.107173963  -34.297003520   -5.909956815
   -2.570393989    0.554398704   20.648874671  -23.175514167   -6.676044314
   -2.379994435    0.554398704   17.103156147  -14.820122442   -7.487832203
   -2.189594880    0.554398704   14.666435126  -11.682347149   -8.437090152
   -1.999195325    0.554398704   12.369410040  -12.912826721   -9.491167148
   -1.808795770    0.554398704    9.713992135  -14.652628911  -10.428310554
   -1.618396215    0.554398704    7.057310017  -12.229124861  -10.874858943
   -1.427996661    0.554398704    5.496884090   -2.961945764  -10.464263415
   -1.237597106    0.554398704    6.301347902   12.123197882   -9.040616951
   -1.047197551    0.554398704   10.207176954   28.683551459   -6.785811967
   -0.856797996    0.554398704   16.964608033   41.172184361   -4.153733539
   -0.666398442    0.554398704   25.355855967   45.273844126   -1.635650761
   -0.475998887    0.554398704   33.591004169   39.515464537    0.504229970
   -0.285599332    0.554398704   39.884851393   25.379109073    2.391742945
   -0.095199777    0.554398704   42.965347560    6.499016513    4.483555626
    0.095199777    0.554398704   42.383291027  -12.182342552    7.336528423
    0.285599332    0.554398704   38.675064567  -25.509948804   11.264779707
    0.475998887    0.554398704   33.294136385  -29.220296240   16.064511127
    0.666398442    0.554398704   28.299601151  -21.451334878   20.935634353
    0.856797996    0.554398704   25.768234147   -3.959779240   24.711638355
    1.047197551    0.554398704   27.094465547   17.930165296   26.325601600
    1.237597106    0.554398704   32.452710395   37.321928606   25.287518427
    1.427996661    0.554398704   40.783495600   48.468496159   21.903029801
    1.618396215    0.554398704   50.239276133   49.084273288   17.101746583
    1.808795770    0.554398704   58.888722444   40.475950013   12.009324736
    1.999195325    0.554398704   65.277649769   25.954548651    7.507063175
    2.189594880    0.554398704   68.615414659    8.915720450    4.004834197
    2.379994435    0.554398704   68.664163233   -8.308664119    1.473568196
    2.570393989    0.554398704   65.538227290  -24.205637196   -0.359214447
    2.760793544    0.554398704   59.619285313  -37.380704267   -1.791092022
    2.951193099    0.554398704   51.594091325  -46.047563182   -3.018772171

   -3.141592654    0.923997839   41.681879275  -49.181063790   -4.499888920
   -2.951193099    0.923997839   32.686319722  -44.287810681   -4.436793621
   -2.760793544    0.923997839   25.152076890  -34.311754679   -4.022266004
   -2.570393989    0.923997839   19.704047456  -23.094692684   -3.509273921
   -2.379994435    0.923997839   16.160265357  -14.924973202   -3.156633818
   -2.189594880    0.923997839   13.668758596  -12.170330053   -3.124119957
   -1.999195325    0.923997839   11.242134278  -13.757675334   -3.400710180
   -1.808795770    0.923997839    8.413490034  -15.559422463   -3.813841969
   -1.618396215    0.923997839    5.613779172  -12.751222709   -4.102386829
   -1.427996661    0.923997839    4.020898603   -2.744873532   -4.024676508
   -1.237597106    0.923997839    4.944367317   13.124573770   -3.454352241
   -1.047197551    0.923997839    9.095461244   30.183578831   -2.425705647
   -0.856797996    0.923997839   16.153399661   42.768073441   -1.087057572
   -0.666398442    0.923997839   24.840846189   46.791679108    0.404620434
   -0.475998887    0.923997839   33.376727873   41.245684130    2.001084192
   -0.285599332    0.923997839   40.075205003   28.042927237    3.835351486
   -0.095199777    0.923997839   43.820066322   10.942806607    6.177243510
    0.095199777    0.923997839   44.298279179   -5.462831296    9.299830676
    0.285599332    0.923997839   42.070487047  -16.810472121   13.248130272
    0.475998887    0.923997839   38.440222902  -19.819938360   17.658038330
    0.666398442    0.923997839   35.146053164  -13.358119218   21.731842388
    0.856797996    0.923997839   33.865553945    0.780739386   24.469813734
    1.047197551    0.923997839   35.666368335   18.068204714   25.071752016
    1.237597106    0.923997839   40.607656966   32.941341518   23.308325437
    1.427996661    0.923997839   47.772767660   40.907183611   19.623456521
    1.618396215    0.923997839   55.641632073   40.311034104   14.913142475
    1.808795770    0.923997839   62.651499530   32.271903874   10.135624522
    1.999195325    0.923997839   67.622474290   19.366001574    5.963674024
    2.189594880    0.923997839   69.882729166    4.164044958    2.657675716
    2.379994435    0.923997839   69.178189099  -11.554326860    0.153911149
    2.570393989    0.923997839   65.537460319  -26.446154375   -1.734145060
    2.760793544    0.923997839   59.254566995  -39.003724164   -3.136753848
    2.951193099    0.923997839   50.962600348  -47.229535441   -4.071539097

   -3.141592654    1.293596975   38.433614570  -50.025199867   -8.100523019
   -2.951193099    1.293596975   29.429851787  -43.553442980   -7.975793051
   -2.760793544    1.293596975   22.154257351  -32.433150794   -7.078990983
   -2.570393989    1.293596975   17.114030676  -20.820602672   -5.682026343
   -2.379994435    1.293596975   13.979507726  -13.011876387   -4.114965349
   -2.189594880    1.293596975   11.775212556  -11.122165943   -2.633284886
   -1.999195325    1.293596975    9.450771884  -13.729822730   -1.347475335
   -1.808795770    1.293596975    6.540712791  -16.395447485   -0.256511583
   -1.618396215    1.293596975    3.528280721  -14.074869205    0.676435083
   -1.427996661    1.293596975    1.676662052   -4.051829966    1.470154017
   -1.237597106    1.293596975    2.396921559   12.374378796    2.124095320
   -1.047197551    1.293596975    6.497693487   30.465055390    2.648713901
   -0.856797996    1.293596975   13.733979948   44.384799134    3.108870616
   -0.666398442    1.293596975   22.865926448   49.834523509    3.642041602
   -0.475998887    1.293596975   32.110724082   45.624615786    4.452192525
   -0.285599332    1.293596975   39.755858544   33.572163245    5.785185259
   -0.095199777    1.293596975   44.646206707   17.406695759    7.856479062
    0.095199777    1.293596975   46.420424407    1.613020105   10.757646711
    0.285599332    1.293596975   45.555066532   -9.704207058   14.312082608
    0.475998887    1.293596975   43.208846718  -13.622402000   18.003752289
    0.666398442    1.293596975   40.917511430   -9.208679198   21.035726365
    0.856797996    1.293596975   40.154752086    1.956001359   22.581356581
    1.047197551    1.293596975   41.868469228   16.003296316   22.117954566
    1.237597106    1.293596975   46.146581822   28.196190525   19.681922862
    1.427996661    1.293596975   52.242397866   34.628748456   15.846104960
    1.618396215    1.293596975   58.869961290   33.730309662   11.448609327
    1.808795770    1.293596975   64.669228140   26.226648506    7.239255185
    1.999195325    1.293596975   68.564751104   14.114702659    3.626918842
    2.189594880    1.293596975   69.887729953   -0.477847486    0.655657800
    2.379994435    1.293596975   68.333907882  -15.870375866   -1.845220878
    2.570393989    1.293596975   63.894662429  -30.494987737   -4.043531924
    2.760793544    1.293596975   56.887255225  -42.483142181   -5.945660564
    2.951193099    1.293596975   48.027527181  -49.611540299   -7.378332923

   -3.141592654    1.663196111   33.511281916  -51.831633833  -13.723904916
   -2.951193099    1.663196111   24.377969977  -43.108057040  -13.999516554
   -2.760793544    1.663196111   17.378246390  -30.090436973  -12.950270255
   -2.570393989    1.663196111   12.902779030  -17.379558934  -10.779272951
   -2.379994435    1.663196111   10.458543626   -9.331345033   -7.854726445
   -2.189594880    1.663196111    8.927099004   -7.807350300   -4.569139818
   -1.999195325    1.663196111    7.174953309  -11.056818006   -1.251269966
   -1.808795770    1.663196111    4.707536906  -14.417063667    1.822521015
   -1.618396215    1.663196111    2.009561069  -12.734957952    4.392542566
   -1.427996661    1.663196111    0.363597941   -3.199407082    6.229475773
   -1.237597106    1.663196111    1.222154271   13.024567484    7.211427227
   -1.047197551    1.663196111    5.460676901   31.326693524    7.406352994
   -0.856797996    1.663196111   12.916666627   45.886489887    7.094081495
   -0.666398442    1.663196111   22.422149509   52.281659355    6.691211689
   -0.475998887    1.663196111   32.232957217   49.120472448    6.619176921
   -0.285599332    1.663196111   40.637505545   38.017168898    7.186034299
   -0.095199777    1.663196111   46.444738467   22.537006135    8.506015816
    0.095199777    1.663196111   49.226032577    6.960802013   10.475087731
    0.285599332    1.663196111   49.346938468   -4.833349704   12.752683208
    0.475998887    1.663196111   47.814319915  -10.099638641   14.810545246
    0.666398442    1.663196111   45.998014711   -7.848295019   16.050645456
    0.856797996    1.663196111   45.251042699    0.743025075   16.010890608
    1.047197551    1.663196111   46.502852567   12.463759498   14.555519384
    1.237597106    1.663196111   49.948352693   23.162836682   11.962995094
    1.427996661    1.663196111   55.027597392   29.147596419    8.787051269
    1.618396215    1.663196111   60.636387487   28.604032112    5.600958856
    1.808795770    1.663196111   65.519010365   21.717403835    2.755912090
    1.999195325    1.663196111   68.597671953    9.972562124    0.278321214
    2.189594880    1.663196111   69.127091672   -4.749998243   -2.046244647
    2.379994435    1.663196111   66.716431640  -20.624175649   -4.481457932
    2.570393989    1.663196111   61.328628660  -35.640443262   -7.137638198
    2.760793544    1.663196111   53.349373906  -47.403132570   -9.853394354
    2.951193099    1.663196111   43.646275453  -53.377873657  -12.217166167

   -3.141592654    2.032795246   27.261488401  -55.182145525  -14.829406874
   -2.951193099    2.032795246   17.743090898  -43.721785089  -14.963851803
   -2.760793544    2.032795246   10.904743963  -27.816743555  -13.612112481
   -2.570393989    2.032795246    7.106779467  -12.645220342  -10.963070303
   -2.379994435    2.032795246    5.737747236   -2.916738626   -7.392109544
   -2.189594880    2.032795246    5.517984554   -0.589545188   -3.306890009
   -1.999195325    2.032795246    5.149352667   -3.878359335    0.935855157
   -1.808795770    2.032795246    3.983011012   -8.051015614    4.999696055
   -1.618396215    2.032795246    2.366915075   -7.828125316    8.515895343
   -1.427996661    2.032795246    1.483744366   -0.127105095   11.107316911
   -1.237597106    2.032795246    2.753575658   14.314682475   12.508568507
   -1.047197551    2.032795246    7.107761342   31.359741657   12.704947530
   -0.856797996    2.032795246   14.515007496   45.476277378   11.984175120
   -0.666398442    2.032795246   23.966211366   52.226525002   10.842162006
   -0.475998887    2.032795246   33.843983464   49.918128696    9.792422665
   -0.285599332    2.032795246   42.491546422   39.739985559    9.181162217
   -0.095199777    2.032795246   48.691893226   24.860287565    9.074061644
    0.095199777    2.032795246   51.925979606    9.272569689    9.265326558
    0.285599332    2.032795246   52.428670326   -3.259956091    9.357519094
    0.475998887    2.032795246   51.072626057   -9.906605875    8.931581958
    0.666398442    2.032795246   49.131481254   -9.359808166    7.726711154
    0.856797996    2.032795246   47.942714071   -2.311943741    5.778038898
    1.047197551    2.032795246   48.513324706    8.509278799    3.414179929
    1.237597106    2.032795246   51.187522574   19.156953180    1.129274674
    1.427996661    2.032795246   55.555734873   25.762275919   -0.667904869
    1.618396215    2.032795246   60.598283409   26.028112999   -1.839622202
    1.808795770    2.032795246   65.042910293   19.597210075   -2.565668388
    1.999195325    2.032795246   67.707568246    7.618461315   -3.243540333
    2.189594880    2.032795246   67.708913745   -8.038431285   -4.297192337
    2.379994435    2.032795246   64.549226394  -25.220601726   -5.996077941
    2.570393989    2.032795246   58.170172310  -41.373115665   -8.328418774
    2.760793544    2.032795246   49.047756075  -53.505871635  -10.967648336
    2.951193099    2.032795246   38.237478457  -58.687326406  -13.344603579

   -3.141592654    2.402394382   21.008430725  -58.819162272   -8.941035311
   -2.951193099    2.402394382   11.064504081  -44.447531020   -8.237973621
   -2.760793544    2.402394382    4.400791849  -25.262272346   -6.461800711
   -2.570393989    2.402394382    1.383719897   -7.091137011   -3.805381895
   -2.379994435    2.402394382    1.301260834    4.895553939   -0.532677479
   -2.189594880    2.402394382    2.709538636    8.534443861    3.143708053
   -1.999195325    2.402394382    4.124339954    5.563804017    7.069913148
   -1.808795770    2.402394382    4.707654308    0.723263021   11.038493467
   -1.618396215    2.402394382    4.624469810   -0.642042854   14.679747777
   -1.427996661    2.402394382    4.899989375    4.768679845   17.484362751
   -1.237597106    2.402394382    6.858019812   16.640362380   18.980494584
   -1.047197551    2.402394382   11.428268016   31.384822651   18.963048481
   -0.856797996    2.402394382   18.678033988   43.936694828   17.616700851
   -0.666398442    2.402394382   27.761377943   50.038567308   15.443767469
   -0.475998887    2.402394382   37.223461925   47.821052384   13.045215650
   -0.285599332    2.402394382   45.508457348   38.020441131   10.870989207
   -0.095199777    2.402394382   51.402535898   23.285136588    9.062197044
    0.095199777    2.402394382   54.303891614    7.235343808    7.446037713
    0.285599332    2.402394382   54.324504697   -6.370863082    5.661113843
    0.475998887    2.402394382   52.251685039  -14.309689115    3.388958222
    0.666398442    2.402394382   49.376149007  -14.634647615    0.574480008
    0.856797996    2.402394382   47.174357885   -7.478159998   -2.471961920
    1.047197551    2.402394382   46.863229867    4.600950858   -5.179137765
    1.237597106    2.402394382   48.977959565   17.266434631   -6.966470835
    1.427996661    2.402394382   53.185231224   25.899348645   -7.552702631
    1.618396215    2.402394382   58.391731627   27.445464713   -7.084972995
    1.808795770    2.402394382   63.135522376   21.114813039   -6.062708636
    1.999195325    2.402394382   66.003759808    8.066928432   -5.108688768
    2.189594880    2.402394382   65.920013627   -9.470630195   -4.718860306
    2.379994435    2.402394382   62.283525055  -28.780723869   -5.106910372
    2.570393989    2.402394382   55.048657028  -46.684835810   -6.161182529
    2.760793544    2.402394382   44.820524523  -59.607618063   -7.500056268
    2.951193099    2.402394382   32.878356463  -64.238333579   -8.594378959

   -3.141592654    2.771993518   18.540819254  -59.018488996    0.752681780
   -2.951193099    2.771993518    8.693860646  -43.223889813    2.571085219
   -2.760793544    2.771993518    2.400115906  -22.636293785    4.811025530
   -2.570393989    2.771993518    0.000000000   -3.280297057    7.339277657
   -2.379994435    2.771993518    0.737588417    9.669778071   10.081533672
   -2.189594880    2.771993518    3.136035903   14.144449415   13.056623291
   -1.999195325    2.771993518    5.688640341   11.866910025   16.290356018
   -1.808795770    2.771993518    7.510607422    7.336268725   19.652241873
   -1.618396215    2.771993518    8.659166828    5.531181980   22.744933447
   -1.427996661    2.771993518    9.990685755    9.522913470   24.964198604
   -1.237597106    2.771993518   12.648859416   19.133383411   25.727709275
   -1.047197551    2.771993518   17.447584784   31.290759549   24.753255611
   -0.856797996    2.771993518   24.455142495   41.585113705   22.204749176
   -0.666398442    2.771993518   32.937492278   46.223705748   18.617675809
   -0.475998887    2.771993518   41.603012375   43.387574956   14.657970817
   -0.285599332    2.771993518   49.029772287   33.482179972   10.838268178
   -0.095199777    2.771993518   54.054525827   18.658898122    7.343612349
    0.095199777    2.771993518   56.040828135    2.182635242    4.038837849
    0.285599332    2.771993518   55.031890548  -12.160133718    0.635431887
    0.475998887    2.771993518   51.791088103  -20.717931820   -3.042679712
    0.666398442    2.771993518   47.688495211  -20.943360326   -6.842309075
    0.856797996    2.771993518   44.382324599  -12.564142729  -10.250525837
    1.047197551    2.771993518   43.303804485    1.781060979  -12.597131381
    1.237597106    2.771993518   45.137410381   17.143038412  -13.379430252
    1.427996661    2.771993518   49.552466972   28.079393818  -12.545230118
    1.618396215    2.771993518   55.312400755   30.877682093  -10.518029822
    1.808795770    2.771993518   60.728244127   24.545629423   -7.995299229
    1.999195325    2.771993518   64.166843963   10.499053004   -5.643915962
    2.189594880    2.771993518   64.407455468   -8.530636411   -3.864854221
    2.379994435    2.771993518   60.806530033  -29.295146458   -2.722202550
    2.570393989    2.771993518   53.368277831  -48.201781907   -2.012377891
    2.760793544    2.771993518   42.811762265  -61.411967689   -1.400245367
    2.951193099    2.771993518   30.561550112  -65.550142341   -0.552785690
