#! FIELDS phi psi file.free der_phi der_psi
#! SET min_phi -pi
#! SET max_phi pi
#! SET nbins_phi  33
#! SET periodic_phi true
#! SET min_psi -pi
#! SET max_psi pi
#! SET nbins_psi  17
#! SET periodic_psi true
   -3.141592654   -3.141592654   20.262405133  -54.960435843   11.769409070
   -2.951193099   -3.141592654   11.326128661  -37.920454202   14.657678634
   -2.760793544   -3.141592654    6.071199641  -17.242320785   17.160202889
   -2.570393989   -3.141592654    4.628154236    1.264835273   19.179159098
   -2.379994435   -3.141592654    6.120606700   13.065939508   20.849066358
   -2.189594880   -3.141592654    9.080558657   16.740716068   22.488939566
   -1.999195325   -3.141592654   12.097946347   14.237695967   24.400007121
   -1.808795770   -3.141592654   14.376269043    9.753834692   26.616155002
   -1.618396215   -3.141592654   15.971322470    7.712870900   28.769342038
   -1.427996661   -3.141592654   17.642585362   10.777691561   30.187747784
   -1.237597106   -3.141592654   20.398071231   18.819358089   30.195883964
   -1.047197551   -3.141592654   24.966283221   29.184342319   28.450800385
   -0.856797996   -3.141592654   31.424448688   38.004987711   25.103779503
   -0.666398442   -3.141592654   39.132696600   41.777625235   20.693438198
   -0.475998887   -3.141592654   46.912476240   38.596512260   15.868333925
   -0.285599332   -3.141592654   53.408488724   28.483060884   11.084229062
   -0.095199777   -3.141592654   57.442092791   13.176412714    6.464028053
    0.095199777   -3.141592654   58.302291398   -4.231221860    1.864759278
    0.285599332   -3.141592654   55.964966339  -19.686067060   -2.900164043
    0.475998887   -3.141592654   51.217128841  -28.870925815   -7.797894413
    0.666398442   -3.141592654   45.597667489  -28.455964129  -12.426427474
    0.856797996   -3.141592654   41.055769368  -17.737940623  -16.088881423
    1.047197551   -3.141592654   39.332361119    0.362091628  -18.077424553
    1.237597106   -3.141592654   41.294344485   19.861564140  -18.011984220
    1.427996661   -3.141592654   46.556558668   34.000017739  -16.049181785
    1.618396215   -3.141592654   53.598569093   38.059408188  -12.801945618
    1.808795770   -3.141592654   60.330890983   30.872412776   -9.059274481
    1.999195325   -3.141592654   64.769836008   14.521341888   -5.459122731
    2.189594880   -3.141592654   65.522386784   -7.129923991   -2.294479609
    2.379994435   -3.141592654   61.992354946  -29.753031011    0.481397945
    2.570393989   -3.141592654   54.400024100  -49.106234427    3.109658373
    2.760793544   -3.141592654   43.747525618  -61.306565701    5.831664447
    2.951193099   -3.141592654   31.694948881  -63.503526378    8.749068926

   -3.141592654   -2.771993518   27.342069219  -48.050283156   20.047377068
   -2.951193099   -2.771993518   19.570808712  -32.718088948   23.147205384
   -2.760793544   -2.771993518   15.110266255  -14.119321644   25.179349868
   -2.570393989   -2.771993518   14.079808138    2.569852722   26.160451154
   -2.379994435   -2.771993518   15.711367255   13.395835341   26.419765788
   -2.189594880   -2.771993518   18.726192663   17.154633917   26.473617254
   -1.999195325   -2.771993518   21.894861032   15.484359274   26.773623670
   -1.808795770   -2.771993518   24.496920406   11.834447890   27.461814244
   -1.618396215   -2.771993518   26.506632773    9.794384386   28.260395279
   -1.427996661   -2.771993518   28.470761887   11.546691596   28.574723964
   -1.237597106   -2.771993518   31.148593566   17.087981432   27.771976152
   -1.047197551   -2.771993518   35.098879645   24.417458478   25.491921292
   -0.856797996   -2.771993518   40.377656894   30.504434600   21.811943253
   -0.666398442   -2.771993518   46.466026816   32.460288092   17.176092534
   -0.475998887   -2.771993518   52.384267596   28.545661647   12.165955989
   -0.285599332   -2.771993518   56.966420324   18.549706009    7.220804080
   -0.095199777   -2.771993518   59.157059341    3.800471806    2.499008068
    0.095199777   -2.771993518   58.294780140  -12.935416271   -2.077052341
    0.285599332   -2.771993518   54.367602836  -27.654310485   -6.618360387
    0.475998887   -2.771993518   48.192221241  -35.814597395  -11.038435716
    0.666398442   -2.771993518   41.392212993  -33.783189088  -14.939849808
    0.856797996   -2.771993518   36.045728331  -20.736476971  -17.711171406
    1.047197551   -2.771993518   34.013097052    0.168394028  -18.793175358
    1.237597106   -2.771993518   36.204451137   22.408058143  -17.964166172
    1.427996661   -2.771993518   42.165257052   38.655717663  -15.467402869
    1.618396215   -2.771993518   50.219996216   43.889706171  -11.886334149
    1.808795770   -2.771993518   58.106834006   37.064577693   -7.873888628
    1.999195325   -2.771993518   63.725651647   20.701107160   -3.881111731
    2.189594880   -2.771993518   65.658657628   -0.865528909   -0.037685569
    2.379994435   -2.771993518   63.356237653  -23.063672791    3.778287381
    2.570393989   -2.771993518   57.099409842  -41.756778013    7.754692031
    2.760793544   -2.771993518   47.902674532  -53.433900821   11.945234890
    2.951193099   -2.771993518   37.357165746  -55.683458614   16.169937730

   -3.141592654   -2.402394382   35.263232044  -41.678218691   20.305597340
   -2.951193099   -2.402394382   28.504918683  -28.532732047   22.712630860
   -2.760793544   -2.402394382   24.622300972  -12.190953368   23.936926559
   -2.570393989   -2.402394382   23.785930431    2.817623013   24.100554799
   -2.379994435   -2.402394382   25.382107379   12.954550239   23.570238603
   -2.189594880   -2.402394382   28.326061648   16.983476442   22.805859749
   -1.999195325   -2.402394382   31.531283584   16.059487458   22.152006484
   -1.808795770   -2.402394382   34.298395017   12.883930597   21.690300362
   -1.618396215   -2.402394382   36.480763188   10.361096052   21.211994858
   -1.427996661   -2.402394382   38.407688783   10.392754313   20.327877924
   -1.237597106   -2.402394382   40.620837735   13.265912303   18.668211950
   -1.047197551   -2.402394382   43.565410879   17.732207892   16.072785967
   -0.856797996   -2.402394382   47.344835034   21.620372064   12.667718366
   -0.666398442   -2.402394382   51.624853378   22.586481239    8.783014205
   -0.475998887   -2.402394382   55.665166719   18.876269418    4.789282971
   -0.285599332   -2.402394382   58.487166769    9.808460492    0.915876668
   -0.095199777   -2.402394382   59.114262099   -3.898243431   -2.805529492
    0.095199777   -2.402394382   56.865499642  -19.842494168   -6.472541778
    0.285599332   -2.402394382   51.680411146  -33.955372870  -10.134626620
    0.475998887   -2.402394382   44.375344906  -41.297695534  -13.633366222
    0.666398442   -2.402394382   36.656166028  -37.819473553  -16.554217319
    0.856797996   -2.402394382   30.737181131  -22.589465755  -18.355379655
    1.047197551   -2.402394382   28.595931996    0.920983372  -18.603774003
    1.237597106   -2.402394382   31.171236982   25.619608066  -17.198201389
    1.427996661   -2.402394382   37.928608556   43.680246238  -14.425382276
    1.618396215   -2.402394382   47.046250440   49.898060425  -10.814915655
    1.808795770   -2.402394382   56.118638626   43.437286080   -6.898949946
    1.999195325   -2.402394382   62.966741918   27.240539612   -3.001915203
    2.189594880   -2.402394382   66.173807684    6.022835881    0.822522617
    2.379994435   -2.402394382   65.239422377  -15.544884640    4.697720959
    2.570393989   -2.402394382   60.481063444  -33.566309167    8.743767333
    2.760793544   -2.402394382   52.879693806  -44.982995095   12.906946033
    2.951193099   -2.402394382   43.905954152  -47.796409556   16.904570746

   -3.141592654   -2.032795246   41.539993275  -37.488989026   15.192116305
   -2.951193099   -2.032795246   35.387270645  -26.413001661   16.620278107
   -2.760793544   -2.032795246   31.710484385  -12.096939406   17.101428638
   -2.570393989   -2.032795246   30.737271839    1.395214744   16.753745824
   -2.379994435   -2.032795246   31.975825826   10.738959958   15.840410540
   -2.189594880   -2.032795246   34.470381605   14.545750965   14.666919165
   -1.999195325   -2.032795246   37.207894085   13.575670266   13.456607350
   -1.808795770   -2.032795246   39.481123349   10.114409317   12.283120321
   -1.618396215   -2.032795246   41.072719406    6.848711336   11.071653022
   -1.427996661   -2.032795246   42.229020859    5.777780589    9.662673834
   -1.237597106   -2.032795246   43.454122856    7.549484108    7.912116764
   -1.047197551   -2.032795246   45.236000630   11.357001376    5.777600063
   -0.856797996   -2.032795246   47.795993434   15.325635500    3.346227638
   -0.666398442   -2.032795246   50.942288844   17.084414570    0.780127320
   -0.475998887   -2.032795246   54.041201081   14.516282487   -1.765734903
   -0.285599332   -2.032795246   56.131969357    6.426154810   -4.240253139
   -0.095199777   -2.032795246   56.164746410   -6.866930708   -6.707187806
    0.095199777   -2.032795246   53.339400349  -23.007259065   -9.289154167
    0.285599332   -2.032795246   47.508004506  -37.566880065  -12.022931249
    0.475998887   -2.032795246   39.495527957  -44.999023865  -14.734529981
    0.666398442   -2.032795246   31.129833081  -40.732780132  -17.006944562
    0.856797996   -2.032795246   24.811883646  -23.708155775  -18.305002349
    1.047197551   -2.032795246   22.683864331    2.235264138  -18.204619562
    1.237597106   -2.032795246   25.744918593   29.342757963  -16.607754947
    1.427996661   -2.032795246   33.394203582   49.181603351  -13.790053405
    1.618396215   -2.032795246   43.658752032   56.293741583  -10.261799122
    1.808795770   -2.032795246   53.974850437   50.013407206   -6.538143679
    1.999195325   -2.032795246   62.065316453   33.696354962   -2.944290521
    2.189594880   -2.032795246   66.495266827   12.441413998    0.439034533
    2.379994435   -2.032795246   66.796843775   -8.953113223    3.693718264
    2.570393989   -2.032795246   63.314885526  -26.778346914    6.911322291
    2.760793544   -2.032795246   57.000226097  -38.353368509   10.054191807
    2.951193099   -2.032795246   49.221694402  -42.010917484   12.915984205

   -3.141592654   -1.663196111   42.255143554  -37.027110549   14.363466748
   -2.951193099   -1.663196111   36.172144532  -26.152177698   14.982061652
   -2.760793544   -1.663196111   32.523875006  -12.074960484   14.458544319
   -2.570393989   -1.663196111   31.521630446    1.032143028   12.946141935
   -2.379994435   -1.663196111   32.638224277    9.785084079   10.744133361
   -2.189594880   -1.663196111   34.878626037   12.803251823    8.182042568
   -1.999195325   -1.663196111   37.200128375   10.943822411    5.513685449
   -1.808795770   -1.663196111   38.891118234    6.657594304    2.889602918
   -1.618396215   -1.663196111   39.765388877    2.833064680    0.386976450
   -1.427996661   -1.663196111   40.138903572    1.662289768   -1.945558837
   -1.237597106   -1.663196111   40.615419855    3.902979503   -4.051246219
   -1.047197551   -1.663196111   41.789395171    8.698044850   -5.858458791
   -0.856797996   -1.663196111   43.961879015   13.931421431   -7.300124497
   -0.666398442   -1.663196111   46.958295324   16.857612394   -8.356537053
   -0.475998887   -1.663196111   50.090683242   14.988179386   -9.080352842
   -0.285599332   -1.663196111   52.283814641    6.913797224   -9.621250677
   -0.095199777   -1.663196111   52.354961321   -7.054567213  -10.190485484
    0.095199777   -1.663196111   49.391659618  -24.306036256  -10.993984792
    0.285599332   -1.663196111   43.202936271  -39.974586197  -12.110820996
    0.475998887   -1.663196111   34.665290878  -47.976659669  -13.404286936
    0.666398442   -1.663196111   25.753410787  -43.312498069  -14.515021006
    0.856797996   -1.663196111   19.067806379  -24.828045663  -14.984712238
    1.047197551   -1.663196111   16.927452081    3.291097147  -14.453960255
    1.237597106   -1.663196111   20.408351074   32.638512497  -12.841404095
    1.427996661   -1.663196111   28.856005997   54.122516587  -10.361874894
    1.618396215   -1.663196111   40.142715831   61.915556707   -7.398182837
    1.808795770   -1.663196111   51.517963323   55.380192944   -4.312960098
    1.999195325   -1.663196111   60.554476948   38.194274944   -1.304176490
    2.189594880   -1.663196111   65.738904433   15.858095692    1.611701062
    2.379994435   -1.663196111   66.593170568   -6.534901854    4.512540500
    2.570393989   -1.663196111   63.493718307  -25.140823156    7.434031596
    2.760793544   -1.663196111   57.435212583  -37.269416249   10.257187843
    2.951193099   -1.663196111   49.825648471  -41.297570158   12.690454898

   -3.141592654   -1.293596975   42.864643818  -38.350519396   10.617642416
   -2.951193099   -1.293596975   36.448246490  -28.309184431   10.440067937
   -2.760793544   -1.293596975   32.328238522  -14.830130742    9.289786988
   -2.570393989   -1.293596975   30.765217011   -2.070300499    7.314969123
   -2.379994435   -1.293596975   31.271106875    6.484921606    4.730410376
   -2.189594880   -1.293596975   32.865778624    9.313999675    1.727191867
   -1.999195325   -1.293596975   34.501171247    7.223741567   -1.562918194
   -1.808795770   -1.293596975   35.465253952    2.770964852   -5.012248637
   -1.618396215   -1.293596975   35.603754142   -0.943455016   -8.417923112
   -1.427996661   -1.293596975   35.305151216   -1.531035991  -11.477938537
   -1.237597106   -1.293596975   35.270036279    1.806630984  -13.847424642
   -1.047197551   -1.293596975   36.178033910    8.039495235  -15.255604735
   -0.856797996   -1.293596975   38.365687409   14.721635485  -15.613713684
   -0.666398442   -1.293596975   41.624211698   18.735985137  -15.062740759
   -0.475998887   -1.293596975   45.169426028   17.323843869  -13.923373127
   -0.285599332   -1.293596975   47.793430464    8.983758201  -12.601460563
   -0.095199777   -1.293596975   48.181151585   -5.894432669  -11.461420102
    0.095199777   -1.293596975   45.318840225  -24.440949380  -10.734271094
    0.285599332   -1.293596975   38.978970415  -41.384063449  -10.437607973
    0.475998887   -1.293596975   30.089267700  -50.141801235  -10.377593522
    0.666398442   -1.293596975   20.765945796  -45.298837119  -10.218454013
    0.856797996   -1.293596975   13.803493848  -25.592426571   -9.628692962
    1.047197551   -1.293596975   11.696913553    4.472713895   -8.435039240
    1.237597106   -1.293596975   15.603028685   35.873351464   -6.709404420
    1.427996661   -1.293596975   24.824686310   58.884228925   -4.698472437
    1.618396215   -1.293596975   37.094789495   67.322365669   -2.675492965
    1.808795770   -1.293596975   49.491491749   60.575931084   -0.796316710
    1.999195325   -1.293596975   59.449164633   42.605078684    0.953295567
    2.189594880   -1.293596975   65.378809309   19.258500887    2.694555781
    2.379994435   -1.293596975   66.784009696   -4.137940498    4.541046348
    2.570393989   -1.293596975   64.051733902  -23.671450577    6.488501345
    2.760793544   -1.293596975   58.187296144  -36.704745606    8.362130610
    2.951193099   -1.293596975   50.596632267  -41.672494625    9.850226555

   -3.141592654   -0.923997839   44.114128382  -39.968265975    5.358717184
   -2.951193099   -0.923997839   37.283145916  -31.006762931    4.130820462
   -2.760793544   -0.923997839   32.570993230  -18.283604479    2.166915238
   -2.570393989   -0.923997839   30.308561374   -5.909421283   -0.334335390
   -2.379994435   -0.923997839   30.066886730    2.492881577   -3.184309563
   -2.189594880   -0.923997839   30.890310505    5.196039946   -6.280130972
   -1.999195325   -0.923997839   31.724103349    2.914091645   -9.578364062
   -1.808795770   -0.923997839   31.851224582   -1.681898583  -12.974943304
   -1.618396215   -0.923997839   31.150915075   -5.224607334  -16.196062727
   -1.427996661   -0.923997839   30.097538257   -5.066185747  -18.802406114
   -1.237597106   -0.923997839   29.511720183   -0.334921973  -20.322490359
   -1.047197551   -0.923997839   30.183133253    7.749728489  -20.454486566
   -0.856797996   -0.923997839   32.499168918   16.329679846  -19.213063087
   -0.666398442   -0.923997839   36.213738541   21.810717438  -16.940225102
   -0.475998887   -0.923997839   40.422315747   21.060865950  -14.172019567
   -0.285599332   -0.923997839   43.745974079   12.442842329  -11.440796468
   -0.095199777   -0.923997839   44.700046249   -3.517967875   -9.099889439
    0.095199777   -0.923997839   42.151462283  -23.543979954   -7.249445237
    0.285599332   -0.923997839   35.849256587  -41.809879774   -5.748325464
    0.475998887   -0.923997839   26.805462249  -51.184909549   -4.334523637
    0.666398442   -0.923997839   17.304401095  -45.958455988   -2.783076699
    0.856797996   -0.923997839   10.325355600  -25.003149527   -1.044741445
    1.047197551   -0.923997839    8.483089874    6.646315795    0.715636579
    1.237597106   -0.923997839   12.935666988   39.334627845    2.199405128
    1.427996661   -0.923997839   22.884252683   62.920452155    3.163883669
    1.618396215   -0.923997839   35.919327975   71.213690973    3.563311783
    1.808795770   -0.923997839   49.007122901   63.904068378    3.577973393
    1.999195325   -0.923997839   59.537575289   45.302943235    3.517961282
    2.189594880   -0.923997839   65.931156062   21.458215172    3.661964542
    2.379994435   -0.923997839   67.716707211   -2.337173242    4.130655665
    2.570393989   -0.923997839   65.285152029  -22.343255228    4.833192397
    2.760793544   -0.923997839   59.609266800  -36.104596905    5.498304695
    2.951193099   -0.923997839   52.039296935  -42.100910590    5.772736853

   -3.141592654   -0.554398704   44.987330498  -42.724242240    1.345170604
   -2.951193099   -0.554398704   37.505015286  -35.028544377   -0.694878159
   -2.760793544   -0.554398704   31.940299189  -23.121531226   -3.266832413
   -2.570393989   -0.554398704   28.718067175  -11.084232682   -6.114036910
   -2.379994435   -0.554398704   27.482315907   -2.753555662   -9.049977504
   -2.189594880   -0.554398704   27.302630237   -0.102409059  -12.028868035
   -1.999195325   -0.554398704   27.121002608   -2.438356373  -15.064583184
   -1.808795770   -0.554398704   26.242445140   -6.811803319  -18.052905640
   -1.618396215   -0.554398704   24.637794383   -9.453524892  -20.647632113
   -1.427996661   -0.554398704   22.935664628   -7.502890745  -22.316627929
   -1.237597106   -0.554398704   22.115350570   -0.278916511  -22.565895990
   -1.047197551   -0.554398704   23.050779462   10.437621696  -21.203699063
   -0.856797996   -0.554398704   26.090684176   21.109445427  -18.469625336
   -0.666398442   -0.554398704   30.835806817   27.662682036  -14.942240472
   -0.475998887   -0.554398704   36.170785029   26.861541724  -11.296266290
   -0.285599332   -0.554398704   40.522114631   17.328575814   -8.029209121
   -0.095199777   -0.554398704   42.285356375    0.071940810   -5.302664996
    0.095199777   -0.554398704   40.306384861  -21.085713883   -2.947948212
    0.285599332   -0.554398704   34.407228326  -39.920242534   -0.605579430
    0.475998887   -0.554398704   25.724341048  -49.185076160    2.034308800
    0.666398442   -0.554398704   16.654597692  -43.399751572    5.009066709
    0.856797996   -0.554398704   10.218352405  -21.922343284    7.988887407
    1.047197551   -0.554398704    8.975431378    9.730914652   10.387970010
    1.237597106   -0.554398704   13.961227347   41.735966590   11.637251463
    1.427996661   -0.554398704   24.262419847   64.179767667   11.495055290
    1.618396215   -0.554398704   37.427460385   71.361407732   10.172327864
    1.808795770   -0.554398704   50.472628010   63.409005852    8.227875647
    1.999195325   -0.554398704   60.896586523   44.774875476    6.306227662
    2.189594880   -0.554398704   67.223133462   21.323559756    4.868701647
    2.379994435   -0.554398704   69.026461127   -2.046616750    4.052968119
    2.570393989   -0.554398704   66.664094068  -21.995130485    3.677938155
    2.760793544   -0.554398704   61.011701125  -36.311625014    3.360022205
    2.951193099   -0.554398704   53.301758673  -43.445637262    2.679113867

   -3.141592654   -0.184799568   44.813142784  -46.421409655   -1.702395928
   -2.951193099   -0.184799568   36.520842690  -39.755763499   -3.902444165
   -2.760793544   -0.184799568   29.992826504  -28.417675446   -6.406079593
   -2.570393989   -0.184799568   25.744177235  -16.510040522   -8.986869203
   -2.379994435   -0.184799568   23.480083137   -8.121470480  -11.517388445
   -2.189594880   -0.184799568   22.282925365   -5.427929603  -14.011937949
   -1.999195325   -0.184799568   21.095440665   -7.634687713  -16.508352028
   -1.808795770   -0.184799568   19.276111034  -11.368283056  -18.874862398
   -1.618396215   -0.184799568   16.939254208  -12.404120110  -20.707324502
   -1.427996661   -0.184799568   14.913337022   -7.800279270  -21.438055821
   -1.237597106   -0.184799568   14.339495092    2.631211762  -20.617769443
   -1.047197551   -0.184799568   16.114745291   16.210981268  -18.198264845
   -0.856797996   -0.184799568   20.435652239   28.545676506  -14.615686565
   -0.666398442   -0.184799568   26.630995259   35.197805374  -10.602619028
   -0.475998887   -0.184799568   33.304561361   33.224411266   -6.860082506
   -0.285599332   -0.184799568   38.708294526   22.008024907   -3.745038400
   -0.095199777   -0.184799568   41.225931510    3.435661721   -1.159570633
    0.095199777   -0.184799568   39.838838246  -18.044757919    1.342845778
    0.285599332   -0.184799568   34.575850296  -36.128145875    4.283654740
    0.475998887   -0.184799568   26.737772800  -44.085341394    7.925581979
    0.666398442   -0.184799568   18.744410301  -37.348028890   12.037062282
    0.856797996   -0.184799568   13.461570534  -16.124234884   15.893499865
    1.047197551   -0.184799568   13.177656074   13.748654146   18.555840935
    1.237597106   -0.184799568   18.667010352   42.896205553   19.298312485
    1.427996661   -0.184799568   28.900174849   62.377933226   17.971445895
    1.618396215   -0.184799568   41.504322757   67.478107233   15.058842177
    1.808795770   -0.184799568   53.720571770   58.823244499   11.437617265
    1.999195325   -0.184799568   63.305955898   40.721232440    7.989781910
    2.189594880   -0.184799568   68.967928946   18.445374296    5.282103050
    2.379994435   -0.184799568   70.335607400   -3.810088283    3.444906205
    2.570393989   -0.184799568   67.699677933  -23.232199742    2.238650444
    2.760793544   -0.184799568   61.797280038  -37.830066849    1.233381844
    2.951193099   -0.184799568   53.715312918  -45.920802320    0.005339098

   -3.141592654    0.184799568   44.003370664  -49.497933209   -4.368479554
   -2.951193099    0.184799568   35.067168781  -43.373430689   -6.164812442
   -2.760793544    0.184799568   27.822155854  -32.267552794   -7.959632444
   -2.570393989    0.184799568   22.838650754  -20.350524159   -9.665712010
   -2.379994435    0.184799568   19.848482677  -11.915429778  -11.293916619
   -2.189594880    0.184799568   17.929625051   -9.211708154  -12.935548458
   -1.999195325    0.184799568   16.034924319  -11.208973543  -14.625002934
   -1.808795770    0.184799568   13.604171549  -14.065751182  -16.181579899
   -1.618396215    0.184799568   10.917440801  -13.205209506  -17.169742973
   -1.427996661    0.184799568    8.993105535   -5.831698840  -17.059019359
   -1.237597106    0.184799568    9.077179288    7.511213146  -15.514300346
   -1.047197551    0.184799568   11.998744173   23.147423122  -12.637688452
   -0.856797996    0.184799568   17.713266318   35.961989017   -8.976030350
   -0.666398442    0.184799568   25.236607523   41.498293119   -5.261419664
   -0.475998887    0.184799568   32.925838368   37.526405138   -2.056062650
   -0.285599332    0.184799568   38.964840726   24.496267490    0.529263536
   -0.095199777    0.184799568   41.867993999    5.234257851    2.859451108
    0.095199777    0.184799568   40.878792542  -15.421733184    5.561478301
    0.285599332    0.184799568   36.291940847  -31.527895647    9.156034479
    0.475998887    0.184799568   29.539460722  -37.370957774   13.700485431
    0.666398442    0.184799568   22.947658051  -29.633059764   18.616997551
    0.856797996    0.184799568   19.075378203   -9.403289771   22.832723057
    1.047197551    0.184799568   19.812624053   17.455798421   25.209488816
    1.237597106    0.184799568   25.621981958   42.478711409   25.052556655
    1.427996661    0.184799568   35.392635113   58.100358476   22.431434094
    1.618396215    0.184799568   46.922104719   60.770587365   18.113189185
    1.808795770    0.184799568   57.778295869   51.550374471   13.193917923
    1.999195325    0.184799568   66.050683693   34.400501709    8.643593470
    2.189594880    0.184799568   70.664006681   13.800819162    5.007864795
    2.379994435    0.184799568   71.305282939   -6.871455366    2.359371344
    2.570393989    0.184799568   68.190043468  -25.336922203    0.436489961
    2.760793544    0.184799568   61.914188113  -39.769719499   -1.139513105
    2.951193099    0.184799568   53.426555170  -48.312730146   -2.687987347

   -3.141592654    0.554398704   44.578523026  -50.557851724   -4.299102760
   -2.951193099    0.554398704   35.370224992  -45.154790332   -5.184917266
   -2.760793544    0.554398704   27.720316074  -34.704459258   -5.957671004
   -2.570393989    0.554398704   22.224226410  -23.258862085   -6.674354860
   -2.379994435    0.554398704   18.651588209  -15.091275863   -7.423558715
   -2.189594880    0.554398704   16.121010066  -12.412828304   -8.287302293
   -1.999195325    0.554398704   13.643613784  -14.042671538   -9.248669011
   -1.808795770    0.554398704   10.755554315  -15.917560612  -10.118367313
   -1.618396215    0.554398704    7.865847467  -13.381865120  -10.551548114
   -1.427996661    0.554398704    6.104396068   -3.921703905  -10.186711546
   -1.237597106    0.554398704    6.739954059   11.290392955   -8.845739586
   -1.047197551    0.554398704   10.492600379   27.900779923   -6.670252666
   -0.856797996    0.554398704   17.108557353   40.485633857   -4.077297399
   -0.666398442    0.554398704   25.394149130   44.883004355   -1.536199976
   -0.475998887    0.554398704   33.602491047   39.654343851    0.688112941
   -0.285599332    0.554398704   39.981080608   26.119886508    2.705875251
   -0.095199777    0.554398704   43.246862070    7.649920950    4.954571897
    0.095199777    0.554398704   42.892654123  -11.016978987    7.979808985
    0.285599332    0.554398704   39.376889087  -24.705011285   12.098084377
    0.475998887    0.554398704   34.102830661  -28.897872770   17.113512988
    0.666398442    0.554398704   29.140413996  -21.373757161   22.226845269
    0.856797996    0.554398704   26.639394025   -3.632692000   26.248950454
    1.047197551    0.554398704   28.093606432   19.017517087   28.065154911
    1.237597106    0.554398704   33.754898501   39.428539518   27.124316258
    1.427996661    0.554398704   42.577348284   51.467035858   23.682337855
    1.618396215    0.554398704   52.652381105   52.479232104   18.653235372
    1.808795770    0.554398704   61.932226667   43.576319779   13.192731338
    1.999195325    0.554398704   68.830310164   28.096630570    8.250303452
    2.189594880    0.554398704   72.447709195    9.659538993    4.320471926
    2.379994435    0.554398704   72.493108555   -9.077639608    1.451240739
    2.570393989    0.554398704   69.093529454  -26.242876757   -0.585566559
    2.760793544    0.554398704   62.707876784  -40.135216098   -2.085564995
    2.951193099    0.554398704   54.146573824  -48.808951766   -3.281003467

   -3.141592654    0.923997839   43.844271936  -51.106069568   -4.987122041
   -2.951193099    0.923997839   34.563230484  -45.355477240   -4.803239798
   -2.760793544    0.923997839   26.900750555  -34.646179554   -4.281545136
   -2.570393989    0.923997839   21.427516507  -23.106625988   -3.673166894
   -2.379994435    0.923997839   17.874744930  -15.072276020   -3.217406574
   -2.189594880    0.923997839   15.318896334  -12.719072821   -3.062452708
   -1.999195325    0.923997839   12.748331094  -14.698596857   -3.210270348
   -1.808795770    0.923997839    9.717489480  -16.707327034   -3.521765609
   -1.618396215    0.923997839    6.694696853  -13.924869660   -3.770068350
   -1.427996661    0.923997839    4.881326941   -3.888961311   -3.724364573
   -1.237597106    0.923997839    5.586911564   11.970571657   -3.238231860
   -1.047197551    0.923997839    9.515904949   29.011630495   -2.302032400
   -0.856797996    0.923997839   16.359376523   41.721571845   -1.019918487
   -0.666398442    0.923997839   24.882960241   46.163442114    0.480164590
   -0.475998887    0.923997839   33.363888614   41.332554661    2.153487540
   -0.285599332    0.923997839   40.156378844   28.930907545    4.119413894
   -0.095199777    0.923997839   44.131457001   12.410572967    6.630481800
    0.095199777    0.923997839   44.910052736   -3.860138925    9.949946819
    0.285599332    0.923997839   42.965455439  -15.497418224   14.123520768
    0.475998887    0.923997839   39.541908544  -18.963883412   18.787289642
    0.666398442    0.923997839   36.379653454  -12.776219108   23.131329682
    0.856797996    0.923997839   35.216994694    1.509811338   26.120872064
    1.047197551    0.923997839   37.206005873   19.372343465   26.902133937
    1.237597106    0.923997839   42.468559602   35.014637553   25.188080872
    1.427996661    0.923997839   50.093171529   43.602787207   21.383023656
    1.618396215    0.923997839   58.500898380   43.177700061   16.378574507
    1.808795770    0.923997839   66.026768757   34.719793580   11.170610725
    1.999195325    0.923997839   71.381460082   20.865243514    6.503206396
    2.189594880    0.923997839   73.810324929    4.404447194    2.721376594
    2.379994435    0.923997839   73.027126611  -12.601831499   -0.161177681
    2.570393989    0.923997839   69.083119688  -28.520228134   -2.283663707
    2.760793544    0.923997839   62.345583831  -41.609070077   -3.768755679
    2.951193099    0.923997839   53.555471633  -49.759840633   -4.664768475

   -3.141592654    1.293596975   40.286403307  -51.584018923   -9.054615174
   -2.951193099    1.293596975   31.069249010  -44.245919945   -8.726807138
   -2.760793544    1.293596975   23.731478212  -32.455246623   -7.638681563
   -2.570393989    1.293596975   18.718359886  -20.591182047   -6.078088646
   -2.379994435    1.293596975   15.615947763  -12.963522314   -4.363509108
   -2.189594880    1.293596975   13.381635995  -11.507286645   -2.736319159
   -1.999195325    1.293596975   10.939230649  -14.570535261   -1.311704910
   -1.808795770    1.293596975    7.834959606  -17.572023941   -0.114369026
   -1.618396215    1.293596975    4.577304853  -15.457096440    0.862058703
   -1.427996661    1.293596975    2.448703400   -5.573720987    1.627165882
   -1.237597106    1.293596975    2.869891537   10.765348996    2.202433655
   -1.047197551    1.293596975    6.665735623   28.901673071    2.646919280
   -0.856797996    1.293596975   13.629993339   43.143501540    3.074285093
   -0.666398442    1.293596975   22.585906038   49.278019187    3.652657917
   -0.475998887    1.293596975   31.814501056   46.038755762    4.584992656
   -0.285599332    1.293596975   39.635034996   34.973113938    6.093574230
   -0.095199777    1.293596975   44.864023377   19.485953686    8.364468859
    0.095199777    1.293596975   47.058642231    3.855586307   11.467217684
    0.285599332    1.293596975   46.597196808   -7.769237931   15.214784742
    0.475998887    1.293596975   44.571454210  -12.198982597   19.083302638
    0.666398442    1.293596975   42.511410336   -8.158468857   22.263408767
    0.856797996    1.293596975   41.941653140    2.996903918   23.906865317
    1.047197551    1.293596975   43.883293599   17.403308668   23.465943714
    1.237597106    1.293596975   48.477046139   30.108766312   20.954254496
    1.427996661    1.293596975   54.976488190   36.899402814   16.931267026
    1.618396215    1.293596975   62.039209886   35.941102223   12.235086898
    1.808795770    1.293596975   68.213219879   27.862775421    7.633383163
    1.999195325    1.293596975   72.331472478   14.754383366    3.574104873
    2.189594880    1.293596975   73.664882027   -1.017034061    0.159236042
    2.379994435    1.293596975   71.901281974  -17.497688974   -2.713168290
    2.570393989    1.293596975   67.074467113  -32.866397892   -5.152179113
    2.760793544    1.293596975   59.584610981  -45.086930014   -7.134541917
    2.951193099    1.293596975   50.251175510  -51.901539164   -8.499301612

   -3.141592654    1.663196111   34.745834264  -53.113881697  -15.240377059
   -2.951193099    1.663196111   25.461906188  -43.434714802  -15.250803723
   -2.760793544    1.663196111   18.470916336  -29.745911122  -13.935055717
   -2.570393989    1.663196111   14.088432598  -16.828568440  -11.532250525
   -2.379994435    1.663196111   11.732148536   -9.017744829   -8.408864713
   -2.189594880    1.663196111   10.215676549   -7.986739376   -4.942071090
   -1.999195325    1.663196111    8.377698818  -11.770604589   -1.457999147
   -1.808795770    1.663196111    5.730221314  -15.578328223    1.747715149
   -1.618396215    1.663196111    2.777743274  -14.229872812    4.389130259
   -1.427996661    1.663196111    0.823047856   -4.935208050    6.233412815
   -1.237597106    1.663196111    1.338185099   11.179191350    7.190318428
   -1.047197551    1.663196111    5.232781339   29.604584500    7.386972987
   -0.856797996    1.663196111   12.401122247   44.650714421    7.154926616
   -0.666398442    1.663196111   21.750777964   51.933533510    6.929204617
   -0.475998887    1.663196111   31.603754365   49.933128615    7.102091158
   -0.285599332    1.663196111   40.274013851   39.957660492    7.923271872
   -0.095199777    1.663196111   46.530832638   25.228922992    9.450176408
    0.095199777    1.663196111   49.850221857    9.813694825   11.546378958
    0.285599332    1.663196111   50.484763354   -2.369167974   13.869300580
    0.475998887    1.663196111   49.359770935   -8.299914863   15.905349133
    0.666398442    1.663196111   47.827995018   -6.619275721   17.074215681
    0.856797996    1.663196111   47.288597097    1.761399486   16.925146553
    1.047197551    1.663196111   48.747428128   13.673486648   15.328787907
    1.237597106    1.663196111   52.460032474   24.761282212   12.564036920
    1.427996661    1.663196111   57.873620482   31.005687628    9.178216761
    1.618396215    1.663196111   63.829642084   30.301830240    5.731534802
    1.808795770    1.663196111   68.978984803   22.731987336    2.562354059
    1.999195325    1.663196111   72.153026707    9.902135387   -0.299841319
    2.189594880    1.663196111   72.554402130   -6.017869464   -3.038316863
    2.379994435    1.663196111   69.801798522  -22.891521959   -5.856022490
    2.570393989    1.663196111   63.921924114  -38.453552454   -8.790670253
    2.760793544    1.663196111   55.400815818  -50.183365407  -11.623802290
    2.951193099    1.663196111   45.215886065  -55.582820745  -13.929745672

   -3.141592654    2.032795246   27.787728335  -56.042102069  -16.709172838
   -2.951193099    2.032795246   18.214689519  -43.485226450  -16.579260011
   -2.760793544    2.032795246   11.495830834  -26.891121235  -14.937154297
   -2.570393989    2.032795246    7.896791715  -11.570161536  -12.028367235
   -2.379994435    2.032795246    6.707572666   -2.164168380   -8.246890048
   -2.189594880    2.032795246    6.577731312   -0.422028662   -3.992465909
   -1.999195325    2.032795246    6.179598351   -4.350359572    0.390606063
   -1.808795770    2.032795246    4.867972555   -9.091371909    4.566931512
   -1.618396215    2.032795246    3.009581687   -9.309765437    8.161541367
   -1.427996661    2.032795246    1.814817368   -1.892798444   10.804221427
   -1.237597106    2.032795246    2.740100205   12.506080532   12.259192820
   -1.047197551    2.032795246    6.772421620   29.843173645   12.557611626
   -0.856797996    2.032795246   13.951236486   44.656662779   12.019121743
   -0.666398442    2.032795246   23.342294257   52.450671612   11.136547279
   -0.475998887    2.032795246   33.376379767   51.332620408   10.376795130
   -0.285599332    2.032795246   42.395655755   42.170149969   10.017111444
   -0.095199777    2.032795246   49.119756272   27.829444359   10.064040096
    0.095199777    2.032795246   52.921414333   12.157969316   10.282988330
    0.285599332    2.032795246   53.922217691   -0.984084722   10.281291148
    0.475998887    2.032795246   52.921082992   -8.460743947    9.665055365
    0.666398442    2.032795246   51.186645421   -8.582315835    8.207688607
    0.856797996    2.032795246   50.115741088   -1.772178208    5.980726403
    1.047197551    2.032795246   50.804793401    9.274864077    3.349282453
    1.237597106    2.032795246   53.667666623   20.375654767    0.835453263
    1.427996661    2.032795246   58.302861323   27.284525786   -1.144762299
    1.618396215    2.032795246   63.627722774   27.366532509   -2.473707098
    1.808795770    2.032795246   68.262082898   20.152854614   -3.372137733
    1.999195325    2.032795246   70.921938866    6.956078288   -4.275085958
    2.189594880    2.032795246   70.672636447   -9.986930120   -5.614774447
    2.379994435    2.032795246   67.042003898  -28.138167919   -7.626279065
    2.570393989    2.032795246   60.061955048  -44.655655714  -10.228892126
    2.760793544    2.032795246   50.335314615  -56.457987075  -13.021089488
    2.951193099    2.032795246   39.042078153  -60.735260106  -15.388619879

   -3.141592654    2.402394382   20.787322710  -59.378841905  -10.620362144
   -2.951193099    2.402394382   10.862310195  -43.761305903   -9.699385505
   -2.760793544    2.402394382    4.407656519  -23.867254403   -7.665553200
   -2.570393989    2.402394382    1.673617356   -5.610780827   -4.774497130
   -2.379994435    2.402394382    1.840170673    5.971220875   -1.320255510
   -2.189594880    2.402394382    3.394062835    8.969780821    2.487874101
   -1.999195325    2.402394382    4.827671335    5.335223855    6.517121605
   -1.808795770    2.402394382    5.311016739   -0.084334779   10.579968810
   -1.618396215    2.402394382    5.029570855   -1.891298998   14.319769777
   -1.427996661    2.402394382    5.039904795    3.263956245   17.241347006
   -1.237597106    2.402394382    6.710081027   15.174949907   18.892206264
   -1.047197551    2.402394382   11.035642721   30.336984633   19.086159168
   -0.856797996    2.402394382   18.158204231   43.704170748   18.007123086
   -0.666398442    2.402394382   27.298203832   50.882951908   16.126739414
   -0.475998887    2.402394382   37.027151161   49.751646644   13.986792681
   -0.285599332    2.402394382   45.761393373   40.729919488   11.972298951
   -0.095199777    2.402394382   52.203239383   26.219720979   10.182144216
    0.095199777    2.402394382   55.635154738    9.771763877    8.437305093
    0.285599332    2.402394382   56.062105586   -4.696334670    6.401940377
    0.475998887    2.402394382   54.213304836  -13.618420650    3.798460936
    0.666398442    2.402394382   51.395403324  -14.647856299    0.615492742
    0.856797996    2.402394382   49.166969276   -7.646021255   -2.793691526
    1.047197551    2.402394382   48.855771367    4.842177799   -5.814998294
    1.237597106    2.402394382   51.081146639   18.190485447   -7.831881140
    1.427996661    2.402394382   55.519200237   27.323686947   -8.548405227
    1.618396215    2.402394382   60.999801255   28.773013178   -8.130025344
    1.808795770    2.402394382   65.928211335   21.605888751   -7.126604307
    1.999195325    2.402394382   68.765062610    7.179948097   -6.221226914
    2.189594880    2.402394382   68.370238205  -11.823085663   -5.949602332
    2.379994435    2.402394382   64.174734313  -32.198238306   -6.522783558
    2.570393989    2.402394382   56.246240037  -50.412674904   -7.779865089
    2.760793544    2.402394382   45.346499288  -62.801193103   -9.264816528
    2.951193099    2.402394382   32.901940636  -66.244862631  -10.385679515

   -3.141592654    2.771993518   17.857140580  -59.353368447    0.010611433
   -2.951193099    2.771993518    8.083742241  -42.207758949    1.942605498
   -2.760793544    2.771993518    2.062865424  -20.919817417    4.318787485
   -2.570393989    2.771993518    0.000000000   -1.558822751    6.963295708
   -2.379994435    2.771993518    1.024223221   10.904009197    9.782685502
   -2.189594880    2.771993518    3.594249176   14.704000089   12.806418489
   -1.999195325    2.771993518    6.190582623   11.783395170   16.090196007
   -1.808795770    2.771993518    7.944944872    6.726135158   19.533571399
   -1.618396215    2.771993518    8.938729736    4.542283812   22.757749532
   -1.427996661    2.771993518   10.061195494    8.349140245   25.164115272
   -1.237597106    2.771993518   12.502454785   18.083475742   26.165944319
   -1.047197551    2.771993518   17.144185263   30.743873986   25.465885607
   -0.856797996    2.771993518   24.125514166   41.900999491   23.197423536
   -0.666398442    2.771993518   32.766434061   47.572220288   19.850693069
   -0.475998887    2.771993518   41.780822983   45.654602107   16.039264789
   -0.285599332    2.771993518   49.696142032   36.254188324   12.234180768
   -0.095199777    2.771993518   55.250249025   21.335519368    8.607755503
    0.095199777    2.771993518   57.689478830    4.172215701    5.043825827
    0.285599332    2.771993518   56.962571318  -11.224994229    1.293854196
    0.475998887    2.771993518   53.796741319  -20.830630083   -2.773025077
    0.666398442    2.771993518   49.602725972  -21.698425416   -6.963487086
    0.856797996    2.771993518   46.142732908  -13.312048930  -10.728311120
    1.047197551    2.771993518   44.974212107    1.663663438  -13.361214647
    1.237597106    2.771993518   46.872466381   17.938722511  -14.326708404
    1.427996661    2.771993518   51.512553248   29.560063187  -13.555353104
    1.618396215    2.771993518   57.567650116   32.351805244  -11.481369279
    1.808795770    2.771993518   63.195347312   25.157514332   -8.844773194
    1.999195325    2.771993518   66.614881310    9.610436169   -6.372842563
    2.189594880    2.771993518   66.528722190  -11.045985782   -4.520110540
    2.379994435    2.771993518   62.325226918  -32.992988571   -3.376045785
    2.570393989    2.771993518   54.137127468  -52.217720580   -2.721072459
    2.760793544    2.771993518   42.863664118  -64.774637119   -2.172867221
    2.951193099    2.771993518   30.097381072  -67.525667082   -1.345978630
