#! FIELDS phi psi file.free der_phi der_psi
#! SET min_phi -pi
#! SET max_phi pi
#! SET nbins_phi  33
#! SET periodic_phi true
#! SET min_psi -pi
#! SET max_psi pi
#! SET nbins_psi  17
#! SET periodic_psi true
   -3.141592654   -3.141592654   20.648772598  -56.105006625   11.761368188
   -2.951193099   -3.141592654   11.519741411  -38.808534261   14.579025502
   -2.760793544   -3.141592654    6.117452815  -17.927208854   16.969961649
   -2.570393989   -3.141592654    4.556545334    0.685985484   18.865089281
   -2.379994435   -3.141592654    5.946319078   12.571103204   20.444984987
   -2.189594880   -3.141592654    8.826590087   16.421052486   22.068699700
   -1.999195325   -3.141592654   11.815120858   14.291525198   24.055247475
   -1.808795770   -3.141592654   14.156349099   10.385592405   26.426996656
   -1.618396215   -3.141592654   15.936903587    9.034633277   28.782159171
   -1.427996661   -3.141592654   17.921918771   12.718636997   30.407285756
   -1.237597106   -3.141592654   21.088192967   21.141533438   30.591753954
   -1.047197551   -3.141592654   26.108069416   31.542639829   28.974204513
   -0.856797996   -3.141592654   32.991940467   40.065327784   25.702742604
   -0.666398442   -3.141592654   41.043979273   43.296376314   21.319728299
   -0.475998887   -3.141592654   49.051115874   39.448894684   16.476947409
   -0.285599332   -3.141592654   55.642353623   28.624482115   11.629555208
   -0.095199777   -3.141592654   59.634491838   12.591691589    6.902498962
    0.095199777   -3.141592654   60.312952247   -5.561108630    2.163610317
    0.285599332   -3.141592654   57.651927801  -21.755472805   -2.749692356
    0.475998887   -3.141592654   52.447673444  -31.571770368   -7.770243320
    0.666398442   -3.141592654   46.275739170  -31.495700273  -12.459231038
    0.856797996   -3.141592654   41.160404222  -20.628860951  -16.095075061
    1.047197551   -3.141592654   38.949159776   -1.773738866  -17.971842604
    1.237597106   -3.141592654   40.620311588   19.010268015  -17.744164952
    1.427996661   -3.141592654   45.863693307   34.653186196  -15.626186139
    1.618396215   -3.141592654   53.158608436   39.984972188  -12.286805136
    1.808795770   -3.141592654   60.330231348   33.430525874   -8.544133888
    1.999195325   -3.141592654   65.252166614   16.902495084   -5.027410826
    2.189594880   -3.141592654   66.386253424   -5.586170167   -1.991030308
    2.379994435   -3.141592654   63.044323655  -29.330888969    0.658849558
    2.570393989   -3.141592654   55.433545667  -49.673291361    3.198223759
    2.760793544   -3.141592654   44.609756439  -62.462671844    5.875584801
    2.951193099   -3.141592654   32.317050913  -64.805988311    8.772584947

   -3.141592654   -2.771993518   27.848740809  -49.564592209   19.854840127
   -2.951193099   -2.771993518   19.806073214  -34.051193433   22.765872109
   -2.760793544   -2.771993518   15.113420730  -15.228841851   24.642909207
   -2.570393989   -2.771993518   13.895422296    1.704537061   25.542557712
   -2.379994435   -2.771993518   15.390211951   12.839050514   25.826131585
   -2.189594880   -2.771993518   18.337302310   17.020352882   26.013701720
   -1.999195325   -2.771993518   21.532681737   15.924112927   26.530298976
   -1.808795770   -2.771993518   24.283105626   12.961031918   27.468617319
   -1.618396215   -2.771993518   26.574584179   11.615890267   28.497232200
   -1.427996661   -2.771993518   28.941038283   13.906627573   28.978645551
   -1.237597106   -2.771993518   32.097518475   19.699314252   28.258520015
   -1.047197551   -2.771993518   36.541077769   26.925359602   25.978354388
   -0.856797996   -2.771993518   42.261835847   32.589367403   22.233168870
   -0.666398442   -2.771993518   48.688360281   33.897872423   17.487784847
   -0.475998887   -2.771993518   54.809379114   29.221135833   12.340378076
   -0.285599332   -2.771993518   59.444753127   18.428378623    7.241389734
   -0.095199777   -2.771993518   61.537600395    2.893035776    2.364412630
    0.095199777   -2.771993518   60.430767500  -14.590143482   -2.342236067
    0.285599332   -2.771993518   56.124536572  -29.964850935   -6.952680112
    0.475998887   -2.771993518   49.462159418  -38.581738685  -11.343132026
    0.666398442   -2.771993518   42.118826060  -36.655033939  -15.092786002
    0.856797996   -2.771993518   36.253227272  -23.232414801  -17.595256943
    1.047197551   -2.771993518   33.823097535   -1.433638349  -18.331756430
    1.237597106   -2.771993518   35.826997755   22.082542702  -17.150601252
    1.427996661   -2.771993518   41.856171827   39.678105060  -14.374942968
    1.618396215   -2.771993518   50.211686612   45.942474749  -10.649300036
    1.808795770   -2.771993518   58.539042025   39.518485145   -6.646584802
    1.999195325   -2.771993518   64.605558261   22.835371408   -2.793289836
    2.189594880   -2.771993518   66.868494887    0.399914746    0.833456938
    2.379994435   -2.771993518   64.704597272  -22.876679607    4.409517641
    2.570393989   -2.771993518   58.389757436  -42.509953153    8.158432733
    2.760793544   -2.771993518   48.987123782  -54.779031953   12.142313333
    2.951193099   -2.771993518   38.159590424  -57.247852893   16.171979902

   -3.141592654   -2.402394382   35.530804148  -43.665661285   19.554701018
   -2.951193099   -2.402394382   28.423764659  -30.192539273   21.732346631
   -2.760793544   -2.402394382   24.266137620  -13.412934779   22.839655422
   -2.570393989   -2.402394382   23.244817614    2.097448002   23.029470284
   -2.379994435   -2.402394382   24.755843801   12.787648541   22.670541176
   -2.189594880   -2.402394382   27.724275555   17.412284125   22.185696099
   -1.999195325   -2.402394382   31.071050346   17.122362138   21.855990514
   -1.808795770   -2.402394382   34.101357066   14.576577206   21.692431804
   -1.618396215   -2.402394382   36.660259275   12.600188929   21.432769132
   -1.427996661   -2.402394382   39.050758796   12.973570062   20.662027490
   -1.237597106   -2.402394382   41.765242503   15.897233001   19.013225784
   -1.047197551   -2.402394382   45.189762957   20.086826827   16.347904164
   -0.856797996   -2.402394382   49.368999172   23.422308778   12.818582747
   -0.666398442   -2.402394382   53.924803924   23.659255959    8.774572555
   -0.475998887   -2.402394382   58.094348292   19.150304429    4.599623316
   -0.285599332   -2.402394382   60.893888345    9.302330778    0.536514358
   -0.095199777   -2.402394382   61.356616607   -5.108606923   -3.356543411
    0.095199777   -2.402394382   58.819508405  -21.641343840   -7.135736477
    0.285599332   -2.402394382   53.248781469  -36.181057693  -10.804192610
    0.475998887   -2.402394382   45.498069651  -43.712565709  -14.171033628
    0.666398442   -2.402394382   37.327236159  -40.088596183  -16.818844683
    0.856797996   -2.402394382   31.021613127  -24.314995181  -18.238960340
    1.047197551   -2.402394382   28.634764905    0.118769216  -18.061175081
    1.237597106   -2.402394382   31.164907973   25.963199312  -16.261753460
    1.427996661   -2.402394382   38.094506966   45.107041117  -13.199700140
    1.618396215   -2.402394382   47.558923728   52.025889632   -9.451932746
    1.808795770   -2.402394382   57.055532998   45.654727300   -5.561971048
    1.999195325   -2.402394382   64.282639680   28.906528999   -1.832206301
    2.189594880   -2.402394382   67.716540086    6.689215655    1.725442446
    2.379994435   -2.402394382   66.801182366  -16.002834890    5.277357787
    2.570393989   -2.402394382   61.862080448  -34.959273937    8.977084982
    2.760793544   -2.402394382   53.935642300  -46.937133450   12.791173466
    2.951193099   -2.402394382   44.568317776  -49.920073470   16.453416517

   -3.141592654   -2.032795246   41.467289681  -40.001093461   13.934000994
   -2.951193099   -2.032795246   34.884935396  -28.380803478   15.194388529
   -2.760793544   -2.032795246   30.901567638  -13.332622732   15.681211840
   -2.570393989   -2.032795246   29.770993743    0.976147139   15.511172390
   -2.379994435   -2.032795246   31.007556533   11.127648281   14.907394924
   -2.189594880   -2.032795246   33.646687915   15.655874006   14.101215393
   -1.999195325   -2.032795246   36.654763243   15.286544936   13.231859142
   -1.808795770   -2.032795246   39.299999898   12.284513969   12.301576839
   -1.618396215   -2.032795246   41.335783212    9.313297344   11.198057728
   -1.427996661   -2.032795246   42.973162105    8.319325824    9.762220094
   -1.237597106   -2.032795246   44.670112150    9.920729383    7.882156451
   -1.047197551   -2.032795246   46.867090677   13.304229486    5.563079430
   -0.856797996   -2.032795246   49.741478822   16.648026631    2.935978841
   -0.666398442   -2.032795246   53.070726647   17.670480671    0.189060579
   -0.475998887   -2.032795246   56.209893627   14.349516428   -2.512416070
   -0.285599332   -2.032795246   58.203297224    5.583237926   -5.112887637
   -0.095199777   -2.032795246   58.022702212   -8.244268498   -7.661070848
    0.095199777   -2.032795246   54.898538340  -24.740430733  -10.250057663
    0.285599332   -2.032795246   48.719018118  -39.462699301  -12.883062160
    0.475998887   -2.032795246   40.347440328  -46.843043523  -15.367966776
    0.666398442   -2.032795246   31.655687252  -42.270513507  -17.299645492
    0.856797996   -2.032795246   25.096474555  -24.658368206  -18.186212594
    1.047197551   -2.032795246   22.864921962    2.132271088  -17.665963950
    1.237597106   -2.032795246   25.998917769   30.215339866  -15.706192058
    1.427996661   -2.032795246   33.900447947   50.914481932  -12.636726762
    1.618396215   -2.032795246   44.547695270   58.493678391   -9.001532725
    1.808795770   -2.032795246   55.280705510   52.086624067   -5.325238703
    1.999195325   -2.032795246   63.704665766   35.034337269   -1.921160845
    2.189594880   -2.032795246   68.284601737   12.633858810    1.156297668
    2.379994435   -2.032795246   68.504126121   -9.993439999    4.021993000
    2.570393989   -2.032795246   64.723284377  -28.824859041    6.804348519
    2.760793544   -2.032795246   57.955847636  -40.986896934    9.505707575
    2.951193099   -2.032795246   49.656581234  -44.778894575   11.966635156

   -3.141592654   -1.663196111   41.607756145  -39.834857320   13.237089684
   -2.951193099   -1.663196111   35.068862140  -28.095303724   13.754913601
   -2.760793544   -1.663196111   31.148346322  -12.985267732   13.316021124
   -2.570393989   -1.663196111   30.072560977    1.148447078   12.055557979
   -2.379994435   -1.663196111   31.297886251   10.775262454   10.212678160
   -2.189594880   -1.663196111   33.791443348   14.429206076    8.026419210
   -1.999195325   -1.663196111   36.463751849   12.967397356    5.657911668
   -1.808795770   -1.663196111   38.562250961    8.887163449    3.187226090
   -1.618396215   -1.663196111   39.869169897    5.126353657    0.663915066
   -1.427996661   -1.663196111   40.675211088    3.880177372   -1.846158626
   -1.237597106   -1.663196111   41.555535361    5.899339497   -4.233750851
   -1.047197551   -1.663196111   43.075580804   10.306793696   -6.360288546
   -0.856797996   -1.663196111   45.506001897   15.002960730   -8.098258400
   -0.666398442   -1.663196111   48.647421913   17.294684975   -9.389476498
   -0.475998887   -1.663196111   51.800839107   14.765193545  -10.269945482
   -0.285599332   -1.663196111   53.894366795    6.103777663  -10.885537301
   -0.095199777   -1.663196111   53.767821881   -8.296194862  -11.443381961
    0.095199777   -1.663196111   50.543241084  -25.777447884  -12.139963785
    0.285599332   -1.663196111   44.068957422  -41.476530901  -13.045955234
    0.475998887   -1.663196111   35.257409907  -49.328222424  -14.028737167
    0.666398442   -1.663196111   26.117366776  -44.327421997  -14.753106703
    0.856797996   -1.663196111   19.286819677  -25.300685364  -14.803297498
    1.047197551   -1.663196111   17.125133388    3.568126602  -13.870084764
    1.237597106   -1.663196111   20.740240734   33.774013673  -11.920724470
    1.427996661   -1.663196111   29.478997981   55.999975312   -9.209647482
    1.618396215   -1.663196111   41.164626234   64.138656688   -6.146180292
    1.808795770   -1.663196111   52.948151474   57.335030328   -3.102926552
    1.999195325   -1.663196111   62.279680973   39.241854494   -0.271269750
    2.189594880   -1.663196111   67.540952463   15.571528299    2.352420378
    2.379994435   -1.663196111   68.205476374   -8.220323962    4.875752680
    2.570393989   -1.663196111   64.674014556  -27.925342216    7.371899237
    2.760793544   -1.663196111   58.022390117  -40.617264579    9.767663321
    2.951193099   -1.663196111   49.768722616  -44.625529019   11.826535321

   -3.141592654   -1.293596975   41.668440193  -41.264499016    9.977670322
   -2.951193099   -1.293596975   34.806536508  -30.038138127    9.764913704
   -2.760793544   -1.293596975   30.482046063  -15.257418590    8.765324442
   -2.570393989   -1.293596975   28.953858327   -1.322382600    7.093335925
   -2.379994435   -1.293596975   29.690457043    8.097807578    4.883950787
   -2.189594880   -1.293596975   31.643887526   11.405487651    2.224230382
   -1.999195325   -1.293596975   33.695035013    9.452419987   -0.849141225
   -1.808795770   -1.293596975   35.077569128    4.910716446   -4.269356355
   -1.618396215   -1.293596975   35.605981575    1.002323011   -7.843203157
   -1.427996661   -1.293596975   35.656367698    0.175426832  -11.230437535
   -1.237597106   -1.293596975   35.921827275    3.250064521  -14.012892310
   -1.047197551   -1.293596975   37.076066449    9.168921874  -15.836896898
   -0.856797996   -1.293596975   39.444010595   15.464453240  -16.542873606
   -0.666398442   -1.293596975   42.802054497   19.024021346  -16.229485028
   -0.475998887   -1.293596975   46.356553978   17.122245849  -15.204706589
   -0.285599332   -1.293596975   48.899465170    8.342512698  -13.882047509
   -0.095199777   -1.293596975   49.133905256   -6.841104009  -12.640374847
    0.095199777   -1.293596975   46.077127562  -25.508622113  -11.723056417
    0.285599332   -1.293596975   39.536945541  -42.399527440  -11.159189341
    0.475998887   -1.293596975   30.470423023  -50.967819995  -10.771908332
    0.666398442   -1.293596975   21.018420589  -45.803560070  -10.253832879
    0.856797996   -1.293596975   14.002891483  -25.616445348   -9.311342741
    1.047197551   -1.293596975   11.952143812    5.108152334   -7.808700416
    1.237597106   -1.293596975   16.050814800   37.260828728   -5.846085864
    1.427996661   -1.293596975   25.600056717   60.887850572   -3.684391800
    1.618396215   -1.293596975   38.279000629   69.517159285   -1.598849091
    1.808795770   -1.293596975   51.061406360   62.317729632    0.259478078
    1.999195325   -1.293596975   61.254740983   43.242549936    1.909471674
    2.189594880   -1.293596975   67.165965342   18.387984421    3.473380936
    2.379994435   -1.293596975   68.258466661   -6.518373750    5.066841915
    2.570393989   -1.293596975   64.958649855  -27.167050868    6.698849609
    2.760793544   -1.293596975   58.373189821  -40.665261077    8.230697062
    2.951193099   -1.293596975   50.040178253  -45.401874551    9.411162308

   -3.141592654   -0.923997839   42.776049173  -42.995287767    5.220789201
   -2.951193099   -0.923997839   35.504017015  -32.570421985    4.008002952
   -2.760793544   -0.923997839   30.644935353  -18.281182798    2.191361639
   -2.570393989   -0.923997839   28.516898512   -4.567410885   -0.067290824
   -2.379994435   -0.923997839   28.622355702    4.705847495   -2.651087299
   -2.189594880   -0.923997839   29.905838752    7.725296439   -5.540976294
   -1.999195325   -0.923997839   31.212353763    5.286947348   -8.761604311
   -1.808795770   -0.923997839   31.752189477    0.252645516  -12.242833559
   -1.618396215   -0.923997839   31.371409402   -3.799723605  -15.701529463
   -1.427996661   -0.923997839   30.546331182   -4.081773556  -18.652369464
   -1.237597106   -0.923997839   30.116888490    0.342900558  -20.553963330
   -1.047197551   -0.923997839   30.897291411    8.226323204  -21.032805681
   -0.856797996   -0.923997839   33.289603660   16.645560535  -20.046137241
   -0.666398442   -0.923997839   37.048358438   21.946205000  -17.905732597
   -0.475998887   -0.923997839   41.262456841   20.964785526  -15.146283746
   -0.285599332   -0.923997839   44.545118786   12.105109795  -12.320190662
   -0.095199777   -0.923997839   45.416287613   -4.041737380   -9.810658147
    0.095199777   -0.923997839   42.759042391  -24.144558291   -7.745894213
    0.285599332   -0.923997839   36.344646648  -42.374306647   -6.005775626
    0.475998887   -0.923997839   27.204756275  -51.618399366   -4.343492466
    0.666398442   -0.923997839   17.642116887  -46.153266913   -2.548933232
    0.856797996   -0.923997839   10.660565488  -24.805389502   -0.589995197
    1.047197551   -0.923997839    8.908537769    7.423731186    1.352238398
    1.237597106   -0.923997839   13.574362137   40.800209734    2.967951935
    1.427996661   -0.923997839   23.860795543   64.955520950    4.011444017
    1.618396215   -0.923997839   37.307425181   73.405739586    4.440579266
    1.808795770   -0.923997839   50.777204682   65.607692005    4.441159864
    1.999195325   -0.923997839   61.531229302   45.846311923    4.325792373
    2.189594880   -0.923997839   67.880633938   20.405389580    4.370275623
    2.379994435   -0.923997839   69.308365511   -5.011312652    4.691595896
    2.570393989   -0.923997839   66.243509038  -26.228373574    5.202922157
    2.760793544   -0.923997839   59.768558541  -40.478938023    5.656342723
    2.951193099   -0.923997839   51.384094147  -46.152679680    5.742933843

   -3.141592654   -0.554398704   43.702368087  -45.819549015    1.655763017
   -2.951193099   -0.554398704   35.782867721  -36.480318183   -0.361973724
   -2.760793544   -0.554398704   30.108308429  -22.851670845   -2.828050771
   -2.570393989   -0.554398704   27.079267310   -9.411444291   -5.508051494
   -2.379994435   -0.554398704   26.249744079   -0.271456115   -8.268382035
   -2.189594880   -0.554398704   26.566472450    2.525398056  -11.126650916
   -1.999195325   -0.554398704   26.855014161   -0.195061670  -14.147245146
   -1.808795770   -0.554398704   26.342787567   -5.227957774  -17.246919841
   -1.618396215   -0.554398704   24.974278529   -8.540114812  -20.064564692
   -1.427996661   -0.554398704   23.394895845   -7.097471885  -22.024640576
   -1.237597106   -0.554398704   22.622151802   -0.149525720  -22.574482716
   -1.047197551   -0.554398704   23.571945072   10.480292639  -21.468815618
   -0.856797996   -0.554398704   26.620775335   21.156694049  -18.909618139
   -0.666398442   -0.554398704   31.375831512   27.704488525  -15.460243441
   -0.475998887   -0.554398704   36.713015426   26.816931931  -11.800711458
   -0.285599332   -0.554398704   41.042643541   17.132268936   -8.446249736
   -0.095199777   -0.554398704   42.753810617   -0.277197793   -5.581265550
    0.095199777   -0.554398704   40.699605294  -21.512391022   -3.057743205
    0.285599332   -0.554398704   34.720887412  -40.312797117   -0.532602096
    0.475998887   -0.554398704   25.976104162  -49.426238559    2.289322407
    0.666398442   -0.554398704   16.885393043  -43.357486498    5.427799908
    0.856797996   -0.554398704   10.496762606  -21.436483342    8.533188537
    1.047197551   -0.554398704    9.402456802   10.828363236   11.004884289
    1.237597106   -0.554398704   14.662709336   43.517696377   12.272143364
    1.427996661   -0.554398704   25.358727250   66.491382018   12.107648988
    1.618396215   -0.554398704   38.982215785   73.765905179   10.747252868
    1.808795770   -0.554398704   52.442716092   65.248866359    8.773063705
    1.999195325   -0.554398704   63.108429257   45.371293780    6.840618410
    2.189594880   -0.554398704   69.392383935   20.233043358    5.404546297
    2.379994435   -0.554398704   70.821592615   -4.854309379    4.583179611
    2.570393989   -0.554398704   67.792173305  -26.095816544    4.175062244
    2.760793544   -0.554398704   61.295419778  -40.935587967    3.792641276
    2.951193099   -0.554398704   52.726564132  -47.699201307    3.036061029

   -3.141592654   -0.184799568   43.768926878  -49.572576841   -1.009347183
   -2.951193099   -0.184799568   35.034034344  -41.200181271   -3.224853265
   -2.760793544   -0.184799568   28.405610863  -28.057460560   -5.718456971
   -2.570393989   -0.184799568   24.372839398  -14.699819493   -8.267272338
   -2.379994435   -0.184799568   22.539801380   -5.530065602  -10.770136675
   -2.189594880   -0.184799568   21.850703285   -2.798482817  -13.274304697
   -1.999195325   -0.184799568   21.119338182   -5.544441353  -15.839360013
   -1.808795770   -0.184799568   19.622432892  -10.086547228  -18.332340519
   -1.618396215   -0.184799568   17.454110164  -11.886040641  -20.325204590
   -1.427996661   -0.184799568   15.473276494   -7.799062598  -21.215297016
   -1.237597106   -0.184799568   14.875564671    2.425315367  -20.521011206
   -1.047197551   -0.184799568   16.612057487   16.035840891  -18.178606144
   -0.856797996   -0.184799568   20.912544030   28.501325360  -14.626104200
   -0.666398442   -0.184799568   27.110841103   35.252183451  -10.609939106
   -0.475998887   -0.184799568   33.796139020   33.261889688   -6.848579904
   -0.285599332   -0.184799568   39.197693422   21.930594544   -3.711363574
   -0.095199777   -0.184799568   41.687709992    3.222778786   -1.106356221
    0.095199777   -0.184799568   40.252484180  -18.322650767    1.414125624
    0.285599332   -0.184799568   34.939444728  -36.358855999    4.376649560
    0.475998887   -0.184799568   27.070988757  -44.159451862    8.047909239
    0.666398442   -0.184799568   19.087202038  -37.157208790   12.193180534
    0.856797996   -0.184799568   13.876086417  -15.538970949   16.077395374
    1.047197551   -0.184799568   13.753380685   14.877787417   18.750226275
    1.237597106   -0.184799568   19.517338048   44.652016076   19.483852941
    1.427996661   -0.184799568   30.137942355   64.646376839   18.141078448
    1.618396215   -0.184799568   43.194749474   69.872983019   15.228418335
    1.808795770   -0.184799568   55.830896846   60.724216592   11.644557361
    1.999195325   -0.184799568   65.677135755   41.454362922    8.280471447
    2.189594880   -0.184799568   71.327364257   17.534400843    5.692977629
    2.379994435   -0.184799568   72.354678275   -6.453161311    3.985748766
    2.570393989   -0.184799568   69.077034528  -27.237813477    2.885442734
    2.760793544   -0.184799568   62.339711539  -42.449854136    1.938237312
    2.951193099   -0.184799568   53.392869687  -50.232088294    0.718179833

   -3.141592654    0.184799568   43.184030301  -52.803054465   -3.493744123
   -2.951193099    0.184799568   33.770534937  -45.019870176   -5.226888365
   -2.760793544    0.184799568   26.385416083  -32.117974026   -6.971701745
   -2.570393989    0.184799568   21.578203158  -18.745351304   -8.648217245
   -2.379994435    0.184799568   18.980428123   -9.525715836  -10.286146988
   -2.189594880    0.184799568   17.531491786   -6.779747280  -11.992482021
   -1.999195325    0.184799568   16.057163741   -9.291811061  -13.801065577
   -1.808795770    0.184799568   13.920998146  -12.896473071  -15.508729886
   -1.618396215    0.184799568   11.390120860  -12.702896932  -16.643165357
   -1.427996661    0.184799568    9.518410667   -5.734016460  -16.638199124
   -1.237597106    0.184799568    9.606403643    7.495079930  -15.139302221
   -1.047197551    0.184799568   12.530573771   23.207434459  -12.254504072
   -0.856797996    0.184799568   18.268783363   36.136140469   -8.555802094
   -0.666398442    0.184799568   25.830524576   41.698276840   -4.805143039
   -0.475998887    0.184799568   33.549354258   37.603320108   -1.586480978
   -0.285599332    0.184799568   39.582882286   24.346684964    0.983910118
   -0.095199777    0.184799568   42.435925608    4.864025603    3.276964672
    0.095199777    0.184799568   41.364469207  -15.890575704    5.931634566
    0.285599332    0.184799568   36.692837738  -31.923021234    9.479267423
    0.475998887    0.184799568   29.884997463  -37.538758906   13.982011696
    0.666398442    0.184799568   23.292623295  -29.457463279   18.857701423
    0.856797996    0.184799568   19.494668840   -8.782727080   23.023225859
    1.047197551    0.184799568   20.401390338   18.630082263   25.331860256
    1.237597106    0.184799568   26.492713688   44.265318206   25.091926557
    1.427996661    0.184799568   36.655725503   60.394391895   22.391274425
    1.618396215    0.184799568   48.644711822   63.218954466   18.025246639
    1.808795770    0.184799568   59.936669780   53.569419970   13.115584024
    1.999195325    0.184799568   68.500059370   35.332280744    8.644473142
    2.189594880    0.184799568   73.145709117   13.148072611    5.150943564
    2.379994435    0.184799568   73.497186121   -9.252633205    2.683438552
    2.570393989    0.184799568   69.784818875  -29.147111574    0.946181699
    2.760793544    0.184799568   62.700442622  -44.313947803   -0.469446794
    2.951193099    0.184799568   53.349677298  -52.679036467   -1.897798660

   -3.141592654    0.554398704   44.048701231  -53.843014494   -3.087083544
   -2.951193099    0.554398704   34.361009613  -46.836463940   -3.886132922
   -2.760793544    0.554398704   26.562062354  -34.608426597   -4.650422008
   -2.570393989    0.554398704   21.231809517  -21.709731531   -5.436005274
   -2.379994435    0.554398704   18.040417152  -12.764198320   -6.322413562
   -2.189594880    0.554398704   15.966378218  -10.059514238   -7.368158418
   -1.999195325    0.554398704   13.893179269  -12.213874123   -8.520465807
   -1.808795770    0.554398704   11.283999889  -14.819157338   -9.549146462
   -1.618396215    0.554398704    8.541217291  -12.897028979  -10.077355322
   -1.427996661    0.554398704    6.835827638   -3.769441711   -9.731260490
   -1.237597106    0.554398704    7.491302540   11.381313451   -8.344315281
   -1.047197551    0.554398704   11.267591746   28.063661533   -6.089332333
   -0.856797996    0.554398704   17.920849672   40.690248630   -3.419826204
   -0.666398442    0.554398704   26.239877576   44.996171004   -0.830377618
   -0.475998887    0.554398704   34.449888843   39.529823151    1.406651934
   -0.285599332    0.554398704   40.776959091   25.698044567    3.410984637
   -0.095199777    0.554398704   43.939233981    7.002473404    5.632439392
    0.095199777    0.554398704   43.454462274  -11.707130610    8.622996844
    0.285599332    0.554398704   39.820256048  -25.228383707   12.695805383
    0.475998887    0.554398704   34.475846677  -29.097017564   17.646311829
    0.666398442    0.554398704   29.514098326  -21.160594923   22.666349377
    0.856797996    0.554398704   27.097566208   -2.951498932   26.562842817
    1.047197551    0.554398704   28.731516739   20.233348275   28.226032021
    1.237597106    0.554398704   34.679102272   41.218867648   27.122165859
    1.427996661    0.554398704   43.891770542   53.740407528   23.536680873
    1.618396215    0.554398704   54.422686215   54.917877517   18.418341862
    1.808795770    0.554398704   64.140948986   45.639222522   12.951676019
    1.999195325    0.554398704   71.346213579   29.157655850    8.099726456
    2.189594880    0.554398704   75.029150509    9.224604101    4.351354227
    2.379994435    0.554398704   74.832371970  -11.184519842    1.730501220
    2.570393989    0.554398704   70.888679666  -29.781059386   -0.028071374
    2.760793544    0.554398704   63.741081422  -44.471303725   -1.259571197
    2.951193099    0.554398704   54.347225157  -53.064601186   -2.229946128

   -3.141592654    0.923997839   43.697522511  -54.293127061   -3.667702280
   -2.951193099    0.923997839   33.945145508  -47.045333632   -3.290484032
   -2.760793544    0.923997839   26.124448158  -34.633977832   -2.708940966
   -2.570393989    0.923997839   20.795913553  -21.692919919   -2.182515430
   -2.379994435    0.923997839   17.595401705  -12.910160423   -1.926264377
   -2.189594880    0.923997839   15.463987866  -10.532815800   -2.034057944
   -1.999195325    0.923997839   13.268650959  -13.000451062   -2.442012971
   -1.808795770    0.923997839   10.498340318  -15.666089584   -2.953315755
   -1.618396215    0.923997839    7.620146168  -13.407241725   -3.309717671
   -1.427996661    0.923997839    5.876331034   -3.633168757   -3.280418174
   -1.237597106    0.923997839    6.624059548   12.181176392   -2.745360155
   -1.047197551    0.923997839   10.595696756   29.244484907   -1.733362675
   -0.856797996    0.923997839   17.481161426   41.902397998   -0.382172663
   -0.666398442    0.923997839   26.024277565   46.158529924    1.166617431
   -0.475998887    0.923997839   34.478458200   41.037512679    2.874122499
   -0.285599332    0.923997839   41.186277024   28.340158168    4.876197618
   -0.095199777    0.923997839   45.028989983   11.633062377    7.433018658
    0.095199777    0.923997839   45.656444662   -4.638418792   10.797442870
    0.285599332    0.923997839   43.578908810  -16.089946322   14.988554201
    0.475998887    0.923997839   40.071011599  -19.246966289   19.613144654
    0.666398442    0.923997839   36.889602853  -12.691209743   23.842891429
    0.856797996    0.923997839   35.781388046    2.002345300   26.643193396
    1.047197551    0.923997839   37.908750715   20.345877828   27.179361858
    1.237597106    0.923997839   43.409007212   36.545898031   25.199430675
    1.427996661    0.923997839   51.377799935   45.664692178   21.152794281
    1.618396215    0.923997839   60.211377567   45.524271748   15.976141711
    1.808795770    0.923997839   68.174067173   36.863421814   10.699337038
    1.999195325    0.923997839   73.869159183   22.192046616    6.081458613
    2.189594880    0.923997839   76.429124373    4.382362436    2.462991864
    2.379994435    0.923997839   75.490408332  -14.225848853   -0.161509184
    2.570393989    0.923997839   71.093590569  -31.596533160   -1.959976897
    2.760793544    0.923997839   63.673823361  -45.579864308   -3.089162311
    2.951193099    0.923997839   54.108171408  -53.784520512   -3.638142002

   -3.141592654    1.293596975   40.299563868  -54.191373809   -7.749295355
   -2.951193099    1.293596975   30.708791465  -45.509900151   -7.221241676
   -2.760793544    1.293596975   23.270447416  -32.277641995   -6.110670916
   -2.570393989    1.293596975   18.404981110  -19.312697986   -4.705068162
   -2.379994435    1.293596975   15.603890818  -11.185574237   -3.275165156
   -2.189594880    1.293596975   13.706532170   -9.832473955   -1.978741794
   -1.999195325    1.293596975   11.541353021  -13.368100433   -0.842541831
   -1.808795770    1.293596975    8.613997951  -16.900756296    0.174635652
   -1.618396215    1.293596975    5.446808489  -15.135871965    1.102284363
   -1.427996661    1.293596975    3.366190054   -5.355101751    1.931403641
   -1.237597106    1.293596975    3.833625096   11.046543027    2.637152962
   -1.047197551    1.293596975    7.691130178   29.254727356    3.228167873
   -0.856797996    1.293596975   14.721907669   43.459916358    3.783296846
   -0.666398442    1.293596975   23.724272265   49.423760911    4.462800000
   -0.475998887    1.293596975   32.958048469   45.934890222    5.481304388
   -0.285599332    1.293596975   40.735631849   34.630594998    7.076295960
   -0.095199777    1.293596975   45.883632677   18.992553808    9.432559734
    0.095199777    1.293596975   47.979364865    3.327183253   12.595221769
    0.285599332    1.293596975   47.421796809   -8.241303845   16.338461407
    0.475998887    1.293596975   45.315708911  -12.570650730   20.104912850
    0.666398442    1.293596975   43.196952368   -8.399832604   23.074159899
    0.856797996    1.293596975   42.599182825    2.961206727   24.415701592
    1.047197551    1.293596975   44.566524850   17.740421887   23.622326069
    1.237597106    1.293596975   49.276366650   31.020450685   20.760551490
    1.427996661    1.293596975   56.013262391   38.476678608   16.443454325
    1.618396215    1.293596975   63.428720506   38.011982410   11.552682874
    1.808795770    1.293596975   70.008446683   29.952128368    6.881564803
    1.999195325    1.293596975   74.475280513   16.212259923    2.884181225
    2.189594880    1.293596975   75.978300807   -0.772891305   -0.346556652
    2.379994435    1.293596975   74.119930837  -18.752565822   -2.930388735
    2.570393989    1.293596975   68.919671932  -35.476896458   -5.001287820
    2.760793544    1.293596975   60.845215578  -48.500308513   -6.570989726
    2.951193099    1.293596975   50.848552049  -55.313842321   -7.529476222

   -3.141592654    1.663196111   35.030310017  -55.137198236  -14.510323478
   -2.951193099    1.663196111   25.459342359  -44.393209162  -14.317589261
   -2.760793544    1.663196111   18.392860903  -29.615328311  -12.982441199
   -2.570393989    1.663196111   14.117012646  -15.921921834  -10.745180776
   -2.379994435    1.663196111   11.969809837   -7.809838310   -7.918470011
   -2.189594880    1.663196111   10.676492553   -6.909389231   -4.785495066
   -1.999195325    1.663196111    9.011743020  -11.043461796   -1.574570127
   -1.808795770    1.663196111    6.469195370  -15.183705397    1.489801196
   -1.618396215    1.663196111    3.573576319  -13.992063345    4.145343326
   -1.427996661    1.663196111    1.664772122   -4.667999626    6.138548306
   -1.237597106    1.663196111    2.242272268   11.570528377    7.328231584
   -1.047197551    1.663196111    6.221843201   30.089229323    7.784984478
   -0.856797996    1.663196111   13.483879484   45.127008218    7.795308803
   -0.666398442    1.663196111   22.915930202   52.305522114    7.773334920
   -0.475998887    1.663196111   32.826543733   50.159055952    8.110787992
   -0.285599332    1.663196111   41.526381221   40.041984263    9.064176267
   -0.095199777    1.663196111   47.787751348   25.190623224   10.688385528
    0.095199777    1.663196111   51.088165491    9.646486909   12.825447937
    0.285599332    1.663196111   51.675715571   -2.707173512   15.097452712
    0.475998887    1.663196111   50.466469480   -8.856552605   16.958950642
    0.666398442    1.663196111   48.808795459   -7.375406830   17.820979681
    0.856797996    1.663196111   48.117642260    0.960381373   17.257761586
    1.047197551    1.663196111   49.443940836   13.141194396   15.194934785
    1.237597106    1.663196111   53.110654927   24.867767702   11.982378641
    1.427996661    1.663196111   58.626011433   31.981097199    8.235233179
    1.618396215    1.663196111   64.846081761   32.048997053    4.560687203
    1.808795770    1.663196111   70.366865603   24.780502602    1.313604451
    1.999195325    1.663196111   73.905505097   11.559589735   -1.486942870
    2.189594880    1.663196111   74.533089479   -5.386036701   -4.047939635
    2.379994435    1.663196111   71.774224194  -23.608673712   -6.595457527
    2.570393989    1.663196111   65.635410136  -40.402912059   -9.186527614
    2.760793544    1.663196111   56.664000991  -52.857175390  -11.627425315
    2.951193099    1.663196111   45.957372343  -58.266843362  -13.536120555

   -3.141592654    2.032795246   28.167156402  -57.620302446  -16.400979619
   -2.951193099    2.032795246   18.366373588  -44.283753644  -16.121217414
   -2.760793544    2.032795246   11.570235752  -26.941168538  -14.501269901
   -2.570393989    2.032795246    8.014011763  -11.138501004  -11.781453253
   -2.379994435    2.032795246    6.926137730   -1.583991175   -8.296480649
   -2.189594880    2.032795246    6.899988221    0.058037709   -4.350201063
   -1.999195325    2.032795246    6.577732614   -4.026243306   -0.191975291
   -1.808795770    2.032795246    5.321053725   -8.811740445    3.905887080
   -1.618396215    2.032795246    3.526453938   -8.889650032    7.580963875
   -1.427996661    2.032795246    2.436129310   -1.208450536   10.432236527
   -1.237597106    2.032795246    3.517842963   13.451456121   12.167475050
   -1.047197551    2.032795246    7.745696209   30.919635657   12.761661268
   -0.856797996    2.032795246   15.128508757   45.691665185   12.492997212
   -0.666398442    2.032795246   24.701799040   53.310303700   11.834169247
   -0.475998887    2.032795246   34.878316836   51.960308610   11.247143163
   -0.285599332    2.032795246   43.994228539   42.553318975   11.007431297
   -0.095199777    2.032795246   50.767129746   27.948149002   11.112639296
    0.095199777    2.032795246   54.561401179   11.944114750   11.307244172
    0.285599332    2.032795246   55.482189902   -1.630656138   11.172902532
    0.475998887    2.032795246   54.311361699   -9.604804951   10.299935002
    0.666398442    2.032795246   52.316067879  -10.154588513    8.471581839
    0.856797996    2.032795246   50.924842117   -3.504721966    5.800415462
    1.047197551    2.032795246   51.304711244    7.843027478    2.715291350
    1.237597106    2.032795246   53.964813018   19.753384012   -0.192994600
    1.427996661    2.032795246   58.586953617   27.792962930   -2.454632880
    1.618396215    2.032795246   64.114313285   28.933280329   -3.926524917
    1.808795770    2.032795246   69.110771190   22.274740545   -4.834216345
    1.999195325    2.032795246   72.168555720    8.879717641   -5.637317978
    2.189594880    2.032795246   72.209888382   -8.951210550   -6.795730909
    2.379994435    2.032795246   68.660271607  -28.344958872   -8.563026646
    2.570393989    2.032795246   61.527103530  -46.006794114  -10.868447879
    2.760793544    2.032795246   51.469574138  -58.485003091  -13.325889744
    2.951193099    2.032795246   39.775968276  -62.810103147  -15.357269812

   -3.141592654    2.402394382   21.072877805  -60.639808042  -10.395757583
   -2.951193099    2.402394382   10.967030412  -44.395728533   -9.362665753
   -2.760793544    2.402394382    4.448512402  -23.942968425   -7.374122322
   -2.570393989    2.402394382    1.735623910   -5.373942908   -4.674283070
   -2.379994435    2.402394382    1.956468618    6.269091010   -1.496009880
   -2.189594880    2.402394382    3.560889364    9.192217612    2.039840741
   -1.999195325    2.402394382    5.032193983    5.530027691    5.883143367
   -1.808795770    2.402394382    5.563224869    0.251806021    9.898373339
   -1.618396215    2.402394382    5.374506894   -1.228436258   13.737527996
   -1.427996661    2.402394382    5.549823622    4.330107591   16.877822135
   -1.237597106    2.402394382    7.457109258   16.574627043   18.816110830
   -1.047197551    2.402394382   12.066310302   31.874411573   19.313085899
   -0.856797996    2.402394382   19.477033318   45.154162501   18.508394450
   -0.666398442    2.402394382   28.870585953   52.071836193   16.845287404
   -0.475998887    2.402394382   38.793871819   50.590403993   14.850742391
   -0.285599332    2.402394382   47.651305816   41.176704594   12.902573452
   -0.095199777    2.402394382   54.137823512   26.226742044   11.094873291
    0.095199777    2.402394382   57.522550127    9.248529346    9.242557392
    0.285599332    2.402394382   57.791211050   -5.855091616    7.006166350
    0.475998887    2.402394382   55.657799544  -15.450100111    4.115262037
    0.666398442    2.402394382   52.436516963  -17.014984629    0.585482797
    0.856797996    2.402394382   49.734084258  -10.179114647   -3.183087994
    1.047197551    2.402394382   48.969759059    2.716898448   -6.522160482
    1.237597106    2.402394382   50.878367556   17.076130929   -8.772388718
    1.427996661    2.402394382   55.233075481   27.589521793   -9.620585127
    1.618396215    2.402394382   60.893400573   30.337496014   -9.242079436
    1.808795770    2.402394382   66.202191199   23.910653405   -8.211689809
    1.999195325    2.402394382   69.483616689    9.399359276   -7.235214968
    2.189594880    2.402394382   69.441635582  -10.436398559   -6.855805617
    2.379994435    2.402394382   65.396851601  -32.025137020   -7.276235271
    2.570393989    2.402394382   57.389910775  -51.359189823   -8.323603462
    2.760793544    2.402394382   46.238142218  -64.407329468   -9.546943341
    2.951193099    2.402394382   33.472358473  -67.918519425  -10.390210652

   -3.141592654    2.771993518   18.217852066  -60.498003366    0.147129046
   -2.951193099    2.771993518    8.263083206  -42.972206727    2.080256578
   -2.760793544    2.771993518    2.129741914  -21.368855205    4.360870199
   -2.570393989    2.771993518    0.000000000   -1.853022991    6.836376606
   -2.379994435    2.771993518    0.973471230   10.655337484    9.467383612
   -2.189594880    2.771993518    3.500634078   14.514463861   12.346818578
   -1.999195325    2.771993518    6.078311870   11.811234839   15.579930307
   -1.808795770    2.771993518    7.875851222    7.181409074   19.085681602
   -1.618396215    2.771993518    9.010414098    5.580328246   22.471012961
   -1.427996661    2.771993518   10.387382782    9.963358326   25.100084347
   -1.237597106    2.771993518   13.178312508   20.100448929   26.340744309
   -1.047197551    2.771993518   18.220054765   32.872339222   25.857925311
   -0.856797996    2.771993518   25.593724241   43.845607476   23.760432505
   -0.666398442    2.771993518   34.569320938   49.113667887   20.525526534
   -0.475998887    2.771993518   43.829316269   46.675537687   16.760675024
   -0.285599332    2.771993518   51.884715576   36.693323828   12.933403467
   -0.095199777    2.771993518   57.462936275   21.132496469    9.216307575
    0.095199777    2.771993518   59.795677988    3.238037038    5.498794762
    0.285599332    2.771993518   58.815289081  -12.965309832    1.546694036
    0.475998887    2.771993518   55.243303917  -23.343047100   -2.746029790
    0.666398442    2.771993518   50.515260467  -24.737652478   -7.151317599
    0.856797996    2.771993518   46.463416812  -16.393065649  -11.083234678
    1.047197551    2.771993518   44.756312810   -0.802378697  -13.810373288
    1.237597106    2.771993518   46.294852887   16.711775056  -14.795334912
    1.427996661    2.771993518   50.848868445   29.899170570  -13.991137176
    1.618396215    2.771993518   57.109431598   34.100950046  -11.866581125
    1.808795770    2.771993518   63.157730415   27.692085391   -9.189474720
    1.999195325    2.771993518   67.067085380   12.074408673   -6.694616681
    2.189594880    2.771993518   67.382047944   -9.393260317   -4.822404147
    2.379994435    2.771993518   63.383723984  -32.510094574   -3.638208076
    2.570393989    2.771993518   55.180965812  -52.806327313   -2.904000539
    2.760793544    2.771993518   43.725522790  -66.013477760   -2.240784795
    2.951193099    2.771993518   30.702440213  -68.906862361   -1.291949508
