#! FIELDS phi psi file.free der_phi der_psi
#! SET min_phi -pi
#! SET max_phi pi
#! SET nbins_phi  33
#! SET periodic_phi true
#! SET min_psi -pi
#! SET max_psi pi
#! SET nbins_psi  17
#! SET periodic_psi true
   -3.141592654   -3.141592654   19.322011263  -54.562638570   14.194478553
   -2.951193099   -3.141592654   10.696442502  -35.387600849   17.040998238
   -2.760793544   -3.141592654    5.973989439  -14.582252119   19.255612953
   -2.570393989   -3.141592654    4.906817064    2.289850145   20.880562828
   -2.379994435   -3.141592654    6.375469162   11.774204051   22.213305206
   -2.189594880   -3.141592654    8.910632483   13.761100765   23.721108614
   -1.999195325   -3.141592654   11.321513579   11.125381051   25.805593910
   -1.808795770   -3.141592654   13.136570837    8.241997337   28.528612070
   -1.618396215   -3.141592654   14.699082021    8.993114357   31.474127549
   -1.427996661   -3.141592654   16.914156156   15.152693656   33.857696411
   -1.237597106   -3.141592654   20.766397160   25.801640491   34.849663200
   -1.047197551   -3.141592654   26.842127293   37.827443220   33.946329742
   -0.856797996   -3.141592654   35.021478532   47.238600829   31.153847628
   -0.666398442   -3.141592654   44.460220094   50.515907407   26.899581733
   -0.475998887   -3.141592654   53.767529180   45.677283928   21.774374410
   -0.285599332   -3.141592654   61.353437269   32.608376615   16.246572973
   -0.095199777   -3.141592654   65.793709202   13.117529532   10.539072600
    0.095199777   -3.141592654   66.182368136   -9.204069269    4.689857833
    0.285599332   -3.141592654   62.444770545  -29.311789359   -1.259583554
    0.475998887   -3.141592654   55.533051458  -41.659253025   -7.067356593
    0.666398442   -3.141592654   47.376659428  -41.858560607  -12.213741449
    0.856797996   -3.141592654   40.466567562  -28.739016953  -16.025817439
    1.047197551   -3.141592654   37.094462879   -5.626752693  -17.951590059
    1.237597106   -3.141592654   38.511618845   20.165717362  -17.822929905
    1.427996661   -3.141592654   44.397368979   39.939975212  -15.951362290
    1.618396215   -3.141592654   52.919439675   47.102317507  -12.963475830
    1.808795770   -3.141592654   61.391585286   39.482129744   -9.515798475
    1.999195325   -3.141592654   67.170552138   19.555058110   -6.047488051
    2.189594880   -3.141592654   68.406037489   -7.169922066   -2.701882870
    2.379994435   -3.141592654   64.421576150  -34.211367374    0.586719533
    2.570393989   -3.141592654   55.738966700  -55.636922922    3.941659765
    2.760793544   -3.141592654   43.877366326  -67.056536432    7.409193918
    2.951193099   -3.141592654   30.982850140  -66.404067983   10.898195533

   -3.141592654   -2.771993518   27.842881905  -48.784598393   23.078316581
   -2.951193099   -2.771993518   20.110664407  -31.839225487   25.619224037
   -2.760793544   -2.771993518   15.853665106  -13.172911085   27.025436153
   -2.570393989   -2.771993518   14.904613389    2.289032958   27.519324487
   -2.379994435   -2.771993518   16.331840621   11.557345077   27.585631387
   -2.189594880   -2.771993518   18.905346973   14.560787173   27.815809103
   -1.999195325   -2.771993518   21.630472538   13.681730911   28.651650078
   -1.808795770   -2.771993518   24.094681622   12.394738832   30.152330850
   -1.618396215   -2.771993518   26.516395961   13.617431208   31.905891488
   -1.427996661   -2.771993518   29.522403558   18.539118215   33.151856653
   -1.237597106   -2.771993518   33.765655219   26.297652091   33.081755872
   -1.047197551   -2.771993518   39.572077634   34.423065477   31.181103700
   -0.856797996   -2.771993518   46.717052439   39.848077480   27.417080169
   -0.666398442   -2.771993518   54.420624911   39.870368724   22.191603663
   -0.475998887   -2.771993518   61.483172401   32.975652873   16.134223682
   -0.285599332   -2.771993518   66.558092012   19.154494336    9.829394108
   -0.095199777   -2.771993518   68.457278418    0.060336390    3.674134896
    0.095199777   -2.771993518   66.470321006  -20.963552865   -2.120143542
    0.285599332   -2.771993518   60.672999842  -39.081883276   -7.398074843
    0.475998887   -2.771993518   52.134655805  -48.884943256  -11.921330502
    0.666398442   -2.771993518   42.877589141  -46.131013412  -15.326178202
    0.856797996   -2.771993518   35.448201225  -29.910628550  -17.228461756
    1.047197551   -2.771993518   32.130217052   -3.947889184  -17.411446116
    1.237597106   -2.771993518   34.087605435   24.036008966  -15.969552406
    1.427996661   -2.771993518   40.850005434   45.148247705  -13.293627951
    1.618396215   -2.771993518   50.429907231   52.923827134   -9.885403624
    1.808795770   -2.771993518   60.038252104   45.582444135   -6.146871576
    1.999195325   -2.771993518   67.008924547   26.010973197   -2.256448279
    2.189594880   -2.771993518   69.529087603   -0.091057592    1.802430276
    2.379994435   -2.771993518   66.966128466  -26.359242357    6.103827661
    2.570393989   -2.771993518   59.839896584  -47.214801049   10.637340665
    2.760793544   -2.771993518   49.592295444  -58.665663247   15.219360854
    2.951193099   -2.771993518   38.226679140  -58.898932361   19.503282950

   -3.141592654   -2.402394382   36.627317328  -43.972250873   21.358425029
   -2.951193099   -2.402394382   29.599135119  -29.246536229   23.051541050
   -2.760793544   -2.402394382   25.654649541  -12.357124162   23.752039644
   -2.570393989   -2.402394382   24.763508882    2.261815023   23.750907948
   -2.379994435   -2.402394382   26.194126065   11.797385646   23.469639218
   -2.189594880   -2.402394382   28.909739341   15.907657404   23.312160100
   -1.999195325   -2.402394382   32.017393311   16.310734702   23.487549660
   -1.808795770   -2.402394382   35.056585110   15.625149283   23.906129875
   -1.618396215   -2.402394382   38.041574491   16.033020402   24.188711085
   -1.427996661   -2.402394382   41.294928864   18.457842826   23.796096425
   -1.237597106   -2.402394382   45.174296135   22.418139494   22.240902295
   -1.047197551   -2.402394382   49.840096016   26.368433288   19.295461591
   -0.856797996   -2.402394382   55.103750379   28.355957724   15.078686387
   -0.666398442   -2.402394382   60.410629091   26.507097735    9.993233674
   -0.475998887   -2.402394382   64.892999372   19.530344506    4.573654326
   -0.285599332   -2.402394382   67.518460551    7.069442000   -0.708503092
   -0.095199777   -2.402394382   67.312607218   -9.884275104   -5.532818862
    0.095199777   -2.402394382   63.654498227  -28.565842889   -9.733681620
    0.285599332   -2.402394382   56.626391777  -44.416378765  -13.207553871
    0.475998887   -2.402394382   47.281161416  -52.021007010  -15.823939869
    0.666398442   -2.402394382   37.635887615  -47.060373592  -17.399181467
    0.856797996   -2.402394382   30.234607996  -28.693277198  -17.768634690
    1.047197551   -2.402394382   27.329778474   -0.880861347  -16.892644375
    1.237597106   -2.402394382   30.005180414   28.419322011  -14.925821004
    1.427996661   -2.402394382   37.680852090   50.283619358  -12.166532987
    1.618396215   -2.402394382   48.279752688   58.464581003   -8.918434832
    1.808795770   -2.402394382   58.979478213   51.529763936   -5.378793030
    1.999195325   -2.402394382   67.140302131   32.606613379   -1.608956185
    2.189594880   -2.402394382   70.998419059    7.380628740    2.400037177
    2.379994435   -2.402394382   69.940578040  -18.066560811    6.621870315
    2.570393989   -2.402394382   64.438406301  -38.565368465   10.923340998
    2.760793544   -2.402394382   55.810584357  -50.464351057   15.040512219
    2.951193099   -2.402394382   45.892626216  -52.049489393   18.627435374

   -3.141592654   -2.032795246   42.250357087  -40.941817170   13.483382500
   -2.951193099   -2.032795246   35.649147326  -27.781259935   14.500911294
   -2.760793544   -2.032795246   31.855698026  -12.152197954   14.953261107
   -2.570393989   -2.032795246   30.926821840    1.757712044   14.990901150
   -2.379994435   -2.032795246   32.239807654   11.141044531   14.778848078
   -2.189594880   -2.032795246   34.839308494   15.346806174   14.443540452
   -1.999195325   -2.032795246   37.835525669   15.622121048   14.008625398
   -1.808795770   -2.032795246   40.682054458   14.162597103   13.381932574
   -1.618396215   -2.032795246   43.248978910   12.977639066   12.379412894
   -1.427996661   -2.032795246   45.716617525   13.195559300   10.788343639
   -1.237597106   -2.032795246   48.371751454   14.874452514    8.454276099
   -1.047197551   -2.032795246   51.425075195   17.141630689    5.366014366
   -0.856797996   -2.032795246   54.860065179   18.598437719    1.683571433
   -0.666398442   -2.032795246   58.363236392   17.542045176   -2.295647729
   -0.475998887   -2.032795246   61.299276920   12.386816143   -6.207899049
   -0.285599332   -2.032795246   62.776781584    2.176302887   -9.740343319
   -0.095199777   -2.032795246   61.840800917  -12.734314377  -12.692051532
    0.095199777   -2.032795246   57.789457833  -29.948702774  -15.009439498
    0.285599332   -2.032795246   50.589786146  -44.904063440  -16.724004750
    0.475998887   -2.032795246   41.211094586  -51.891969594  -17.862782122
    0.666398442   -2.032795246   31.651526613  -46.252612592  -18.379328849
    0.856797996   -2.032795246   24.485369388  -26.984123207  -18.166250688
    1.047197551   -2.032795246   22.004090156    1.870835968  -17.134386713
    1.237597106   -2.032795246   25.300096537   32.160741847  -15.303994886
    1.427996661   -2.032795246   33.767884598   54.822701471  -12.811250938
    1.618396215   -2.032795246   45.291339669   63.602264235   -9.844800690
    1.808795770   -2.032795246   57.016950342   57.145373068   -6.580742257
    1.999195325   -2.032795246   66.288059517   38.634388368   -3.157594279
    2.189594880   -2.032795246   71.327553620   13.730455234    0.304191983
    2.379994435   -2.032795246   71.495900690  -11.583760816    3.675269960
    2.570393989   -2.032795246   67.216493568  -32.275577127    6.816086834
    2.760793544   -2.032795246   59.733757189  -44.815770695    9.580671142
    2.951193099   -2.032795246   50.792140034  -47.526823894   11.835071086

   -3.141592654   -1.663196111   40.933400799  -40.448163192   11.833615269
   -2.951193099   -1.663196111   34.488300546  -26.644344044   12.261695273
   -2.760793544   -1.663196111   30.959833818  -10.569322826   12.028567985
   -2.570393989   -1.663196111   30.336966014    3.282778513   11.212146844
   -2.379994435   -1.663196111   31.884196155   11.968198016    9.900870763
   -2.189594880   -1.663196111   34.526779666   14.884436824    8.163450414
   -1.999195325   -1.663196111   37.279863707   13.491304147    6.024238830
   -1.808795770   -1.663196111   39.552932776   10.289200124    3.494200479
   -1.618396215   -1.663196111   41.235172828    7.634413699    0.609867356
   -1.427996661   -1.663196111   42.591353947    6.984797556   -2.541800539
   -1.237597106   -1.663196111   44.046182060    8.627742202   -5.819566964
   -1.047197551   -1.663196111   45.975536711   11.719588639   -9.036089949
   -0.856797996   -1.663196111   48.512789310   14.671662069  -11.979509421
   -0.666398442   -1.663196111   51.438464006   15.421934017  -14.439031175
   -0.475998887   -1.663196111   54.139076875   11.982467072  -16.231341295
   -0.285599332   -1.663196111   55.672605730    3.089610100  -17.263879568
   -0.095199777   -1.663196111   54.989208363  -11.102621347  -17.565858096
    0.095199777   -1.663196111   51.266519863  -28.225380611  -17.305443339
    0.285599332   -1.663196111   44.361509699  -43.592054182  -16.714946499
    0.475998887   -1.663196111   35.174431767  -51.192630526  -15.983135692
    0.666398442   -1.663196111   25.702378809  -45.970782328  -15.167262160
    0.856797996   -1.663196111   18.588733761  -26.613225007  -14.191163052
    1.047197551   -1.663196111   16.233975253    2.911853903  -12.920818590
    1.237597106   -1.663196111   19.826845701   34.266259518  -11.273727927
    1.427996661   -1.663196111   28.804444301   58.038490960   -9.246685097
    1.618396215   -1.663196111   41.024184168   67.615490480   -6.888896810
    1.808795770   -1.663196111   53.546476890   61.386532529   -4.268490425
    1.999195325   -1.663196111   63.595580254   42.451118826   -1.465238800
    2.189594880   -1.663196111   69.278138976   16.589092699    1.411925201
    2.379994435   -1.663196111   69.878053044   -9.922254888    4.220447706
    2.570393989   -1.663196111   65.809846410  -31.667925898    6.806800496
    2.760793544   -1.663196111   58.377989968  -44.796724724    9.022459479
    2.951193099   -1.663196111   49.431087628  -47.505218200   10.733769548

   -3.141592654   -1.293596975   39.632970817  -41.094760594    9.945422027
   -2.951193099   -1.293596975   33.049112451  -27.453487866    9.627849056
   -2.760793544   -1.293596975   29.349814194  -11.576836229    8.829788638
   -2.570393989   -1.293596975   28.501549990    1.870762874    7.581290511
   -2.379994435   -1.293596975   29.716692861    9.832723306    5.841094150
   -2.189594880   -1.293596975   31.857551062   11.700277037    3.503866181
   -1.999195325   -1.293596975   33.889844687    9.100220247    0.455304816
   -1.808795770   -1.293596975   35.221366604    4.850195335   -3.304582557
   -1.618396215   -1.293596975   35.807579522    1.677831636   -7.572826385
   -1.427996661   -1.293596975   36.042779045    1.310350526  -11.940662230
   -1.237597106   -1.293596975   36.511669906    4.079816071  -15.890685218
   -1.047197551   -1.293596975   37.734966792    8.929798844  -18.950400142
   -0.856797996   -1.293596975   39.932948029   13.908466787  -20.823353981
   -0.666398442   -1.293596975   42.899361631   16.568059623  -21.442846257
   -0.475998887   -1.293596975   45.969644699   14.628912356  -20.936586557
   -0.285599332   -1.293596975   48.104343101    6.649261111  -19.564962965
   -0.095199777   -1.293596975   48.130063207   -7.342133402  -17.637153500
    0.095199777   -1.293596975   45.082966505  -25.011376792  -15.462618076
    0.285599332   -1.293596975   38.686294284  -41.545296101  -13.279349258
    0.475998887   -1.293596975   29.754561491  -50.557551145  -11.216355918
    0.666398442   -1.293596975   20.289601683  -46.442772157   -9.289291423
    0.856797996   -1.293596975   13.040573638  -27.411959942   -7.451278762
    1.047197551   -1.293596975   10.578418435    2.714263385   -5.663896257
    1.237597106   -1.293596975   14.250888138   35.367009990   -3.943054712
    1.427996661   -1.293596975   23.583502911   60.649740367   -2.309086368
    1.618396215   -1.293596975   36.425513643   71.450172724   -0.732562864
    1.808795770   -1.293596975   49.746877107   65.816412441    0.872572706
    1.999195325   -1.293596975   60.637355640   46.728782353    2.585070924
    2.189594880   -1.293596975   67.068487054   20.078672541    4.394886427
    2.379994435   -1.293596975   68.226985842   -7.579999257    6.183741540
    2.570393989   -1.293596975   64.491424977  -30.494842351    7.774782764
    2.760793544   -1.293596975   57.189330113  -44.551438153    8.998355641
    2.951193099   -1.293596975   48.227631503  -47.847308363    9.738348569

   -3.141592654   -0.923997839   40.381983454  -43.141039629    6.140385894
   -2.951193099   -0.923997839   33.378653625  -29.762083703    4.749501475
   -2.760793544   -0.923997839   29.232901185  -13.932015139    3.002114653
   -2.570393989   -0.923997839   27.932690422   -0.546912681    0.985543079
   -2.379994435   -0.923997839   28.661479153    7.078147403   -1.334975954
   -2.189594880   -0.923997839   30.212423138    8.182458232   -4.107870924
   -1.999195325   -0.923997839   31.473873409    4.491796139   -7.487862992
   -1.808795770   -0.923997839   31.821528396   -0.829723780  -11.450146288
   -1.618396215   -0.923997839   31.260335070   -4.571057185  -15.671620602
   -1.427996661   -0.923997839   30.320922056   -4.604254984  -19.557206878
   -1.237597106   -0.923997839   29.777360201   -0.468349916  -22.421711154
   -1.047197551   -0.923997839   30.333834798    6.584331146  -23.747454810
   -0.856797996   -0.923997839   32.329501548   14.146580180  -23.369522571
   -0.666398442   -0.923997839   35.577822607   19.217028941  -21.504850721
   -0.475998887   -0.923997839   39.332260480   19.018349564  -18.627231525
   -0.285599332   -0.923997839   42.390892771   11.787347811  -15.273641356
   -0.095199777   -0.923997839   43.380238366   -2.534852934  -11.872721668
    0.095199777   -0.923997839   41.145121970  -21.399550875   -8.672659092
    0.285599332   -0.923997839   35.286588076  -39.514417478   -5.736570013
    0.475998887   -0.923997839   26.606423514  -49.855987388   -3.023610214
    0.666398442   -0.923997839   17.207696957  -46.299861462   -0.496245033
    0.856797996   -0.923997839   10.006395828  -26.921496700    1.792088980
    1.047197551   -0.923997839    7.724304292    4.161138624    3.688487819
    1.237597106   -0.923997839   11.777280836   37.883688136    5.015722354
    1.427996661   -0.923997839   21.670492342   63.944437769    5.722268186
    1.618396215   -0.923997839   35.180578898   75.092512572    5.950598585
    1.808795770   -0.923997839   49.197728700   69.419387882    5.986029032
    1.999195325   -0.923997839   60.744988993   49.967454601    6.106805293
    2.189594880   -0.923997839   67.734735600   22.654463104    6.438195221
    2.379994435   -0.923997839   69.298499174   -5.937215200    6.910087178
    2.570393989   -0.923997839   65.772639283  -29.948014002    7.317063066
    2.760793544   -0.923997839   58.469128051  -45.094213980    7.422003713
    2.951193099   -0.923997839   49.313749181  -49.294846981    7.050265766

   -3.141592654   -0.554398704   41.756469690  -46.920117411    3.470327308
   -2.951193099   -0.554398704   33.957554469  -34.251358028    0.939249139
   -2.760793544   -0.554398704   28.925061543  -18.683599964   -1.827473577
   -2.570393989   -0.554398704   26.715557400   -5.336253788   -4.617693731
   -2.379994435   -0.554398704   26.521282600    2.124478762   -7.390483997
   -2.189594880   -0.554398704   27.086294818    2.719816297  -10.287717974
   -1.999195325   -0.554398704   27.240616605   -1.668702163  -13.480230405
   -1.808795770   -0.554398704   26.368863593   -7.366545191  -16.923208195
   -1.618396215   -0.554398704   24.597380468  -10.549725532  -20.216480033
   -1.427996661   -0.554398704   22.672074395   -8.764178830  -22.681702715
   -1.237597106   -0.554398704   21.597550764   -1.747787188  -23.639515540
   -1.047197551   -0.554398704   22.222799425    8.587526104  -22.740448869
   -0.856797996   -0.554398704   24.883645703   18.995967992  -20.133952197
   -0.666398442   -0.554398704   29.243485152   25.822972771  -16.390448013
   -0.475998887   -0.554398704   34.316533797   26.037944462  -12.248594560
   -0.285599332   -0.554398704   38.654833317   18.048514963   -8.313069944
   -0.095199777   -0.554398704   40.705405206    2.282351888   -4.864849997
    0.095199777   -0.554398704   39.241520006  -18.073038029   -1.839844048
    0.285599332   -0.554398704   33.910948390  -37.175537280    1.049585242
    0.475998887   -0.554398704   25.643666149  -47.734530629    4.083308053
    0.666398442   -0.554398704   16.682645611  -43.763021571    7.309420450
    0.856797996   -0.554398704   10.022477089  -23.806748903   10.445288029
    1.047197551   -0.554398704    8.364155399    7.486971711   12.975670666
    1.237597106   -0.554398704   13.023504022   40.819670762   14.405722243
    1.427996661   -0.554398704   23.401576106   66.053972632   14.547202814
    1.618396215   -0.554398704   37.230421008   76.355914185   13.620915262
    1.808795770   -0.554398704   51.431810264   70.156743497   12.138831125
    1.999195325   -0.554398704   63.099044592   50.536492887   10.643950619
    2.189594880   -0.554398704   70.193823916   23.182078811    9.466621601
    2.379994435   -0.554398704   71.840548023   -5.648654651    8.630219331
    2.570393989   -0.554398704   68.315185442  -30.305370490    7.905979147
    2.760793544   -0.554398704   60.848275378  -46.504542147    6.959535483
    2.951193099   -0.554398704   51.306073895  -51.957698374    5.514518220

   -3.141592654   -0.184799568   42.475386869  -52.393755176    1.099794951
   -2.951193099   -0.184799568   33.560069474  -40.382393059   -1.836181896
   -2.760793544   -0.184799568   27.344408288  -24.879656305   -4.839215334
   -2.570393989   -0.184799568   23.981674322  -11.218938990   -7.677910395
   -2.379994435   -0.184799568   22.697859491   -3.471130055  -10.310554924
   -2.189594880   -0.184799568   22.203192885   -2.860443188  -12.887919602
   -1.999195325   -0.184799568   21.285978804   -7.310505523  -15.566042240
   -1.808795770   -0.184799568   19.369217512  -12.552028614  -18.248117703
   -1.618396215   -0.184799568   16.741997621  -14.125020219  -20.464802802
   -1.427996661   -0.184799568   14.396044664   -9.401492586  -21.513236722
   -1.237597106   -0.184799568   13.549607112    1.339720112  -20.801761601
   -1.047197551   -0.184799568   15.105364207   15.130738228  -18.205223671
   -0.856797996   -0.184799568   19.240700273   27.653336663  -14.178924364
   -0.666398442   -0.184799568   25.301720600   34.706876951   -9.564355737
   -0.475998887   -0.184799568   31.950748474   33.481835956   -5.222412349
   -0.285599332   -0.184799568   37.494991157   23.219829246   -1.662109411
   -0.095199777   -0.184799568   40.326829968    5.438215191    1.116881232
    0.095199777   -0.184799568   39.358238836  -15.793570142    3.548001080
    0.285599332   -0.184799568   34.492569951  -34.351648282    6.222660274
    0.475998887   -0.184799568   26.899376870  -43.393985389    9.533897991
    0.666398442   -0.184799568   18.917999407  -37.927007121   13.403060165
    0.856797996   -0.184799568   13.436366723  -17.520929490   17.243828741
    1.047197551   -0.184799568   12.895541789   12.661252880   20.204539174
    1.237597106   -0.184799568   18.328649280   43.621525405   21.569026159
    1.427996661   -0.184799568   28.977192903   66.118528297   21.108225575
    1.618396215   -0.184799568   42.599922271   74.288520603   19.153511943
    1.808795770   -0.184799568   56.292887221   67.085319651   16.400392266
    1.999195325   -0.184799568   67.364096559   47.487874279   13.571510651
    2.189594880   -0.184799568   73.924590344   20.649500415   11.133220049
    2.379994435   -0.184799568   75.132186074   -7.797091360    9.185951659
    2.570393989   -0.184799568   71.192127948  -32.624372202    7.521774283
    2.760793544   -0.184799568   63.214879167  -49.636873849    5.789221428
    2.951193099   -0.184799568   52.964468970  -56.296321375    3.685287642

   -3.141592654    0.184799568   42.523809191  -57.492353242   -1.382718772
   -2.951193099    0.184799568   32.589934181  -45.867683738   -3.778563264
   -2.760793544    0.184799568   25.335216680  -30.220359391   -6.009838005
   -2.570393989    0.184799568   20.996815839  -16.098790100   -7.988194908
   -2.379994435    0.184799568   18.826652821   -7.928347817   -9.772310537
   -2.189594880    0.184799568   17.509221503   -7.059010538  -11.534424155
   -1.999195325    0.184799568   15.823670642  -11.107998021  -13.376825795
   -1.808795770    0.184799568   13.276187976  -15.203343296  -15.129091951
   -1.618396215    0.184799568   10.347257783  -14.433702235  -16.296145866
   -1.427996661    0.184799568    8.251735800   -6.339743946  -16.245515631
   -1.237597106    0.184799568    8.329230652    7.903390123  -14.554107411
   -1.047197551    0.184799568   11.391176730   24.106766021  -11.313039748
   -0.856797996    0.184799568   17.308934316   37.032707299   -7.149632177
   -0.666398442    0.184799568   25.024735596   42.394781375   -2.942919836
   -0.475998887    0.184799568   32.866193186   38.204996594    0.586828025
   -0.285599332    0.184799568   39.020675743   25.025375921    3.222939480
   -0.095199777    0.184799568   42.015015890    5.631228272    5.308092584
    0.095199777    0.184799568   41.084388724  -15.256988901    7.538130902
    0.285599332    0.184799568   36.496393347  -31.756022666   10.569501672
    0.475998887    0.184799568   29.657401225  -38.082331779   14.628176716
    0.666398442    0.184799568   22.897302910  -30.665592701   19.302718679
    0.856797996    0.184799568   18.841569955  -10.188701373   23.652616115
    1.047197551    0.184799568   19.531735741   17.922743978   26.601880255
    1.237597106    0.184799568   25.646477559   45.383873213   27.414271906
    1.427996661    0.184799568   36.273398356   64.217847893   25.999055132
    1.618396215    0.184799568   49.258268935   69.730701393   22.876058894
    1.808795770    0.184799568   61.952471797   61.423965622   18.887115530
    1.999195325    0.184799568   71.953139087   42.094262402   14.831835684
    2.189594880    0.184799568   77.574873974   16.239034958   11.218943256
    2.379994435    0.184799568   78.038595014  -11.265917579    8.202554405
    2.570393989    0.184799568   73.484865177  -35.725513040    5.657786614
    2.760793544    0.184799568   64.893617094  -53.090660211    3.334943794
    2.951193099    0.184799568   53.910584342  -60.577211789    1.015645187

   -3.141592654    0.554398704   44.178932182  -60.242170867   -1.131772602
   -2.951193099    0.554398704   33.659261154  -49.220371790   -2.265739706
   -2.760793544    0.554398704   25.728587259  -33.902230200   -3.267113947
   -2.570393989    0.554398704   20.683551194  -19.784449090   -4.203586296
   -2.379994435    0.554398704   17.829468885  -11.397593681   -5.170006003
   -2.189594880    0.554398704   15.883792200  -10.154296506   -6.254675748
   -1.999195325    0.554398704   13.664199993  -13.548183371   -7.434749357
   -1.808795770    0.554398704   10.755687571  -16.442347040   -8.494758925
   -1.618396215    0.554398704    7.759928649  -13.794765331   -9.044569970
   -1.427996661    0.554398704    5.999525400   -3.443274826   -8.677876620
   -1.237597106    0.554398704    6.822650808   12.704370051   -7.197462637
   -1.047197551    0.554398704   10.893633378   29.658286715   -4.774007110
   -0.856797996    0.554398704   17.817819638   41.810633625   -1.887736855
   -0.666398442    0.554398704   26.272130984   45.247547159    0.919259857
   -0.475998887    0.554398704   34.451787933   38.980212886    3.322950423
   -0.285599332    0.554398704   40.626060138   24.696763426    5.404647464
   -0.095199777    0.554398704   43.587104700    5.919786861    7.593687782
    0.095199777    0.554398704   42.908907088  -12.664554536   10.450390596
    0.285599332    0.554398704   39.110727745  -26.018363725   14.332238319
    0.475998887    0.554398704   33.633819681  -29.720307981   19.120765201
    0.666398442    0.554398704   28.581241535  -21.478026235   24.130463441
    0.856797996    0.554398704   26.166770754   -2.538063392   28.295727604
    1.047197551    0.554398704   28.005502833   22.089874434   30.582008424
    1.237597106    0.554398704   34.509174799   45.299458050   30.416402107
    1.427996661    0.554398704   44.749767708   60.439167768   27.904335918
    1.618396215    0.554398704   56.774667544   63.709557536   23.718553452
    1.808795770    0.554398704   68.241450346   54.813314942   18.782917015
    1.999195325    0.554398704   77.033694718   36.182593226   13.931422165
    2.189594880    0.554398704   81.654207450   11.690746012    9.704905491
    2.379994435    0.554398704   81.390199828  -14.408086426    6.316731916
    2.570393989    0.554398704   76.341523860  -37.884063712    3.722709312
    2.760793544    0.554398704   67.380715549  -54.922459643    1.743792523
    2.951193099    0.554398704   56.028609045  -62.701265954    0.177276194

   -3.141592654    0.923997839   44.097291435  -61.386289669   -0.752267183
   -2.951193099    0.923997839   33.412752142  -49.789173108   -0.283964512
   -2.760793544    0.923997839   25.422976339  -33.960421199    0.311131928
   -2.570393989    0.923997839   20.403182313  -19.489660140    0.758647701
   -2.379994435    0.923997839   17.617684148  -11.017054713    0.881868911
   -2.189594880    0.923997839   15.729257906   -9.967646991    0.633958012
   -1.999195325    0.923997839   13.513379324  -13.697823912    0.108947765
   -1.808795770    0.923997839   10.550011698  -16.835248038   -0.498099379
   -1.618396215    0.923997839    7.476628352  -14.173448675   -0.948451691
   -1.427996661    0.923997839    5.663219458   -3.602684924   -1.028496805
   -1.237597106    0.923997839    6.476741587   12.726846637   -0.613445512
   -1.047197551    0.923997839   10.551348236   29.619150606    0.295599341
   -0.856797996    0.923997839   17.445135576   41.522663411    1.607110663
   -0.666398442    0.923997839   25.833190179   44.912644549    3.219542422
   -0.475998887    0.923997839   33.998815907   39.325554035    5.103482704
   -0.285599332    0.923997839   40.386727724   26.775607554    7.362634050
   -0.095199777    0.923997839   43.987903448   10.691661248   10.186590829
    0.095199777    0.923997839   44.511626536   -4.816263599   13.754251215
    0.285599332    0.923997839   42.466596388  -15.624045513   18.046771347
    0.475998887    0.923997839   39.098054361  -18.290208660   22.697659928
    0.666398442    0.923997839   36.150260252  -11.187908805   26.972935194
    0.856797996    0.923997839   35.410664402    4.439566752   29.961359011
    1.047197551    0.923997839   38.141786336   24.348934210   30.914352892
    1.237597106    0.923997839   44.603133481   42.688320930   29.560702656
    1.427996661    0.923997839   53.958474107   54.005878744   26.197088346
    1.618396215    0.923997839   64.530224596   55.185230870   21.521643850
    1.808795770    0.923997839   74.315198554   45.926645790   16.353387911
    1.999195325    0.923997839   81.485234110   28.180951813   11.386156073
    2.189594880    0.923997839   84.720151516    5.188632851    7.082091013
    2.379994435    0.923997839   83.371236312  -19.325130522    3.683839883
    2.570393989    0.923997839   77.520385083  -41.445353127    1.268465318
    2.760793544    0.923997839   67.983928037  -57.453893679   -0.191831913
    2.951193099    0.923997839   56.224676852  -64.470930263   -0.804689799

   -3.141592654    1.293596975   40.654028554  -59.974648655   -5.355626317
   -2.951193099    1.293596975   30.388128034  -46.919167285   -4.300611032
   -2.760793544    1.293596975   23.014010859  -30.525518473   -2.952172846
   -2.570393989    1.293596975   18.625506901  -16.430896390   -1.598618487
   -2.379994435    1.293596975   16.327855532   -9.036349790   -0.392769926
   -2.189594880    1.293596975   14.684609478   -9.396544287    0.656809801
   -1.999195325    1.293596975   12.439315305  -14.563181256    1.632106969
   -1.808795770    1.293596975    9.187352561  -18.963667804    2.597721679
   -1.618396215    1.293596975    5.614272391  -17.227026997    3.541514704
   -1.427996661    1.293596975    3.173081872   -7.039810593    4.393528770
   -1.237597106    1.293596975    3.356702426    9.679918349    5.102072851
   -1.047197551    1.293596975    6.961682227   27.877850233    5.702108600
   -0.856797996    1.293596975   13.717562964   41.930842694    6.341263502
   -0.666398442    1.293596975   22.434640574   48.007420437    7.242825746
   -0.475998887    1.293596975   31.455020901   45.185418719    8.635422420
   -0.285599332    1.293596975   39.193879196   35.004272736   10.702159502
   -0.095199777    1.293596975   44.529772525   20.536760366   13.514963047
    0.095199777    1.293596975   47.003056344    5.628897029   16.993299959
    0.285599332    1.293596975   46.909721833   -5.785403267   20.822872384
    0.475998887    1.293596975   45.252334244  -10.372368492   24.433451419
    0.666398442    1.293596975   43.531279585   -6.390276226   27.081510680
    0.856797996    1.293596975   43.345155091    5.391913583   28.076935717
    1.047197551    1.293596975   45.888518675   21.499621282   27.053713078
    1.237597106    1.293596975   51.504846426   36.842186237   24.141703192
    1.427996661    1.293596975   59.558580056   46.381119292   19.886096631
    1.618396215    1.293596975   68.604510937   46.941023057   14.992038210
    1.808795770    1.293596975   76.826960896   37.847038924   10.070401440
    1.999195325    1.293596975   82.507882921   20.659381006    5.518189800
    2.189594880    1.293596975   84.379139034   -1.579095993    1.559842189
    2.379994435    1.293596975   81.830065701  -25.114839804   -1.655673961
    2.570393989    1.293596975   74.997291720  -45.895098277   -4.003239156
    2.760793544    1.293596975   64.775358463  -60.127234077   -5.388363429
    2.951193099    1.293596975   52.700955248  -65.068907213   -5.800396658

   -3.141592654    1.663196111   35.173275870  -58.505154344  -13.741029759
   -2.951193099    1.663196111   25.341695628  -43.953860061  -12.714972694
   -2.760793544    1.663196111   18.606193374  -26.940942337  -10.921958924
   -2.570393989    1.663196111   14.893512030  -13.024871352   -8.610613684
   -2.379994435    1.663196111   13.188684288   -6.254505001   -5.961698168
   -2.189594880    1.663196111   12.009036209   -7.291592831   -3.078142581
   -1.999195325    1.663196111   10.111018367  -12.997093493   -0.046181454
   -1.808795770    1.663196111    7.115627093  -17.833115614    2.953509378
   -1.618396215    1.663196111    3.718244395  -16.517830416    5.622183808
   -1.427996661    1.663196111    1.377978376   -6.667944620    7.644869621
   -1.237597106    1.663196111    1.627033996   10.065404440    8.862628886
   -1.047197551    1.663196111    5.357019230   28.917304808    9.399729088
   -0.856797996    1.663196111   12.431046159   44.335368752    9.645699584
   -0.666398442    1.663196111   21.777218150   52.248086208   10.096289468
   -0.475998887    1.663196111   31.785195078   51.280320028   11.137585694
   -0.285599332    1.663196111   40.827476748   42.481719238   12.906010400
   -0.095199777    1.663196111   47.654361488   28.559002851   15.247497143
    0.095199777    1.663196111   51.622154173   13.107348230   17.783293860
    0.285599332    1.663196111   52.807928608   -0.030823465   19.986332512
    0.475998887    1.663196111   51.995117569   -7.411141856   21.291866709
    0.666398442    1.663196111   50.514381767   -6.875710383   21.234995254
    0.856797996    1.663196111   49.905562588    1.513906849   19.613635644
    1.047197551    1.663196111   51.448666066   15.063000706   16.590317481
    1.237597106    1.663196111   55.697281597   29.134553543   12.666572684
    1.427996661    1.663196111   62.260814315   38.590960920    8.457448129
    1.618396215    1.663196111   69.872536611   39.716376581    4.435578895
    1.808795770    1.663196111   76.780198274   31.227288892    0.787882602
    1.999195325    1.663196111   81.238231654   14.391862048   -2.533539170
    2.189594880    1.663196111   81.935740543   -7.626522281   -5.632533462
    2.379994435    1.663196111   78.272001157  -30.694609485   -8.506340198
    2.570393989    1.663196111   70.465959313  -50.415560287  -10.996985825
    2.760793544    1.663196111   59.538255477  -62.911530343  -12.844376043
    2.951193099    1.663196111   47.134933452  -65.688857406  -13.801607032

   -3.141592654    2.032795246   28.088979982  -58.846186630  -17.550818160
   -2.951193099    2.032795246   18.372945978  -42.421534699  -16.263917228
   -2.760793544    2.032795246   12.092231308  -23.762546507  -14.030373430
   -2.570393989    2.032795246    9.115612124   -8.530365150  -11.130643030
   -2.379994435    2.032795246    8.365976114   -0.769489528   -7.790817703
   -2.189594880    2.032795246    8.300116956   -1.135462832   -4.129550654
   -1.999195325    2.032795246    7.605474159   -6.605570895   -0.215078592
   -1.808795770    2.032795246    5.802770516  -11.817349600    3.789609028
   -1.618396215    2.032795246    3.462176664  -11.537850985    7.555847473
   -1.427996661    2.032795246    1.936739569   -3.126230817   10.670517631
   -1.237597106    2.032795246    2.729934122   12.301914559   12.831177112
   -1.047197551    2.032795246    6.814011871   30.535832576   14.027181769
   -0.856797996    2.032795246   14.211637886   46.259105596   14.557985367
   -0.666398442    2.032795246   24.012555321   55.168028549   14.871587561
   -0.475998887    2.032795246   34.685835564   55.301865259   15.319894042
   -0.285599332    2.032795246   44.560805554   47.060465557   15.982980159
   -0.095199777    2.032795246   52.235305209   32.692273925   16.625546408
    0.095199777    2.032795246   56.856144178   15.643678393   16.802595571
    0.285599332    2.032795246   58.294258771   -0.050504466   16.021320127
    0.475998887    2.032795246   57.191732328  -10.459730756   13.945654511
    0.666398442    2.032795246   54.853376379  -12.721618097   10.566996088
    0.856797996    2.032795246   52.935916056   -6.170228656    6.279045631
    1.047197551    2.032795246   52.952901016    6.976044418    1.774834034
    1.237597106    2.032795246   55.734649738   22.000134704   -2.195514432
    1.427996661    2.032795246   61.095762949   33.145191754   -5.158649328
    1.618396215    2.032795246   67.827683648   35.836073186   -7.100017146
    1.808795770    2.032795246   74.087623972   28.152948701   -8.411480073
    1.999195325    2.032795246   77.965396236   11.248364970   -9.635272273
    2.189594880    2.032795246   78.011211487  -11.360234273  -11.164607186
    2.379994435    2.032795246   73.578705150  -34.974582128  -13.068362237
    2.570393989    2.032795246   64.943812035  -54.719832969  -15.092733624
    2.760793544    2.032795246   53.252910913  -66.490666635  -16.791637757
    2.951193099    2.032795246   40.292773510  -67.851177987  -17.710879443

   -3.141592654    2.402394382   20.143612585  -60.100231837  -11.513863720
   -2.951193099    2.402394382   10.413686722  -41.293569719   -9.639439370
   -2.760793544    2.402394382    4.580874359  -20.228983840   -7.168087113
   -2.570393989    2.402394382    2.486990390   -2.858917081   -4.370459113
   -2.379994435    2.402394382    2.989063478    6.629090671   -1.380505533
   -2.189594880    2.402394382    4.459165755    7.512082607    1.853693083
   -1.999195325    2.402394382    5.484609559    2.697670369    5.464253754
   -1.808795770    2.402394382    5.456867947   -2.623377007    9.443972609
   -1.618396215    2.402394382    4.788137142   -3.314805470   13.504205662
   -1.427996661    2.402394382    4.677200020    3.410990367   17.123601250
   -1.237597106    2.402394382    6.528347731   16.865901199   19.770028824
   -1.047197551    2.402394382   11.309568105   33.361709952   21.160276344
   -0.856797996    2.402394382   19.125444786   47.924796812   21.366955393
   -0.666398442    2.402394382   29.179129570   56.215622339   20.718333209
   -0.475998887    2.402394382   40.010952558   55.894656942   19.575141320
   -0.285599332    2.402394382   49.932112692   46.841299695   18.124458410
   -0.095199777    2.402394382   57.429778523   30.908519584   16.300788895
    0.095199777    2.402394382   61.495056712   11.467683382   13.852748179
    0.285599332    2.402394382   61.870391904   -7.064101533   10.503445556
    0.475998887    2.402394382   59.180480879  -19.988307597    6.163059643
    0.666398442    2.402394382   54.878035266  -23.538804885    1.094813635
    0.856797996    2.402394382   50.922754145  -16.418830747   -4.062430612
    1.047197551    2.402394382   49.193277364   -0.841898612   -8.482120473
    1.237597106    2.402394382   50.813514250   17.710451102  -11.467159135
    1.427996661    2.402394382   55.694346263   32.271082527  -12.781284819
    1.618396215    2.402394382   62.493191734   37.149544059  -12.736404551
    1.808795770    2.402394382   69.072518788   29.905112212  -12.021607808
    1.999195325    2.402394382   73.198615753   11.906006787  -11.361923371
    2.189594880    2.402394382   73.193233914  -12.609005707  -11.208296775
    2.379994435    2.402394382   68.338232763  -38.081414764  -11.609048270
    2.570393989    2.402394382   58.988071343  -58.956955440  -12.269315832
    2.760793544    2.402394382   46.468174679  -70.766473656  -12.726540425
    2.951193099    2.402394382   32.780813968  -71.046527853  -12.553227188

   -3.141592654    2.771993518   16.262109467  -59.132597127    0.920329688
   -2.951193099    2.771993518    6.826339161  -39.222326254    3.334289330
   -2.760793544    2.771993518    1.475133668  -17.304596262    5.785542659
   -2.570393989    2.771993518    0.000000000    0.689426007    8.156367958
   -2.379994435    2.771993518    1.235327318   10.806175847   10.512507138
   -2.189594880    2.771993518    3.580102367   12.576737291   13.093826888
   -1.999195325    2.771993518    5.677468443    8.911987481   16.155660449
   -1.808795770    2.771993518    6.940872417    4.663589522   19.727947066
   -1.618396215    2.771993518    7.717451505    4.437240778   23.470387909
   -1.427996661    2.771993518    9.048870557   10.627107710   26.735208313
   -1.237597106    2.771993518   12.141748149   22.547386451   28.820387583
   -1.047197551    2.771993518   17.805945409   36.892686715   29.278605928
   -0.856797996    2.771993518   26.078176633   49.200834063   28.076395097
   -0.666398442    2.771993518   36.177166410   55.459953461   25.532450975
   -0.475998887    2.771993518   46.690885112   53.326184568   22.106559019
   -0.285599332    2.771993518   55.952246606   42.453810451   18.163389663
   -0.095199777    2.771993518   62.424500644   24.484140109   13.853038258
    0.095199777    2.771993518   65.057991996    2.851935735    9.141976936
    0.285599332    2.771993518   63.602833230  -17.576114862    3.961526974
    0.475998887    2.771993518   58.804214205  -31.400718789   -1.587796445
    0.666398442    2.771993518   52.367634081  -34.235846926   -7.095653667
    0.856797996    2.771993518   46.585252851  -24.633258001  -11.876783724
    1.047197551    2.771993518   43.633667742   -5.313518299  -15.204412275
    1.237597106    2.771993518   44.784263915   17.190634470  -16.622171722
    1.427996661    2.771993518   49.877327209   34.799936253  -16.177872268
    1.618396215    2.771993518   57.321515320   41.117411663  -14.387654675
    1.808795770    2.771993518   64.659689353   33.674727853  -11.990197635
    1.999195325    2.771993518   69.391251130   14.381711207   -9.629786746
    2.189594880    2.771993518   69.700629035  -11.766978931   -7.645805649
    2.379994435    2.771993518   64.870261821  -38.562024783   -6.047419273
    2.570393989    2.771993518   55.355178801  -60.072723864   -4.621421517
    2.760793544    2.771993518   42.625834244  -71.730773843   -3.092534758
    2.951193099    2.771993518   28.823845439  -71.208998994   -1.260470187
