#! FIELDS phi psi file.free der_phi der_psi
#! SET min_phi -pi
#! SET max_phi pi
#! SET nbins_phi  33
#! SET periodic_phi true
#! SET min_psi -pi
#! SET max_psi pi
#! SET nbins_psi  17
#! SET periodic_psi true
   -3.141592654   -3.141592654   19.420829346  -54.816140787   15.512560724
   -2.951193099   -3.141592654   10.759113588  -35.553858314   18.363888889
   -2.760793544   -3.141592654    6.000835156  -14.824735438   20.451942568
   -2.570393989   -3.141592654    4.873576829    1.891513990   21.872026870
   -2.379994435   -3.141592654    6.254325630   11.250387292   22.988653472
   -2.189594880   -3.141592654    8.687777526   13.236186969   24.333848897
   -1.999195325   -3.141592654   11.011330751   10.756853181   26.356133891
   -1.808795770   -3.141592654   12.783793459    8.177655820   29.141012457
   -1.618396215   -3.141592654   14.373284123    9.342823505   32.272395387
   -1.427996661   -3.141592654   16.699735050   15.966079198   34.943357768
   -1.237597106   -3.141592654   20.750809211   27.059759046   36.283369305
   -1.047197551   -3.141592654   27.103937036   39.459779845   35.733871651
   -0.856797996   -3.141592654   35.622149088   49.136169369   33.237839869
   -0.666398442   -3.141592654   45.435869924   52.515374785   29.158710216
   -0.475998887   -3.141592654   55.114547532   47.519304854   24.038014940
   -0.285599332   -3.141592654   63.009409545   33.940465021   18.330629617
   -0.095199777   -3.141592654   67.626371115   13.576559229   12.298016797
    0.095199777   -3.141592654   68.001776498   -9.824180709    6.067808079
    0.285599332   -3.141592654   64.047266001  -30.942957454   -0.206130672
    0.475998887   -3.141592654   56.756359652  -43.942184090   -6.194152476
    0.666398442   -3.141592654   48.145032237  -44.272364196  -11.353300962
    0.856797996   -3.141592654   40.806105916  -30.762547918  -15.064178085
    1.047197551   -3.141592654   37.119665322   -6.864300460  -16.877180428
    1.237597106   -3.141592654   38.393422914   19.902219319  -16.724429877
    1.427996661   -3.141592654   44.318531088   40.572758735  -14.967180317
    1.618396215   -3.141592654   53.022039880   48.292069451  -12.210626118
    1.808795770   -3.141592654   61.733888125   40.710344178   -9.031018341
    1.999195325   -3.141592654   67.710718702   20.332929127   -5.765529638
    2.189594880   -3.141592654   69.029226612   -7.092503915   -2.477379364
    2.379994435   -3.141592654   64.997762669  -34.747116327    0.925881961
    2.570393989   -3.141592654   56.180486306  -56.458596197    4.532396184
    2.760793544   -3.141592654   44.164805936  -67.813216149    8.307444607
    2.951193099   -3.141592654   31.150568196  -66.900680556   12.063896164

   -3.141592654   -2.771993518   28.453351710  -49.263853007   24.236391910
   -2.951193099   -2.771993518   20.622375478  -32.423139690   26.680612320
   -2.760793544   -2.771993518   16.239484649  -13.922563914   27.911590562
   -2.570393989   -2.771993518   15.135063596    1.416641480   28.205693280
   -2.379994435   -2.771993518   16.396629629   10.708436635   28.101988054
   -2.189594880   -2.771993518   18.827840105   13.946565283   28.238977924
   -1.999195325   -2.771993518   21.475341513   13.507955536   29.091104288
   -1.808795770   -2.771993518   23.961691770   12.812242667   30.732172527
   -1.618396215   -2.771993518   26.525641552   14.683672064   32.743508510
   -1.427996661   -2.771993518   29.793587577   20.196062919   34.332785617
   -1.237597106   -2.771993518   34.396248766   28.370533323   34.634949764
   -1.047197551   -2.771993518   40.618064308   36.660393350   33.062711208
   -0.856797996   -2.771993518   48.183232496   41.970513539   29.507824099
   -0.666398442   -2.771993518   56.258940949   41.605170067   24.310406589
   -0.475998887   -2.771993518   63.595129857   34.068047301   18.071706958
   -0.285599332   -2.771993518   68.800597931   19.398074210   11.399286863
   -0.095199777   -2.771993518   70.657589848   -0.639567427    4.770032045
    0.095199777   -2.771993518   68.455040249  -22.500028501   -1.482263290
    0.285599332   -2.771993518   62.310006496  -41.142150893   -7.077506448
    0.475998887   -2.771993518   53.365165899  -51.028730552  -11.701066274
    0.666398442   -2.771993518   43.725929031  -47.953497237  -14.995287292
    0.856797996   -2.771993518   36.003463810  -31.148779819  -16.663802134
    1.047197551   -2.771993518   32.515709124   -4.496007967  -16.617582565
    1.237597106   -2.771993518   34.434283798   24.160092984  -15.059484320
    1.427996661   -2.771993518   41.275572267   45.815170082  -12.422634877
    1.618396215   -2.771993518   51.016685107   53.895046149   -9.172225526
    1.808795770   -2.771993518   60.813663718   46.528594889   -5.619762338
    1.999195325   -2.771993518   67.937276809   26.624837239   -1.845531781
    2.189594880   -2.771993518   70.528921162    0.034530736    2.227688415
    2.379994435   -2.771993518   67.947319219  -26.660602060    6.673748555
    2.570393989   -2.771993518   60.739760191  -47.736888301   11.427250913
    2.760793544   -2.771993518   50.389286428  -59.209708917   16.223629627
    2.951193099   -2.771993518   38.926555132  -59.383675039   20.643117712

   -3.141592654   -2.402394382   37.690161474  -44.947213040   22.044666942
   -2.951193099   -2.402394382   30.456468285  -30.429597158   23.607319577
   -2.760793544   -2.402394382   26.274095517  -13.660250043   24.149575005
   -2.570393989   -2.402394382   25.136346406    0.999157662   24.005255893
   -2.379994435   -2.402394382   26.348468100   10.790999728   23.628027080
   -2.189594880   -2.402394382   28.915979526   15.389933835   23.444147116
   -1.999195325   -2.402394382   31.987434550   16.468170849   23.674736235
   -1.808795770   -2.402394382   35.130044372   16.553136318   24.230928200
   -1.618396215   -2.402394382   38.364119515   17.694200278   24.719416678
   -1.427996661   -2.402394382   41.990627909   20.665708875   24.568168718
   -1.237597106   -2.402394382   46.318655942   24.854780490   23.238457292
   -1.047197551   -2.402394382   51.440865391   28.656063138   20.444153657
   -0.856797996   -2.402394382   57.097975783   30.141391072   16.253096939
   -0.666398442   -2.402394382   62.676018678   27.527958320   11.039142630
   -0.475998887   -2.402394382   67.268260484   19.643137188    5.343518920
   -0.285599332   -2.402394382   69.827812762    6.267583151   -0.313350126
   -0.095199777   -2.402394382   69.393983911  -11.448694420   -5.525353439
    0.095199777   -2.402394382   65.390990696  -30.565917395  -10.024259656
    0.285599332   -2.402394382   57.975275244  -46.426693272  -13.623510977
    0.475998887   -2.402394382   48.279629733  -53.646923869  -16.166366900
    0.666398442   -2.402394382   38.380683786  -48.092702174  -17.515516439
    0.856797996   -2.402394382   30.841457886  -29.136550540  -17.609500945
    1.047197551   -2.402394382   27.899460721   -0.859289948  -16.522387352
    1.237597106   -2.402394382   30.613771259   28.787977435  -14.481901022
    1.427996661   -2.402394382   38.387641174   50.931854528  -11.789031058
    1.618396215   -2.402394382   49.132614673   59.330467586   -8.683334348
    1.808795770   -2.402394382   60.008494474   52.479136151   -5.267626297
    1.999195325   -2.402394382   68.343117358   33.444540581   -1.525437121
    2.189594880   -2.402394382   72.335635022    7.926149101    2.577818577
    2.379994435   -2.402394382   71.347138163  -17.895929096    6.981868078
    2.570393989   -2.402394382   65.843562438  -38.751362173   11.481875303
    2.760793544   -2.402394382   57.152112582  -50.949420107   15.741665871
    2.951193099   -2.402394382   47.118099406  -52.788055358   19.371932423

   -3.141592654   -2.032795246   43.232346679  -42.019429847   13.446304267
   -2.951193099   -2.032795246   36.404629179  -29.072995477   14.435536112
   -2.760793544   -2.032795246   32.355591502  -13.526337423   14.860831882
   -2.570393989   -2.032795246   31.172615858    0.489823193   14.882799766
   -2.379994435   -2.032795246   32.273673921   10.209833031   14.665186798
   -2.189594880   -2.032795246   34.747327033   14.986241366   14.330717416
   -1.999195325   -2.032795246   37.744199400   16.004635952   13.902556498
   -1.808795770   -2.032795246   40.740799262   15.346510955   13.292857204
   -1.618396215   -2.032795246   43.603293571   14.858995442   12.320180618
   -1.427996661   -2.032795246   46.475518642   15.497566439   10.766172907
   -1.237597106   -2.032795246   49.578275230   17.193943604    8.456265008
   -1.047197551   -2.032795246   53.041622931   19.057078202    5.351834448
   -0.856797996   -2.032795246   56.776491040   19.784099751    1.587878631
   -0.666398442   -2.032795246   60.422625651   17.838372566   -2.548547516
   -0.475998887   -2.032795246   63.330804729   11.805380634   -6.678393707
   -0.285599332   -2.032795246   64.626278756    0.874052589  -10.445008848
   -0.095199777   -2.032795246   63.396190232  -14.476884481  -13.584544956
    0.095199777   -2.032795246   59.001704559  -31.751168982  -15.982375753
    0.285599332   -2.032795246   51.485193309  -46.384962155  -17.639632518
    0.475998887   -2.032795246   41.878049239  -52.795754227  -18.603043879
    0.666398442   -2.032795246   32.205056590  -46.568700768  -18.891856412
    0.856797996   -2.032795246   25.021116773  -26.908400022  -18.483711489
    1.047197551   -2.032795246   22.572612243    2.099462953  -17.355134024
    1.237597106   -2.032795246   25.916505429   32.427698225  -15.544690018
    1.427996661   -2.032795246   34.442195546   55.175244873  -13.156112792
    1.618396215   -2.032795246   46.050288890   64.146413938  -10.313135876
    1.808795770   -2.032795246   57.900513225   57.893082523   -7.125973080
    1.999195325   -2.032795246   67.324410580   39.454906894   -3.694384491
    2.189594880   -2.032795246   72.510759233   14.410915172   -0.139978455
    2.379994435   -2.032795246   72.781536328  -11.220134149    3.371829064
    2.570393989   -2.032795246   68.534984385  -32.309590931    6.651105993
    2.760793544   -2.032795246   61.008720081  -45.246861456    9.511726259
    2.951193099   -2.032795246   51.951561715  -48.309420078   11.804992912

   -3.141592654   -1.663196111   41.414804564  -41.124245415   11.511686050
   -2.951193099   -1.663196111   34.819150931  -27.546693205   11.945305005
   -2.760793544   -1.663196111   31.104663236  -11.610079863   11.772041274
   -2.570393989   -1.663196111   30.282771062    2.253257708   11.043378612
   -2.379994435   -1.663196111   31.652481428   11.157001268    9.804137866
   -2.189594880   -1.663196111   34.180376781   14.521179993    8.085587475
   -1.999195325   -1.663196111   36.922830033   13.759988338    5.897849057
   -1.808795770   -1.663196111   39.315159974   11.264140459    3.265160304
   -1.618396215   -1.663196111   41.245205913    9.224948046    0.252562526
   -1.427996661   -1.663196111   42.943548800    8.922314221   -3.025509974
   -1.237597106   -1.663196111   44.771066616   10.528775602   -6.418302742
   -1.047197551   -1.663196111   47.028767870   13.204633564   -9.745348321
   -0.856797996   -1.663196111   49.787923518   15.480935630  -12.808676998
   -0.666398442   -1.663196111   52.796199960   15.472994889  -15.401972443
   -0.475998887   -1.663196111   55.440242066   11.353901651  -17.324715631
   -0.285599332   -1.663196111   56.804813617    1.974331616  -18.446142062
   -0.095199777   -1.663196111   55.884906243  -12.432987735  -18.751911960
    0.095199777   -1.663196111   51.914267839  -29.456071776  -18.384535931
    0.285599332   -1.663196111   44.807173143  -44.463940520  -17.588381933
    0.475998887   -1.663196111   35.498734262  -51.606958723  -16.603369077
    0.666398442   -1.663196111   25.983365625  -46.059605856  -15.557808225
    0.856797996   -1.663196111   18.863856217  -26.643149116  -14.436293553
    1.047197551   -1.663196111   16.491779013    2.734568462  -13.129390201
    1.237597106   -1.663196111   20.035866554   33.948353963  -11.535104115
    1.427996661   -1.663196111   28.955706012   57.785842674   -9.599416377
    1.618396215   -1.663196111   41.153966908   67.666720711   -7.313225687
    1.808795770   -1.663196111   53.723888654   61.823187219   -4.705178606
    1.999195325   -1.663196111   63.884855710   43.149512195   -1.850426723
    2.189594880   -1.663196111   69.706798964   17.305681828    1.113064835
    2.379994435   -1.663196111   70.428179546   -9.401645691    3.996933962
    2.570393989   -1.663196111   66.431879102  -31.452700656    6.610930892
    2.760793544   -1.663196111   59.011122904  -44.905676162    8.799374865
    2.951193099   -1.663196111   50.015417401  -47.912031939   10.454417953

   -3.141592654   -1.293596975   39.822248402  -41.470903723    9.833233660
   -2.951193099   -1.293596975   33.150774777  -28.005887981    9.578794819
   -2.760793544   -1.293596975   29.330437583  -12.301903356    8.913014568
   -2.570393989   -1.293596975   28.332699875    1.030225903    7.820443692
   -2.379994435   -1.293596975   29.388352428    9.013177622    6.199660468
   -2.189594880   -1.293596975   31.391736131   11.106208744    3.895093971
   -1.999195325   -1.293596975   33.350212690    8.945389829    0.771539922
   -1.808795770   -1.293596975   34.707657917    5.281742803   -3.158610686
   -1.618396215   -1.293596975   35.434195564    2.698802535   -7.658517118
   -1.427996661   -1.293596975   35.907520799    2.735633347  -12.278628259
   -1.237597106   -1.293596975   36.662163164    5.586743223  -16.470735830
   -1.047197551   -1.293596975   38.152770053   10.171242252  -19.743046770
   -0.856797996   -1.293596975   40.541794730   14.638824979  -21.787598822
   -0.666398442   -1.293596975   43.592342646   16.716128364  -22.525177354
   -0.475998887   -1.293596975   46.642451201   14.288264047  -22.065273993
   -0.285599332   -1.293596975   48.681820102    6.018594505  -20.649540939
   -0.095199777   -1.293596975   48.580127795   -8.020339268  -18.581353566
    0.095199777   -1.293596975   45.418525953  -25.512926095  -16.190596980
    0.285599332   -1.293596975   38.954570644  -41.757790094  -13.764901237
    0.475998887   -1.293596975   30.007454035  -50.542273686  -11.496612508
    0.666398442   -1.293596975   20.550078849  -46.436486657   -9.452915518
    0.856797996   -1.293596975   13.280741294  -27.678968913   -7.603149213
    1.047197551   -1.293596975   10.732631121    2.078353319   -5.882903463
    1.237597106   -1.293596975   14.261187930   34.536514540   -4.253363859
    1.427996661   -1.293596975   23.445817554   59.980560836   -2.676950689
    1.618396215   -1.293596975   36.202853484   71.254900076   -1.086845652
    1.808795770   -1.293596975   49.540638128   66.162488516    0.604716519
    1.999195325   -1.293596975   60.535463737   47.425332143    2.443905161
    2.189594880   -1.293596975   67.108623069   20.815640383    4.370182975
    2.379994435   -1.293596975   68.392167564   -7.042541579    6.220744611
    2.570393989   -1.293596975   64.732784916  -30.244134284    7.802059365
    2.760793544   -1.293596975   57.453866538  -44.559641169    8.964824105
    2.951193099   -1.293596975   48.471746604  -48.052826670    9.641095755

   -3.141592654   -0.923997839   40.620579620  -43.479326233    6.385581267
   -2.951193099   -0.923997839   33.547850959  -30.164453100    5.011992691
   -2.760793544   -0.923997839   29.316625702  -14.448984614    3.375395268
   -2.570393989   -0.923997839   27.904410574   -1.220345793    1.511853732
   -2.379994435   -0.923997839   28.493423896    6.283547747   -0.683038239
   -2.189594880   -0.923997839   29.893047412    7.413239467   -3.418208242
   -1.999195325   -0.923997839   31.028041978    3.965726836   -6.876508968
   -1.808795770   -0.923997839   31.316656743   -0.906145056  -11.023564077
   -1.618396215   -0.923997839   30.793201205   -4.102666490  -15.499275350
   -1.427996661   -0.923997839   29.989856423   -3.684202885  -19.658835650
   -1.237597106   -0.923997839   29.646265980    0.652693943  -22.772793344
   -1.047197551   -0.923997839   30.411425527    7.599932772  -24.292195927
   -0.856797996   -0.923997839   32.571723045   14.825797874  -24.036026589
   -0.666398442   -0.923997839   35.911045332   19.486884305  -22.214646743
   -0.475998887   -0.923997839   39.683787700   18.956368454  -19.300327469
   -0.285599332   -0.923997839   42.712168795   11.552916663  -15.835650952
   -0.095199777   -0.923997839   43.654960641   -2.775703688  -12.269047285
    0.095199777   -0.923997839   41.383855728  -21.533694314   -8.888849792
    0.285599332   -0.923997839   35.512098235  -39.541997512   -5.813063629
    0.475998887   -0.923997839   26.828690199  -49.902317492   -3.048611083
    0.666398442   -0.923997839   17.403589660  -46.577044516   -0.574371555
    0.856797996   -0.923997839   10.115140068  -27.583631877    1.585208656
    1.047197551   -0.923997839    7.673303954    3.170654836    3.342686096
    1.237597106   -0.923997839   11.529886903   36.873918090    4.595053756
    1.427996661   -0.923997839   21.263914110   63.341199858    5.342230024
    1.618396215   -0.923997839   34.724437335   75.193303435    5.735968373
    1.808795770   -0.923997839   48.829764020   70.203140060    6.024532860
    1.999195325   -0.923997839   60.568236628   51.116255217    6.416282589
    2.189594880   -0.923997839   67.777885479   23.740538955    6.959126480
    2.379994435   -0.923997839   69.517452496   -5.219932895    7.527139210
    2.570393989   -0.923997839   66.085836616  -29.678959105    7.903003049
    2.760793544   -0.923997839   58.799011376  -45.171820111    7.887333425
    2.951193099   -0.923997839   49.609702042  -49.556152674    7.377468063

   -3.141592654   -0.554398704   41.960223724  -47.503675578    3.717467625
   -2.951193099   -0.554398704   34.068275884  -34.656495799    1.078155171
   -2.760793544   -0.554398704   28.969893313  -19.010357957   -1.659955421
   -2.570393989   -0.554398704   26.693139180   -5.754472606   -4.329936175
   -2.379994435   -0.554398704   26.401971948    1.502147459   -6.965404814
   -2.189594880   -0.554398704   26.832001624    1.939417079   -9.780951779
   -1.999195325   -0.554398704   26.837996843   -2.407948383  -12.988286933
   -1.808795770   -0.554398704   25.851827476   -7.794944868  -16.542314525
   -1.618396215   -0.554398704   24.046781407  -10.456418584  -20.008606069
   -1.427996661   -0.554398704   22.193448798   -8.124059722  -22.656434446
   -1.237597106   -0.554398704   21.281484973   -0.730658108  -23.757282545
   -1.047197551   -0.554398704   22.114508030    9.695296911  -22.930731136
   -0.856797996   -0.554398704   24.973776707   19.927375515  -20.320776892
   -0.666398442   -0.554398704   29.482370787   26.432927855  -16.513435006
   -0.475998887   -0.554398704   34.639749899   26.313873454  -12.274869004
   -0.285599332   -0.554398704   39.004472895   18.056650934   -8.242743811
   -0.095199777   -0.554398704   41.038602163    2.102754263   -4.733137277
    0.095199777   -0.554398704   39.528023925  -18.386943218   -1.716913113
    0.285599332   -0.554398704   34.126154065  -37.627133532    1.068196982
    0.475998887   -0.554398704   25.756895991  -48.374927435    3.904163726
    0.666398442   -0.554398704   16.651539368  -44.657527082    6.879314968
    0.856797996   -0.554398704    9.798572030  -24.932925160    9.786071967
    1.047197551   -0.554398704    7.918721611    6.330159712   12.193943009
    1.237597106   -0.554398704   12.384300850   40.005982287   13.669940047
    1.427996661   -0.554398704   22.673215815   65.977043010   14.040313819
    1.618396215   -0.554398704   36.575356220   77.195667070   13.488446089
    1.808795770   -0.554398704   51.012569176   71.721355993   12.447432807
    1.999195325   -0.554398704   63.009106920   52.326144309   11.361533657
    2.189594880   -0.554398704   70.420453414   24.624898806   10.468197030
    2.379994435   -0.554398704   72.277985052   -4.920917299    9.730039874
    2.570393989   -0.554398704   68.818552860  -30.326776737    8.910324290
    2.760793544   -0.554398704   61.295001322  -47.031962671    7.725629234
    2.951193099   -0.554398704   51.632772771  -52.644049793    5.994214012

   -3.141592654   -0.184799568   42.634732509  -53.512051963    1.126859792
   -2.951193099   -0.184799568   33.550428787  -41.043488010   -2.033584737
   -2.760793544   -0.184799568   27.246704358  -25.196619105   -5.085884754
   -2.570393989   -0.184799568   23.835752171  -11.468899240   -7.836280912
   -2.379994435   -0.184799568   22.490936148   -3.907481564  -10.316916652
   -2.189594880   -0.184799568   21.889701256   -3.539912989  -12.758071317
   -1.999195325   -0.184799568   20.832072251   -8.064834328  -15.368780849
   -1.808795770   -0.184799568   18.789744796  -13.069820012  -18.065006944
   -1.618396215   -0.184799568   16.111479570  -14.108780532  -20.352740784
   -1.427996661   -0.184799568   13.831023885   -8.738805381  -21.482781229
   -1.237597106   -0.184799568   13.165244899    2.528411317  -20.818039929
   -1.047197551   -0.184799568   14.975129390   16.545580273  -18.209067344
   -0.856797996   -0.184799568   19.374832962   28.952594856  -14.116760881
   -0.666398442   -0.184799568   25.651726843   35.633408181   -9.411683517
   -0.475998887   -0.184799568   32.430977844   33.904766470   -4.993606029
   -0.285599332   -0.184799568   38.006071415   23.116901063   -1.408874205
   -0.095199777   -0.184799568   40.772374670    4.853875616    1.314314112
    0.095199777   -0.184799568   39.654096211  -16.773213356    3.592853948
    0.285599332   -0.184799568   34.573390433  -35.623511366    6.021531905
    0.475998887   -0.184799568   26.720018914  -44.845832326    9.029328081
    0.666398442   -0.184799568   18.455517655  -39.438569664   12.608576803
    0.856797996   -0.184799568   12.694815201  -18.916212184   16.265831402
    1.047197551   -0.184799568   11.921073692   11.658724466   19.231134200
    1.237597106   -0.184799568   17.229251007   43.365278331   20.824733558
    1.427996661   -0.184799568   27.925474057   66.899663592   20.790827862
    1.618396215   -0.184799568   41.801384632   76.131292840   19.379376765
    1.808795770   -0.184799568   55.920805355   69.619040580   17.174143462
    1.999195325   -0.184799568   67.488332448   50.034983611   14.785387992
    2.189594880   -0.184799568   74.477423098   22.493148943   12.591033070
    2.379994435   -0.184799568   75.931516816   -7.098405841   10.646395739
    2.570393989   -0.184799568   72.012761929  -33.069066348    8.754448158
    2.760793544   -0.184799568   63.871706896  -50.834476442    6.632265176
    2.951193099   -0.184799568   53.367116593  -57.685662972    4.087480607

   -3.141592654    0.184799568   42.583891681  -59.385522999   -1.463170419
   -2.951193099    0.184799568   32.362907025  -46.982631795   -4.108412766
   -2.760793544    0.184799568   24.966813633  -30.651752422   -6.416822137
   -2.570393989    0.184799568   20.584339201  -16.210333637   -8.326696383
   -2.379994435    0.184799568   18.392459598   -8.113921823   -9.958230829
   -2.189594880    0.184799568   17.016641702   -7.498544750  -11.556272531
   -1.999195325    0.184799568   15.229748436  -11.694530920  -13.279251553
   -1.808795770    0.184799568   12.582147383  -15.612874399  -14.980894797
   -1.618396215    0.184799568    9.621840748  -14.305577848  -16.156456417
   -1.427996661    0.184799568    7.619062273   -5.491832321  -16.141160452
   -1.237597106    0.184799568    7.922246489    9.380182458  -14.475515816
   -1.047197551    0.184799568   11.300438457   25.873207449  -11.230105390
   -0.856797996    0.184799568   17.547811316   38.643471311   -7.036037146
   -0.666398442    0.184799568   25.524802395   43.463954443   -2.794364869
   -0.475998887    0.184799568   33.498892318   38.497303121    0.747356032
   -0.285599332    0.184799568   39.629876341   24.482926071    3.349031527
   -0.095199777    0.184799568   42.448619266    4.344782071    5.338677532
    0.095199777    0.184799568   41.218381298  -17.085922556    7.406362200
    0.285599332    0.184799568   36.252029306  -33.865598637   10.218537922
    0.475998887    0.184799568   29.008134140  -40.188819021   14.038725031
    0.666398442    0.184799568   21.870336703  -32.493777399   18.522561151
    0.856797996    0.184799568   17.516214257  -11.459804128   22.811790155
    1.047197551    0.184799568   18.041287922   17.503343803   25.894254147
    1.237597106    0.184799568   24.180149089   46.088664761   27.046550102
    1.427996661    0.184799568   35.061051532   66.173301543   26.126918821
    1.618396215    0.184799568   48.526645563   72.754629065   23.556124333
    1.808795770    0.184799568   61.856712997   64.946125864   20.061263775
    1.999195325    0.184799568   72.510474423   45.278283972   16.344359047
    2.189594880    0.184799568   78.640288831   18.270735752   12.853966742
    2.379994435    0.184799568   79.341146580  -10.850222429    9.729340998
    2.570393989    0.184799568   74.714674834  -36.856150863    6.876530975
    2.760793544    0.184799568   65.802567032  -55.219108294    4.116882640
    2.951193099    0.184799568   54.381911732  -62.925940035    1.330870912

   -3.141592654    0.554398704   44.215432743  -63.053903690   -0.957776146
   -2.951193099    0.554398704   33.259138435  -50.970337338   -2.275160391
   -2.760793544    0.554398704   25.098732559  -34.624749291   -3.312869279
   -2.570393989    0.554398704   19.985144907  -19.871466192   -4.165902477
   -2.379994435    0.554398704   17.136856916  -11.335735464   -4.981215850
   -2.189594880    0.554398704   15.192021937  -10.236105644   -5.906635907
   -1.999195325    0.554398704   12.941934257  -13.759331411   -6.967460875
   -1.808795770    0.554398704   10.001910104  -16.509818224   -7.973779216
   -1.618396215    0.554398704    7.035534123  -13.369702109   -8.536699868
   -1.427996661    0.554398704    5.420190983   -2.341789175   -8.234271162
   -1.237597106    0.554398704    6.511793265   14.371756064   -6.846325721
   -1.047197551    0.554398704   10.925286220   31.498407266   -4.524580321
   -0.856797996    0.554398704   18.176766437   43.312689161   -1.737587399
   -0.666398442    0.554398704   26.851218429   45.993014848    0.980294945
   -0.475998887    0.554398704   35.083500810   38.766316030    3.312502810
   -0.285599332    0.554398704   41.127759699   23.560338090    5.345529114
   -0.095199777    0.554398704   43.801113781    4.068157902    7.507717213
    0.095199777    0.554398704   42.726414127  -14.933023538   10.349417282
    0.285599332    0.554398704   38.483480034  -28.376725059   14.217694546
    0.475998887    0.554398704   32.576247462  -31.837970598   18.999307022
    0.666398442    0.554398704   27.170058735  -23.035328652   24.038022772
    0.856797996    0.554398704   24.538093561   -3.228947078   28.314036130
    1.047197551    0.554398704   26.350424496   22.537670443   30.829490042
    1.237597106    0.554398704   33.063680290   47.063818676   31.012240679
    1.427996661    0.554398704   43.766249922   63.492194431   28.921742122
    1.618396215    0.554398704   56.470809592   67.699369786   25.150539719
    1.808795770    0.554398704   68.733320806   59.030014213   20.535452655
    1.999195325    0.554398704   78.277664595   39.701030299   15.844000388
    2.189594880    0.554398704   83.432302692   13.657776165   11.586569385
    2.379994435    0.554398704   83.355174790  -14.450326629    7.985942466
    2.570393989    0.554398704   78.113125386  -39.809404726    5.041740173
    2.760793544    0.554398704   68.657018403  -58.063333057    2.643856419
    2.951193099    0.554398704   56.667258270  -66.108536039    0.670901887

   -3.141592654    0.923997839   44.092813317  -64.608170157   -0.108815595
   -2.951193099    0.923997839   32.917948562  -51.690752909    0.335305639
   -2.760793544    0.923997839   24.693651993  -34.587291004    0.947203677
   -2.570393989    0.923997839   19.642604298  -19.291159362    1.447299087
   -2.379994435    0.923997839   16.928467332  -10.565997608    1.653678251
   -2.189594880    0.923997839   15.117281064   -9.650824862    1.507457233
   -1.999195325    0.923997839   12.940566026  -13.588801473    1.080336640
   -1.808795770    0.923997839    9.993142500  -16.733497716    0.537003768
   -1.618396215    0.923997839    6.962648670  -13.782348142    0.085825661
   -1.427996661    0.923997839    5.266204356   -2.763816000   -0.080231600
   -1.237597106    0.923997839    6.276684816   13.910150104    0.163655708
   -1.047197551    0.923997839   10.584201774   30.804122461    0.838706517
   -0.856797996    0.923997839   17.671880559   42.298331353    1.896358907
   -0.666398442    0.923997839   26.145815257   44.998463823    3.290690323
   -0.475998887    0.923997839   34.256121386   38.657477801    5.045340452
   -0.285599332    0.923997839   40.455114314   25.483602219    7.296800227
   -0.095199777    0.923997839   43.768935983    8.993332849   10.234234239
    0.095199777    0.923997839   43.949823916   -6.690455508   14.002207314
    0.285599332    0.923997839   41.549824491  -17.450256459   18.530157709
    0.475998887    0.923997839   37.858427405  -19.820784215   23.408125311
    0.666398442    0.923997839   34.671126266  -12.134357119   27.884497199
    0.856797996    0.923997839   33.833079205    4.391488134   31.056680115
    1.047197551    0.923997839   36.664004143   25.478522991   32.192901492
    1.237597106    0.923997839   43.466384889   45.142287016   31.024745884
    1.427996661    0.923997839   53.409808192   57.678395246   27.827529281
    1.618396215    0.923997839   64.764569970   59.624087407   23.260773802
    1.808795770    0.923997839   75.407610948   50.337014923   18.107894075
    1.999195325    0.923997839   83.338684308   31.595474735   13.049975313
    2.189594880    0.923997839   87.060157466    6.765732053    8.566993046
    2.379994435    0.923997839   85.801091412  -19.982756925    4.942991183
    2.570393989    0.923997839   79.625912621  -44.111735972    2.302884213
    2.760793544    0.923997839   69.450776430  -61.338250748    0.655773545
    2.951193099    0.923997839   56.921918266  -68.502216349   -0.087681717

   -3.141592654    1.293596975   40.655798957  -62.851053696   -4.490586415
   -2.951193099    1.293596975   29.965697938  -48.483959878   -3.290325805
   -2.760793544    1.293596975   22.415547242  -30.878948630   -1.856568213
   -2.570393989    1.293596975   18.040762867  -16.030967912   -0.465065943
   -2.379994435    1.293596975   15.847019191   -8.441664505    0.769208070
   -2.189594880    1.293596975   14.303212919   -8.992340914    1.872304542
   -1.999195325    1.293596975   12.106014331  -14.455866164    2.932181689
   -1.808795770    1.293596975    8.856062466  -19.018998235    3.983085425
   -1.618396215    1.293596975    5.275560233  -17.218495601    4.959978073
   -1.427996661    1.293596975    2.854143831   -6.839946635    5.742754937
   -1.237597106    1.293596975    3.091476485   10.011980125    6.262101059
   -1.047197551    1.293596975    6.757152918   28.134204351    6.580330944
   -0.856797996    1.293596975   13.538642941   41.905329397    6.914773495
   -0.666398442    1.293596975   22.218573032   47.635537689    7.579433664
   -0.475998887    1.293596975   31.142133979   44.555398539    8.882212974
   -0.285599332    1.293596975   38.749826414   34.273163744   11.044813088
   -0.095199777    1.293596975   43.946780164   19.806614349   14.122222285
    0.095199777    1.293596975   46.283388433    4.910754191   17.968020012
    0.285599332    1.293596975   46.053246447   -6.514538463   22.179139887
    0.475998887    1.293596975   44.260068250  -11.059333453   26.106282373
    0.666398442    1.293596975   42.427651863   -6.840222096   28.959696019
    0.856797996    1.293596975   42.204650404    5.503824273   30.041804002
    1.047197551    1.293596975   44.852295290   22.532669913   29.005309829
    1.237597106    1.293596975   50.774784270   39.041378338   26.005004299
    1.427996661    1.293596975   59.359223551   49.713723574   21.602587003
    1.618396215    1.293596975   69.118368408   50.988200179   16.508444221
    1.808795770    1.293596975   78.120314898   41.823194650   11.339038706
    1.999195325    1.293596975   84.477004453   23.616786873    6.512604160
    2.189594880    1.293596975   86.749564578   -0.428533411    2.296800584
    2.379994435    1.293596975   84.218428380  -26.086146844   -1.103743783
    2.570393989    1.293596975   77.018564599  -48.686938594   -3.519609395
    2.760793544    1.293596975   66.154563269  -63.922363410   -4.847713464
    2.951193099    1.293596975   53.345092110  -68.838026497   -5.111796193

   -3.141592654    1.663196111   35.266679465  -60.559565467  -12.986891383
   -2.951193099    1.663196111   25.147187808  -44.929881415  -11.709907563
   -2.760793544    1.663196111   18.319525143  -26.999908788   -9.803125802
   -2.570393989    1.663196111   14.652395376  -12.567055293   -7.490247517
   -2.379994435    1.663196111   13.049361853   -5.719037196   -4.886875274
   -2.189594880    1.663196111   11.955180972   -6.963144247   -2.030739022
   -1.999195325    1.663196111   10.092045521  -12.955843606    1.019781100
   -1.808795770    1.663196111    7.083307687  -17.998193239    4.061667522
   -1.618396215    1.663196111    3.646600645  -16.750926943    6.740925026
   -1.427996661    1.663196111    1.262811730   -6.895633083    8.688169601
   -1.237597106    1.663196111    1.468225987    9.815348266    9.729402848
   -1.047197551    1.663196111    5.143068729   28.567648972   10.027822352
   -0.856797996    1.663196111   12.139985917   43.871677490   10.056953740
   -0.666398442    1.663196111   21.396243122   51.786066897   10.408438779
   -0.475998887    1.663196111   31.331926379   51.004919708   11.534355140
   -0.285599332    1.663196111   40.351535315   42.519629426   13.578255411
   -0.095199777    1.663196111   47.213988724   28.859265548   16.329358823
    0.095199777    1.663196111   51.248505026   13.455375858   19.309934883
    0.285599332    1.663196111   52.485439999    0.114588102   21.888087426
    0.475998887    1.663196111   51.671269051   -7.579914715   23.421034482
    0.666398442    1.663196111   50.137709561   -7.229893392   23.409743578
    0.856797996    1.663196111   49.471731323    1.329369634   21.661075303
    1.047197551    1.663196111   51.032719243   15.503208634   18.375134190
    1.237597106    1.663196111   55.455467936   30.557522322   14.101797609
    1.427996661    1.663196111   62.391981899   41.054680570    9.501286573
    1.618396215    1.663196111   70.547860623   42.864797638    5.080966843
    1.808795770    1.663196111   78.065666379   34.334303916    1.057287996
    1.999195325    1.663196111   83.043761410   16.601290174   -2.583323473
    2.189594880    1.663196111   84.021876890   -6.972041938   -5.899565821
    2.379994435    1.663196111   80.316135667  -31.780870188   -8.840857920
    2.570393989    1.663196111   72.162750256  -52.884460228  -11.221596045
    2.760793544    1.663196111   60.691671412  -66.014676182  -12.799373859
    2.951193099    1.663196111   47.705824059  -68.584253400  -13.397051032

   -3.141592654    2.032795246   28.346173361  -60.191866098  -17.326411457
   -2.951193099    2.032795246   18.448352118  -43.005461702  -15.705128599
   -2.760793544    2.032795246   12.117791277  -23.758581430  -13.312295579
   -2.570393989    2.032795246    9.175237366   -8.231094284  -10.405645692
   -2.379994435    2.032795246    8.488797805   -0.455826129   -7.140472981
   -2.189594880    2.032795246    8.470325098   -0.972530918   -3.558427773
   -1.999195325    2.032795246    7.787440805   -6.646060203    0.316277686
   -1.808795770    2.032795246    5.959647653  -12.038830036    4.319554599
   -1.618396215    2.032795246    3.564387445  -11.891662541    8.091792114
   -1.427996661    2.032795246    1.962134354   -3.585212998   11.188120381
   -1.237597106    2.032795246    2.659536746   11.749326390   13.303591809
   -1.047197551    2.032795246    6.633515180   29.937620765   14.461302831
   -0.856797996    2.032795246   13.924502566   45.761072358   15.017448410
   -0.666398442    2.032795246   23.659445082   55.005919578   15.469223552
   -0.475998887    2.032795246   34.351787964   55.679980423   16.179996213
   -0.285599332    2.032795246   44.354874777   48.002464590   17.191928370
   -0.095199777    2.032795246   52.245864037   33.951137075   18.194203039
    0.095199777    2.032795246   57.103323441   16.782154351   18.658426170
    0.285599332    2.032795246   58.712046262    0.535726779   18.031227578
    0.475998887    2.032795246   57.650714035  -10.628518388   15.953483143
    0.666398442    2.032795246   55.217549797  -13.505956194   12.428065484
    0.856797996    2.032795246   53.126990689   -7.121399585    7.879723157
    1.047197551    2.032795246   52.994984148    6.454103045    3.035567177
    1.237597106    2.032795246   55.760677897   22.409611407   -1.327025090
    1.427996661    2.032795246   61.306243407   34.656612162   -4.715856744
    1.618396215    2.032795246   68.412845300   38.165133098   -7.102001770
    1.808795770    2.032795246   75.143286999   30.619420565   -8.853788564
    1.999195325    2.032795246   79.439969053   13.045793507  -10.468814629
    2.189594880    2.032795246   79.714754602  -10.823834431  -12.272761618
    2.379994435    2.032795246   75.250573929  -35.826781785  -14.262791727
    2.570393989    2.032795246   66.346951868  -56.604451102  -16.144068388
    2.760793544    2.032795246   54.249761222  -68.763746334  -17.492380782
    2.951193099    2.032795246   40.873239256  -69.867652023  -17.943857514

   -3.141592654    2.402394382   20.377731065  -60.806649233  -11.360924769
   -2.951193099    2.402394382   10.559934216  -41.542734054   -9.218603845
   -2.760793544    2.402394382    4.710494056  -20.200923287   -6.656334195
   -2.570393989    2.402394382    2.633297187   -2.743453678   -3.917529341
   -2.379994435    2.402394382    3.155658179    6.699704296   -1.066907194
   -2.189594880    2.402394382    4.631153529    7.490408845    2.025145139
   -1.999195325    2.402394382    5.643072065    2.576684564    5.544894528
   -1.808795770    2.402394382    5.583669643   -2.840852803    9.505707345
   -1.618396215    2.402394382    4.865914716   -3.621428362   13.614533501
   -1.427996661    2.402394382    4.690031976    3.030849858   17.337345753
   -1.237597106    2.402394382    6.466088912   16.461877160   20.137826551
   -1.047197551    2.402394382   11.177808676   33.054357758   21.738368950
   -0.856797996    2.402394382   18.960937268   47.918600649   22.217322775
   -0.666398442    2.402394382   29.061387678   56.738040387   21.891665278
   -0.475998887    2.402394382   40.053674032   57.050209168   21.082852547
   -0.285599332    2.402394382   50.246483527   48.481911343   19.917481481
   -0.095199777    2.402394382   58.071322418   32.602992785   18.270413177
    0.095199777    2.402394382   62.420487145   12.654215246   15.857971090
    0.285599332    2.402394382   62.936091949   -6.838720996   12.412430190
    0.475998887    2.402394382   60.185596764  -20.844987332    7.884510791
    0.666398442    2.402394382   55.637233353  -25.196259338    2.584709717
    0.856797996    2.402394382   51.336682909  -18.283675094   -2.819506035
    1.047197551    2.402394382   49.289300255   -2.212606293   -7.501755776
    1.237597106    2.402394382   50.742368359   17.384780837  -10.784916145
    1.427996661    2.402394382   55.678730164   33.159992589  -12.451825019
    1.618396215    2.402394382   62.742869965   38.949458572  -12.814251509
    1.808795770    2.402394382   69.700303940   31.934069153  -12.528257577
    1.999195325    2.402394382   74.173839339   13.403146783  -12.253518028
    2.189594880    2.402394382   74.359970395  -12.148538503  -12.358026364
    2.379994435    2.402394382   69.487082851  -38.701644247  -12.818559551
    2.570393989    2.402394382   59.943525124  -60.288225631  -13.313076540
    2.760793544    2.402394382   47.146426544  -72.262599488  -13.417837314
    2.951193099    2.402394382   33.197251530  -72.251942358  -12.804497637

   -3.141592654    2.771993518   16.286216432  -59.472624152    1.544379684
   -2.951193099    2.771993518    6.817486180  -39.269777512    4.143044871
   -2.760793544    2.771993518    1.470358457  -17.258563353    6.617429308
   -2.570393989    2.771993518    0.000000000    0.669445072    8.882643015
   -2.379994435    2.771993518    1.220199119   10.652183638   11.069850948
   -2.189594880    2.771993518    3.525248127   12.318249711   13.491343474
   -1.999195325    2.771993518    5.569242604    8.621136854   16.457625902
   -1.808795770    2.771993518    6.781105635    4.418479149   20.028758334
   -1.618396215    2.771993518    7.522200954    4.308689817   23.872458179
   -1.427996661    2.771993518    8.845924550   10.674728442   27.333280032
   -1.237597106    2.771993518   11.969895974   22.828123305   29.692897701
   -1.047197551    2.771993518   17.716311416   37.481190094   30.479470628
   -0.856797996    2.771993518   26.138040083   50.188936911   29.623993950
   -0.666398442    2.771993518   36.468865296   56.898971142   27.394210382
   -0.475998887    2.771993518   47.293942166   55.116651134   24.189574945
   -0.285599332    2.771993518   56.906935197   44.278439291   20.324319637
   -0.095199777    2.771993518   63.692317955   25.848147030   15.932801495
    0.095199777    2.771993518   66.503237925    3.276862306   11.015986628
    0.285599332    2.771993518   65.018114553  -18.336799777    5.580629171
    0.475998887    2.771993518   59.969933557  -33.216991484   -0.191868168
    0.666398442    2.771993518   53.123353891  -36.634891821   -5.844327932
    0.856797996    2.771993518   46.881633426  -26.956145950  -10.701920281
    1.047197551    2.771993518   43.547925667   -6.920275847  -14.095782939
    1.237597106    2.771993518   44.497184546   16.718519577  -15.640874696
    1.427996661    2.771993518   49.615974610   35.505701222  -15.430463404
    1.618396215    2.771993518   57.281735223   42.639660107  -13.977789966
    1.808795770    2.771993518   64.937728761   35.361001590  -11.967712536
    1.999195325    2.771993518   69.952446400   15.566869658   -9.957493705
    2.189594880    2.771993518   70.405749759  -11.475561367   -8.194995757
    2.379994435    2.771993518   65.545371362  -39.132881192   -6.625306530
    2.570393989    2.771993518   55.868050173  -61.132669381   -5.024775217
    2.760793544    2.771993518   42.929167501  -72.805935346   -3.169507304
    2.951193099    2.771993518   28.950604235  -71.961557912   -0.958459773
