#! FIELDS phi psi file.free der_phi der_psi
#! SET min_phi -pi
#! SET max_phi pi
#! SET nbins_phi  33
#! SET periodic_phi true
#! SET min_psi -pi
#! SET max_psi pi
#! SET nbins_psi  17
#! SET periodic_psi true
   -3.141592654   -3.141592654   19.477729402  -55.035386009   14.519715958
   -2.951193099   -3.141592654   10.774755839  -35.732230386   17.384099891
   -2.760793544   -3.141592654    5.998188413  -14.810449733   19.590302951
   -2.570393989   -3.141592654    4.898044327    2.169368744   21.192891788
   -2.379994435   -3.141592654    6.355025201   11.773405130   22.501566721
   -2.189594880   -3.141592654    8.903125790   13.900714274   23.992012748
   -1.999195325   -3.141592654   11.355043345   11.416801925   26.068691618
   -1.808795770   -3.141592654   13.239623754    8.677464769   28.790635111
   -1.618396215   -3.141592654   14.896623146    9.542000745   31.736146221
   -1.427996661   -3.141592654   17.223554440   15.766392973   34.116969481
   -1.237597106   -3.141592654   21.193745710   26.413732499   35.103689192
   -1.047197551   -3.141592654   27.379848150   38.361210183   34.196924911
   -0.856797996   -3.141592654   35.647821648   47.623719690   31.407883247
   -0.666398442   -3.141592654   45.142084895   50.707676725   27.165342408
   -0.475998887   -3.141592654   54.466383262   45.662051503   22.056114259
   -0.285599332   -3.141592654   62.030000792   32.388793859   16.541537984
   -0.095199777   -3.141592654   66.409643756   12.698936607   10.839289358
    0.095199777   -3.141592654   66.700421944   -9.813774425    4.987858237
    0.285599332   -3.141592654   62.830808973  -30.082922632   -0.964923598
    0.475998887   -3.141592654   55.762623472  -42.515829450   -6.770088269
    0.666398442   -3.141592654   47.445162389  -42.670013994  -11.906605143
    0.856797996   -3.141592654   40.398263081  -29.337876259  -15.710318639
    1.047197551   -3.141592654   36.945552350   -5.853349571  -17.645275104
    1.237597106   -3.141592654   38.363218648   20.403570634  -17.557826920
    1.427996661   -3.141592654   44.337265379   40.612250392  -15.761967152
    1.618396215   -3.141592654   53.016495679   48.042791651  -12.869838369
    1.808795770   -3.141592654   61.672918026   40.429036463   -9.510781979
    1.999195325   -3.141592654   67.611448601   20.245492058   -6.095284610
    2.189594880   -3.141592654   68.939741825   -6.901842129   -2.749162088
    2.379994435   -3.141592654   64.963999595  -34.377739547    0.592715248
    2.570393989   -3.141592654   56.217406994  -56.115345429    4.036071198
    2.760793544   -3.141592654   44.249574786  -67.666342816    7.601122901
    2.951193099   -3.141592654   31.239592219  -66.987112926   11.172005406

   -3.141592654   -2.771993518   28.117088046  -49.285241303   23.372478177
   -2.951193099   -2.771993518   20.298730902  -32.242747200   25.895997775
   -2.760793544   -2.771993518   15.975505357  -13.464998131   27.269205612
   -2.570393989   -2.771993518   14.982486573    2.119453673   27.727920379
   -2.379994435   -2.771993518   16.390965385   11.531867300   27.766739792
   -2.189594880   -2.771993518   18.975170526   14.701140058   27.981410469
   -1.999195325   -2.771993518   21.743470653   13.993300930   28.813483926
   -1.808795770   -2.771993518   24.282160191   12.860169525   30.318501701
   -1.618396215   -2.771993518   26.804089874   14.195185966   32.079262718
   -1.427996661   -2.771993518   29.926530889   19.171015552   33.331427333
   -1.237597106   -2.771993518   34.289547826   26.909579204   33.264952846
   -1.047197551   -2.771993518   40.204052669   34.931975510   31.366440338
   -0.856797996   -2.771993518   47.430008047   40.176744081   27.604669436
   -0.666398442   -2.771993518   55.174955170   39.969681371   22.380171705
   -0.475998887   -2.771993518   62.233715541   32.836769514   16.317351524
   -0.285599332   -2.771993518   67.261308823   18.800588727    9.995579697
   -0.095199777   -2.771993518   69.075979368   -0.467939033    3.812637169
    0.095199777   -2.771993518   66.975826412  -21.618306409   -2.009666137
    0.285599332   -2.771993518   61.046427932  -39.806194422   -7.298444662
    0.475998887   -2.771993518   52.369438181  -49.604163094  -11.800161787
    0.666398442   -2.771993518   42.983465893  -46.750351976  -15.148624006
    0.856797996   -2.771993518   35.454381776  -30.322783142  -16.975194095
    1.047197551   -2.771993518   32.085787953   -4.054992529  -17.091730294
    1.237597106   -2.771993518   34.056854705   24.290049918  -15.621123671
    1.427996661   -2.771993518   40.900999295   45.740603280  -12.967888845
    1.618396215   -2.771993518   50.617271340   53.736379894   -9.624908605
    1.808795770   -2.771993518   60.386191593   46.419420724   -5.966522487
    1.999195325   -2.771993518   67.501596260   26.661410568   -2.137606099
    2.189594880   -2.771993518   70.115164290    0.221929516    1.901968831
    2.379994435   -2.771993518   67.575850224  -26.420997234    6.229994452
    2.570393989   -2.771993518   60.407488145  -47.577068791   10.819987715
    2.760793544   -2.771993518   50.073143817  -59.193331570   15.462369744
    2.951193099   -2.771993518   38.602409452  -59.456711157   19.787107023

   -3.141592654   -2.402394382   36.982076461  -44.550057010   21.547586037
   -2.951193099   -2.402394382   29.850677102  -29.745674292   23.222182398
   -2.760793544   -2.402394382   25.822820253  -12.728061287   23.893623287
   -2.570393989   -2.402394382   24.876406218    2.055336960   23.863210805
   -2.379994435   -2.402394382   26.285988011   11.784593981   23.559481603
   -2.189594880   -2.402394382   29.018911584   16.102580675   23.388628374
   -1.999195325   -2.402394382   32.182719288   16.700278009   23.558485770
   -1.808795770   -2.402394382   35.311671464   16.168694895   23.975671322
   -1.618396215   -2.402394382   38.409925707   16.666969051   24.255562432
   -1.427996661   -2.402394382   41.786970138   19.108353381   23.854285183
   -1.237597106   -2.402394382   45.785584095   23.006217879   22.281392292
   -1.047197551   -2.402394382   50.551173973   26.815515810   19.309540337
   -0.856797996   -2.402394382   55.881064911   28.592921276   15.060542424
   -0.666398442   -2.402394382   61.209699768   26.492959206    9.939650290
   -0.475998887   -2.402394382   65.665323790   19.265820897    4.482476369
   -0.285599332   -2.402394382   68.219648112    6.594963954   -0.837638332
   -0.095199777   -2.402394382   67.909007102  -10.499221544   -5.693807072
    0.095199777   -2.402394382   64.127319391  -29.237057009   -9.907066850
    0.285599332   -2.402394382   56.973106041  -45.058596775  -13.357078307
    0.475998887   -2.402394382   47.514695938  -52.557231014  -15.902606863
    0.666398442   -2.402394382   37.782530014  -47.429851692  -17.364304352
    0.856797996   -2.402394382   30.330553695  -28.852585677  -17.600060313
    1.047197551   -2.402394382   27.417792530   -0.803289017  -16.604417899
    1.237597106   -2.402394382   30.131376037   28.741188458  -14.564311896
    1.427996661   -2.402394382   37.889806981   50.822167355  -11.794919605
    1.618396215   -2.402394382   48.606165735   59.142169980   -8.594033054
    1.808795770   -2.402394382   59.438231802   52.216884556   -5.133471513
    1.999195325   -2.402394382   67.718877161   33.153504151   -1.440936334
    2.189594880   -2.402394382   71.657722950    7.664966243    2.519814554
    2.379994435   -2.402394382   70.624529190  -18.094941369    6.732855664
    2.570393989   -2.402394382   65.089228367  -38.875080012   11.056300367
    2.760793544   -2.402394382   56.382682661  -50.967339292   15.205915135
    2.951193099   -2.402394382   46.359351299  -52.636291158   18.815220861

   -3.141592654   -2.032795246   42.613832570  -41.524376549   13.588382184
   -2.951193099   -2.032795246   35.907069585  -28.299394862   14.593766357
   -2.760793544   -2.032795246   32.025687530  -12.550300207   15.022575753
   -2.570393989   -2.032795246   31.036451316    1.527015660   15.031082574
   -2.379994435   -2.032795246   32.324727658   11.115086495   14.788265876
   -2.189594880   -2.032795246   34.940249118   15.541069753   14.421706568
   -1.999195325   -2.032795246   37.993221364   16.017075470   13.954971143
   -1.808795770   -2.032795246   40.930183204   14.704701152   13.295906695
   -1.618396215   -2.032795246   43.608234081   13.588661612   12.259797744
   -1.427996661   -2.032795246   46.192123372   13.789575057   10.633430360
   -1.237597106   -2.032795246   48.952331852   15.370728167    8.261304726
   -1.047197551   -2.032795246   52.085320336   17.471760684    5.132206562
   -0.856797996   -2.032795246   55.563293801   18.711290105    1.407846089
   -0.666398442   -2.032795246   59.065473027   17.415726885   -2.612184790
   -0.475998887   -2.032795246   61.955760424   12.036982018   -6.561603114
   -0.285599332   -2.032795246   63.349446057    1.656002162  -10.123430699
   -0.095199777   -2.032795246   62.304878232  -13.340652486  -13.089009507
    0.095199777   -2.032795246   58.138240465  -30.538382724  -15.393340850
    0.285599332   -2.032795246   50.836174433  -45.377529886  -17.056145726
    0.475998887   -2.032795246   41.384689228  -52.175255182  -18.099756686
    0.666398442   -2.032795246   31.792264084  -46.314579086  -18.485206741
    0.856797996   -2.032795246   24.635044237  -26.834620991  -18.125741492
    1.047197551   -2.032795246   22.199795486    2.196702805  -16.960439170
    1.237597106   -2.032795246   25.571423237   32.621313515  -15.036128248
    1.427996661   -2.032795246   34.136132934   55.370755618  -12.505099257
    1.618396215   -2.032795246   45.767503330   64.175165061   -9.556099679
    1.808795770   -2.032795246   57.597890841   57.656386930   -6.349378738
    1.999195325   -2.032795246   66.952857745   38.988608837   -2.997599429
    2.189594880   -2.032795246   72.038810625   13.853822445    0.405047443
    2.379994435   -2.032795246   72.206546263  -11.714805179    3.745635851
    2.570393989   -2.032795246   67.880227165  -32.629719695    6.885437146
    2.760793544   -2.032795246   60.314327597  -45.325576599    9.666109702
    2.951193099   -2.032795246   51.267474142  -48.109729252   11.936563783

   -3.141592654   -1.663196111   41.243627111  -40.947856751   11.948663751
   -2.951193099   -1.663196111   34.706545393  -27.105563770   12.361592096
   -2.760793544   -1.663196111   31.097640341  -10.946495309   12.099072280
   -2.570393989   -1.663196111   30.414908322    3.037106818   11.241530876
   -2.379994435   -1.663196111   31.931461986   11.895811466    9.878049686
   -2.189594880   -1.663196111   34.578681152   15.006760552    8.077360404
   -1.999195325   -1.663196111   37.372914524   13.795533190    5.866455873
   -1.808795770   -1.663196111   39.717944180   10.728416738    3.262942857
   -1.618396215   -1.663196111   41.491075053    8.136813988    0.310815303
   -1.427996661   -1.663196111   42.942628105    7.468701723   -2.897196114
   -1.237597106   -1.663196111   44.481857149    9.017789950   -6.218770323
   -1.047197551   -1.663196111   46.471594133   11.955082057   -9.468543332
   -0.856797996   -1.663196111   49.035684084   14.711224063  -12.436661475
   -0.666398442   -1.663196111   51.949220168   15.252975962  -14.913199393
   -0.475998887   -1.663196111   54.599360370   11.626316469  -16.713814153
   -0.285599332   -1.663196111   56.051537280    2.601745955  -17.742928878
   -0.095199777   -1.663196111   55.269494818  -11.637166725  -18.024439147
    0.095199777   -1.663196111   51.448912659  -28.704109640  -17.719450391
    0.285599332   -1.663196111   44.466088488  -43.919669726  -17.053654974
    0.475998887   -1.663196111   35.236527173  -51.305797251  -16.214500839
    0.666398442   -1.663196111   25.765017782  -45.855355991  -15.266325495
    0.856797996   -1.663196111   18.693200724  -26.299066093  -14.149528903
    1.047197551   -1.663196111   16.413024715    3.369875500  -12.752777868
    1.237597106   -1.663196111   20.102143045   34.808211468  -11.015990823
    1.427996661   -1.663196111   29.186154842   58.602508631   -8.950722839
    1.618396215   -1.663196111   41.510053919   68.133068270   -6.607254885
    1.808795770   -1.663196111   54.120482964   61.781331337   -4.039573159
    1.999195325   -1.663196111   64.227873930   42.659421956   -1.302840765
    2.189594880   -1.663196111   69.929759958   16.580691810    1.519606923
    2.379994435   -1.663196111   70.508608260  -10.131549645    4.301169570
    2.570393989   -1.663196111   66.385323507  -32.029164787    6.888642741
    2.760793544   -1.663196111   58.875109025  -45.252730880    9.120811632
    2.951193099   -1.663196111   49.836738236  -48.003242999   10.847211679

   -3.141592654   -1.293596975   39.952103054  -41.555764997   10.030929720
   -2.951193099   -1.293596975   33.280333406  -27.910244731    9.711196056
   -2.760793544   -1.293596975   29.498237910  -11.983208651    8.895517484
   -2.570393989   -1.293596975   28.581349998    1.562152419    7.609703849
   -2.379994435   -1.293596975   29.750402252    9.661443280    5.809385827
   -2.189594880   -1.293596975   31.873671031   11.688951967    3.390043417
   -1.999195325   -1.293596975   33.919085620    9.246319985    0.245059477
   -1.808795770   -1.293596975   35.291559347    5.124550570   -3.611896297
   -1.618396215   -1.293596975   35.938201680    2.027926010   -7.963955513
   -1.427996661   -1.293596975   36.241948934    1.666294930  -12.393137730
   -1.237597106   -1.293596975   36.773580276    4.370322448  -16.380838004
   -1.047197551   -1.293596975   38.041053649    9.094909915  -19.458903843
   -0.856797996   -1.293596975   40.255413743   13.909258951  -21.336173145
   -0.666398442   -1.293596975   43.205840923   16.398898163  -21.949465159
   -0.475998887   -1.293596975   46.230001075   14.320157013  -21.427269609
   -0.285599332   -1.293596975   48.297547163    6.264080033  -20.028958104
   -0.095199777   -1.293596975   48.249673560   -7.716513345  -18.061830503
    0.095199777   -1.293596975   45.140127542  -25.279973818  -15.833352426
    0.285599332   -1.293596975   38.708953062  -41.632675774  -13.580200606
    0.475998887   -1.293596975   29.780986186  -50.430986465  -11.432237969
    0.666398442   -1.293596975   20.359396654  -46.123134102   -9.408520866
    0.856797996   -1.293596975   13.185313672  -26.958252063   -7.468985119
    1.047197551   -1.293596975   10.816763166    3.231289702   -5.585587017
    1.237597106   -1.293596975   14.588957460   35.887599036   -3.787489227
    1.427996661   -1.293596975   24.017377344   61.126828156   -2.107939376
    1.618396215   -1.293596975   36.942747947   71.841097547   -0.524492134
    1.808795770   -1.293596975   50.326961830   66.077767557    1.052987317
    1.999195325   -1.293596975   61.252478026   46.831465480    2.718432435
    2.189594880   -1.293596975   67.687700615   20.018864458    4.482217537
    2.379994435   -1.293596975   68.821337803   -7.778507599    6.242299440
    2.570393989   -1.293596975   65.037713791  -30.797128477    7.826788846
    2.760793544   -1.293596975   57.670792803  -44.929263478    9.059962321
    2.951193099   -1.293596975   48.631912529  -48.277821120    9.814544962

   -3.141592654   -0.923997839   40.743689700  -43.564242701    6.274594003
   -2.951193099   -0.923997839   33.656540929  -30.216391292    4.886348523
   -2.760793544   -0.923997839   29.423849476  -14.386938090    3.130219581
   -2.570393989   -0.923997839   28.039904666   -0.966613363    1.085731516
   -2.379994435   -0.923997839   28.695357182    6.733411904   -1.288087713
   -2.189594880   -0.923997839   30.191084432    7.954194246   -4.139710953
   -1.999195325   -0.923997839   31.422941552    4.413069597   -7.614764684
   -1.808795770   -0.923997839   31.771287314   -0.747455607  -11.672090639
   -1.618396215   -0.923997839   31.239653759   -4.349451287  -15.971698237
   -1.427996661   -0.923997839   30.351245129   -4.304183227  -19.907563461
   -1.237597106   -0.923997839   29.865960630   -0.171817038  -22.792896829
   -1.047197551   -0.923997839   30.472034213    6.796947268  -24.116185144
   -0.856797996   -0.923997839   32.495546338   14.217753109  -23.721388012
   -0.666398442   -0.923997839   35.742535519   19.130333089  -21.832966536
   -0.475998887   -0.923997839   39.467255229   18.798925827  -18.928527394
   -0.285599332   -0.923997839   42.476080106   11.494110117  -15.545764860
   -0.095199777   -0.923997839   43.409035542   -2.821806943  -12.112243920
    0.095199777   -0.923997839   41.126969666  -21.593798319   -8.874601816
    0.285599332   -0.923997839   35.246447134  -39.545037049   -5.894957279
    0.475998887   -0.923997839   26.579512166  -49.685397194   -3.132257985
    0.666398442   -0.923997839   17.232363086  -45.935908502   -0.549275702
    0.856797996   -0.923997839   10.115584635  -26.410172088    1.799214729
    1.047197551   -0.923997839    7.939597664    4.750770131    3.756644899
    1.237597106   -0.923997839   12.106583871   38.478286864    5.138656900
    1.427996661   -0.923997839   22.108141641   64.475538888    5.884253562
    1.618396215   -0.923997839   35.708702864   75.502864022    6.128510554
    1.808795770   -0.923997839   49.789235815   69.668842408    6.156614923
    1.999195325   -0.923997839   61.367819092   50.047047759    6.255272502
    2.189594880   -0.923997839   68.358197195   22.585127954    6.562950666
    2.379994435   -0.923997839   69.897869264   -6.116786021    7.020362342
    2.570393989   -0.923997839   66.330275765  -30.204034570    7.425416949
    2.760793544   -0.923997839   58.972346147  -45.411552336    7.537439051
    2.951193099   -0.923997839   49.751297899  -49.668126858    7.176052334

   -3.141592654   -0.554398704   42.140128283  -47.386626780    3.503717666
   -2.951193099   -0.554398704   34.249038473  -34.751041506    0.947371682
   -2.760793544   -0.554398704   29.120044341  -19.196451640   -1.837563581
   -2.570393989   -0.554398704   26.813213465   -5.843433540   -4.648359471
   -2.379994435   -0.554398704   26.525033282    1.650562826   -7.454547156
   -2.189594880   -0.554398704   27.006466266    2.325368280  -10.402113857
   -1.999195325   -0.554398704   27.097852126   -1.925915866  -13.655131265
   -1.808795770   -0.554398704   26.194512856   -7.438457488  -17.153466727
   -1.618396215   -0.554398704   24.428388317  -10.423244863  -20.480697788
   -1.427996661   -0.554398704   22.543261442   -8.480746061  -22.949538305
   -1.237597106   -0.554398704   21.531431855   -1.389854241  -23.882397193
   -1.047197551   -0.554398704   22.224077557    8.921802211  -22.940660802
   -0.856797996   -0.554398704   24.939559373   19.221698838  -20.287994381
   -0.666398442   -0.554398704   29.328309085   25.894690935  -16.507298834
   -0.475998887   -0.554398704   34.400007792   25.954096947  -12.344842090
   -0.285599332   -0.554398704   38.710479705   17.847814518   -8.408398593
   -0.095199777   -0.554398704   40.717249184    2.034543905   -4.978251608
    0.095199777   -0.554398704   39.208854710  -18.279060073   -1.986043589
    0.285599332   -0.554398704   33.850467263  -37.251631812    0.863617946
    0.475998887   -0.554398704   25.586771597  -47.614740725    3.862079736
    0.666398442   -0.554398704   16.669678803  -43.424282958    7.070697405
    0.856797996   -0.554398704   10.093529171  -23.273649869   10.218110830
    1.047197551   -0.554398704    8.550276459    8.147411719   12.793297521
    1.237597106   -0.554398704   13.340468690   41.515901492   14.295368416
    1.427996661   -0.554398704   23.846879335   66.688338988   14.521090693
    1.618396215   -0.554398704   37.783938917   76.846110021   13.673511415
    1.808795770   -0.554398704   52.060794768   70.452943370   12.251446759
    1.999195325   -0.554398704   63.765429549   50.634971016   10.792868245
    2.189594880   -0.554398704   70.862640185   23.114752155    9.629552376
    2.379994435   -0.554398704   72.484568210   -5.836948323    8.788395608
    2.570393989   -0.554398704   68.914779929  -30.581188640    8.043692403
    2.760793544   -0.554398704   61.388497901  -46.853788338    7.064804170
    2.951193099   -0.554398704   51.773654788  -52.371818524    5.582255156

   -3.141592654   -0.184799568   42.839238022  -52.958032490    1.055879348
   -2.951193099   -0.184799568   33.815196705  -40.958557801   -1.937925346
   -2.760793544   -0.184799568   27.489922388  -25.456916069   -4.969471762
   -2.570393989   -0.184799568   24.017244930  -11.796977768   -7.816723557
   -2.379994435   -0.184799568   22.624388460   -4.033508109  -10.452836295
   -2.189594880   -0.184799568   22.028175833   -3.351915169  -13.040138034
   -1.999195325   -0.184799568   21.030777893   -7.646498847  -15.736514907
   -1.808795770   -0.184799568   19.071653838  -12.653364843  -18.436676263
   -1.618396215   -0.184799568   16.450530803  -13.959750385  -20.658013432
   -1.427996661   -0.184799568   14.158617780   -9.013108536  -21.688208643
   -1.237597106   -0.184799568   13.399530496    1.846971543  -20.935076792
   -1.047197551   -0.184799568   15.052715919   15.625268234  -18.283435011
   -0.856797996   -0.184799568   19.271491386   28.015442345  -14.205028334
   -0.666398442   -0.184799568   25.382775661   34.862392170   -9.558197067
   -0.475998887   -0.184799568   32.039737927   33.409314116   -5.215340561
   -0.285599332   -0.184799568   37.550707050   22.950400656   -1.689462711
   -0.095199777   -0.184799568   40.318495908    5.049334430    1.023599338
    0.095199777   -0.184799568   39.273475155  -16.188523848    3.367868609
    0.285599332   -0.184799568   34.342547595  -34.624558788    5.950015468
    0.475998887   -0.184799568   26.718454118  -43.432196296    9.181658439
    0.666398442   -0.184799568   18.758006411  -37.666608722   13.002752511
    0.856797996   -0.184799568   13.354964837  -16.965244123   16.842028952
    1.047197551   -0.184799568   12.942823454   13.438979866   19.854494753
    1.237597106   -0.184799568   18.535818632   44.499099523   21.319066616
    1.427996661   -0.184799568   29.349994449   66.956213690   20.990305951
    1.618396215   -0.184799568   43.118684942   74.966660770   19.176035931
    1.808795770   -0.184799568   56.919520896   67.531428135   16.547582415
    1.999195325   -0.184799568   68.052197003   47.688429010   13.808267092
    2.189594880   -0.184799568   74.629650441   20.632562541   11.412760942
    2.379994435   -0.184799568   75.816841547   -7.989582558    9.458065890
    2.570393989   -0.184799568   71.826455974  -32.956794466    7.741332673
    2.760793544   -0.184799568   63.775065419  -50.081193848    5.924643356
    2.951193099   -0.184799568   53.432211872  -56.819401408    3.725650725

   -3.141592654    0.184799568   42.844161616  -58.244850012   -1.488846194
   -2.951193099    0.184799568   32.773424190  -46.548669417   -3.949615121
   -2.760793544    0.184799568   25.397453584  -30.818034724   -6.212089705
   -2.570393989    0.184799568   20.951203621  -16.640493897   -8.194634211
   -2.379994435    0.184799568   18.681198542   -8.436381136   -9.967175322
   -2.189594880    0.184799568   17.271850064   -7.506669976  -11.711795472
   -1.999195325    0.184799568   15.512797932  -11.416267934  -13.535336020
   -1.808795770    0.184799568   12.927713843  -15.278085688  -15.265938845
   -1.618396215    0.184799568   10.011554573  -14.221649994  -16.403573824
   -1.427996661    0.184799568    7.981981589   -5.872313605  -16.312748178
   -1.237597106    0.184799568    8.164401000    8.513035444  -14.572231402
   -1.047197551    0.184799568   11.343222382   24.696907405  -11.281897559
   -0.856797996    0.184799568   17.358789441   37.442736174   -7.082167387
   -0.666398442    0.184799568   25.126504533   42.514512925   -2.864154923
   -0.475998887    0.184799568   32.959540374   37.995442130    0.646124653
   -0.285599332    0.184799568   39.045501811   24.526402013    3.233809179
   -0.095199777    0.184799568   41.925883972    4.955409726    5.249136346
    0.095199777    0.184799568   40.862831784  -15.943555287    7.397735286
    0.285599332    0.184799568   36.158201047  -32.267507092   10.345673021
    0.475998887    0.184799568   29.251937540  -38.257524369   14.329594358
    0.666398442    0.184799568   22.498885400  -30.411426454   18.950657161
    0.856797996    0.184799568   18.533553975   -9.504192358   23.282655115
    1.047197551    0.184799568   19.388373869   18.944585203   26.261235069
    1.237597106    0.184799568   25.717494722   46.582374929   27.153373997
    1.427996661    0.184799568   36.574599556   65.404225770   25.859103674
    1.618396215    0.184799568   49.770429802   70.734916505   22.877222909
    1.808795770    0.184799568   62.628892904   62.129845242   19.022020049
    1.999195325    0.184799568   72.731496853   42.455991181   15.066328166
    2.189594880    0.184799568   78.389924027   16.266603076   11.499830848
    2.379994435    0.184799568   78.830319055  -11.532230532    8.469710499
    2.570393989    0.184799568   74.202264276  -36.231581925    5.858193025
    2.760793544    0.184799568   65.497365787  -53.768335453    3.434244978
    2.951193099    0.184799568   54.376138195  -61.338327244    1.004842529

   -3.141592654    0.554398704   44.456345605  -61.273640136   -1.171045726
   -2.951193099    0.554398704   33.753206123  -50.105930940   -2.342862633
   -2.760793544    0.554398704   25.671565568  -34.605711306   -3.351228064
   -2.570393989    0.554398704   20.508091137  -20.333577901   -4.271000578
   -2.379994435    0.554398704   17.560669039  -11.834006752   -5.207394158
   -2.189594880    0.554398704   15.541990916  -10.479620831   -6.257981642
   -1.999195325    0.554398704   13.274845271  -13.709917386   -7.405646265
   -1.808795770    0.554398704   10.357280336  -16.365380062   -8.436371561
   -1.618396215    0.554398704    7.402670115  -13.437862399   -8.958312014
   -1.427996661    0.554398704    5.734390572   -2.847303107   -8.563953462
   -1.237597106    0.554398704    6.684223411   13.411419164   -7.057063601
   -1.047197551    0.554398704   10.885994881   30.293308642   -4.613227057
   -0.856797996    0.554398704   17.909878593   42.192681909   -1.720035664
   -0.666398442    0.554398704   26.403170297   45.259741364    1.074607528
   -0.475998887    0.554398704   34.547445907   38.599210564    3.445935948
   -0.285599332    0.554398704   40.617172265   23.997451679    5.479997083
   -0.095199777    0.554398704   43.426693275    5.056024235    7.613843993
    0.095199777    0.554398704   42.584129795  -13.494948417   10.414809797
    0.285599332    0.554398704   38.647444654  -26.614288565   14.244376310
    0.475998887    0.554398704   33.093080159  -29.918480514   18.986968103
    0.666398442    0.554398704   28.048871077  -21.187400354   23.961214694
    0.856797996    0.554398704   25.737319469   -1.758479626   28.109026798
    1.047197551    0.554398704   27.764359005   23.265028619   30.405165981
    1.237597106    0.554398704   34.516819789   46.704867587   30.283593624
    1.427996661    0.554398704   45.031027399   61.871727211   27.849240357
    1.618396215    0.554398704   57.315489919   64.972815563   23.764017144
    1.808795770    0.554398704   68.994184834   55.753941319   18.931609849
    1.999195325    0.554398704   77.927357145   36.712057280   14.161593250
    2.189594880    0.554398704   82.607038038   11.780971571    9.974282158
    2.379994435    0.554398704   82.319738449  -14.737907822    6.573874534
    2.570393989    0.554398704   77.172769431  -38.575069957    3.922294999
    2.760793544    0.554398704   68.054024748  -55.872671735    1.859150895
    2.951193099    0.554398704   56.507752382  -63.768010278    0.206046111

   -3.141592654    0.923997839   44.333714609  -62.464376106   -0.771241181
   -2.951193099    0.923997839   33.462936401  -50.659835432   -0.309682085
   -2.760793544    0.923997839   25.329554031  -34.604893265    0.298642543
   -2.570393989    0.923997839   20.205205397  -19.954847607    0.776364614
   -2.379994435    0.923997839   17.343423479  -11.360445455    0.943835562
   -2.189594880    0.923997839   15.399609116  -10.202567089    0.750423369
   -1.999195325    0.923997839   13.152446454  -13.780026508    0.283777244
   -1.808795770    0.923997839   10.193610560  -16.695091582   -0.269605690
   -1.618396215    0.923997839    7.171547247  -13.773464167   -0.679007883
   -1.427996661    0.923997839    5.456388203   -2.986265132   -0.736703918
   -1.237597106    0.923997839    6.398083199   13.428070350   -0.319874267
   -1.047197551    0.923997839   10.599481303   30.217093486    0.571651447
   -0.856797996    0.923997839   17.582724412   41.834287587    1.850093967
   -0.666398442    0.923997839   25.993533930   44.826510491    3.421227778
   -0.475998887    0.923997839   34.103560773   38.833689481    5.265748557
   -0.285599332    0.923997839   40.366315046   25.974018703    7.497661889
   -0.095199777    0.923997839   43.798826497    9.752356449   10.311994096
    0.095199777    0.923997839   44.146994233   -5.688661616   13.884193252
    0.285599332    0.923997839   41.958321610  -16.233156745   18.183643297
    0.475998887    0.923997839   38.511830429  -18.481729783   22.830301950
    0.666398442    0.923997839   35.575220089  -10.874014797   27.082682921
    0.856797996    0.923997839   34.944956662    5.265070150   30.033457769
    1.047197551    0.923997839   37.876167958   25.603715384   30.948213177
    1.237597106    0.923997839   44.605188391   44.212343159   29.573074234
    1.427996661    0.923997839   54.259770368   55.585827048   26.216528252
    1.618396215    0.923997839   65.119739873   56.596101404   21.576272477
    1.808795770    0.923997839   75.141614391   46.975200434   16.457901439
    1.999195325    0.923997839   82.466340667   28.742138514   11.534281384
    2.189594880    0.923997839   85.757726306    5.218315114    7.248664353
    2.379994435    0.923997839   84.366073953  -19.793570987    3.835519621
    2.570393989    0.923997839   78.386154799  -42.312897285    1.378074564
    2.760793544    0.923997839   68.658523560  -58.568734922   -0.135471345
    2.951193099    0.923997839   56.678152532  -65.651383063   -0.795108381

   -3.141592654    1.293596975   40.872568790  -60.974395416   -5.363092058
   -2.951193099    1.293596975   30.436158534  -47.706263585   -4.259799466
   -2.760793544    1.293596975   22.933770962  -31.092919463   -2.852380195
   -2.570393989    1.293596975   18.454996051  -16.821652732   -1.433070285
   -2.379994435    1.293596975   16.095863168   -9.297125362   -0.154649122
   -2.189594880    1.293596975   14.414040919   -9.538351467    0.974169773
   -1.999195325    1.293596975   12.155270668  -14.554853681    2.029755136
   -1.808795770    1.293596975    8.922866011  -18.760500219    3.065220304
   -1.618396215    1.293596975    5.408479454  -16.816407597    4.056009002
   -1.427996661    1.293596975    3.061516284   -6.477511423    4.923545627
   -1.237597106    1.293596975    3.357144601   10.267877541    5.615594312
   -1.047197551    1.293596975    7.063422306   28.326123175    6.174263803
   -0.856797996    1.293596975   13.879593274   42.092992678    6.759473062
   -0.666398442    1.293596975   22.594292072   47.813872443    7.610315774
   -0.475998887    1.293596975   31.545669457   44.665043656    8.971157990
   -0.285599332    1.293596975   39.163013099   34.269935399   11.036503245
   -0.095199777    1.293596975   44.351386140   19.747108160   13.879691524
    0.095199777    1.293596975   46.682196082    4.945073041   17.408000650
    0.285599332    1.293596975   46.480075352   -6.226959377   21.283218660
    0.475998887    1.293596975   44.770203193  -10.470787473   24.908490484
    0.666398442    1.293596975   43.068611085   -6.083637504   27.522191627
    0.856797996    1.293596975   42.981452699    6.120865711   28.434001375
    1.047197551    1.293596975   45.701159372   22.609970118   27.296691291
    1.237597106    1.293596975   51.557194590   38.224850329   24.270210597
    1.427996661    1.293596975   59.886638690   47.859032409   19.928005962
    1.618396215    1.293596975   69.205851055   48.295449953   14.989195501
    1.808795770    1.293596975   77.657295412   38.863750599   10.059279914
    1.999195325    1.293596975   83.486875821   21.184747039    5.515779334
    2.189594880    1.293596975   85.406092379   -1.603316403    1.561868964
    2.379994435    1.293596975   82.802990081  -25.643989310   -1.664020621
    2.570393989    1.293596975   75.831071322  -46.802726965   -4.031447911
    2.760793544    1.293596975   65.414255104  -61.238361071   -5.430772711
    2.951193099    1.293596975   53.123966927  -66.199313263   -5.837350524

   -3.141592654    1.663196111   35.351109128  -59.324919964  -13.775480176
   -2.951193099    1.663196111   25.383766421  -44.560786432  -12.665863766
   -2.760793544    1.663196111   18.552610476  -27.347417180  -10.788308196
   -2.570393989    1.663196111   14.778204118  -13.276030026   -8.395338066
   -2.379994435    1.663196111   13.037124055   -6.388633238   -5.664873562
   -2.189594880    1.663196111   11.842181520   -7.315934358   -2.696255098
   -1.999195325    1.663196111    9.951593017  -12.889214644    0.421175356
   -1.808795770    1.663196111    6.991584649  -17.566376872    3.495236731
   -1.618396215    1.663196111    3.660223723  -16.096366599    6.213026829
   -1.427996661    1.663196111    1.410834977   -6.151692856    8.249585446
   -1.237597106    1.663196111    1.758547970   10.562220124    9.446462756
   -1.047197551    1.663196111    5.570180987   29.255257904    9.939337250
   -0.856797996    1.663196111   12.684356612   44.402836675   10.135994190
   -0.666398442    1.663196111   22.014364107   52.010027645   10.552668027
   -0.475998887    1.663196111   31.951784231   50.790872868   11.591429748
   -0.285599332    1.663196111   40.886110558   41.857252742   13.394535622
   -0.095199777    1.663196111   47.592103594   27.932360294   15.799206049
    0.095199777    1.663196111   51.449460245   12.586553646   18.403409896
    0.285599332    1.663196111   52.552284787   -0.374353731   20.648283908
    0.475998887    1.663196111   51.695014071   -7.529533296   21.940078222
    0.666398442    1.663196111   50.216884769   -6.725089388   21.799132614
    0.856797996    1.663196111   49.666091351    1.976870584   20.030148295
    1.047197551    1.663196111   51.329109801   15.858443682   16.823004240
    1.237597106    1.663196111   55.758419294   30.223187761   12.717843721
    1.427996661    1.663196111   62.547915200   39.846010615    8.365271052
    1.618396215    1.663196111   70.398706542   40.933361192    4.257061099
    1.808795770    1.663196111   77.516033651   32.173508955    0.576989913
    1.999195325    1.663196111   82.113166673   14.882290154   -2.742912565
    2.189594880    1.663196111   82.853588107   -7.670395580   -5.829942753
    2.379994435    1.663196111   79.133593699  -31.224862678   -8.694240915
    2.570393989    1.663196111   71.191504689  -51.285483545  -11.174582800
    2.760793544    1.663196111   60.081297044  -63.928259889  -12.997941495
    2.951193099    1.663196111   47.485445132  -66.670161282  -13.907181468

   -3.141592654    2.032795246   28.238651110  -59.512559990  -17.613955733
   -2.951193099    2.032795246   18.417127908  -42.867867492  -16.243964785
   -2.760793544    2.032795246   12.070654671  -24.016703830  -13.932606725
   -2.570393989    2.032795246    9.060326171   -8.639220102  -10.961797881
   -2.379994435    2.032795246    8.301091566   -0.765367876   -7.552660052
   -2.189594880    2.032795246    8.245937619   -1.026248130   -3.819071593
   -1.999195325    2.032795246    7.582777705   -6.381863383    0.168171934
   -1.808795770    2.032795246    5.834204068  -11.472544622    4.235835121
   -1.618396215    2.032795246    3.569632816  -11.091397517    8.043535813
   -1.427996661    2.032795246    2.134767046   -2.637235426   11.172081609
   -1.237597106    2.032795246    3.017759717   12.736942963   13.323218005
   -1.047197551    2.032795246    7.170747908   30.807043647   14.499434817
   -0.856797996    2.032795246   14.597977087   46.288405808   15.016633223
   -0.666398442    2.032795246   24.380403063   54.947625026   15.336962510
   -0.475998887    2.032795246   34.992984209   54.898770322   15.818664334
   -0.285599332    2.032795246   44.782299509   46.579898524   16.537293502
   -0.095199777    2.032795246   52.365959985   32.229013245   17.241923938
    0.095199777    2.032795246   56.904815140   15.247840988   17.463850899
    0.285599332    2.032795246   58.275195625   -0.368062947   16.685301669
    0.475998887    2.032795246   57.120223342  -10.691681787   14.552355688
    0.666398442    2.032795246   54.748973639  -12.826664518   11.052741676
    0.856797996    2.032795246   52.830221324   -6.064523183    6.593726306
    1.047197551    2.032795246   52.895100042    7.385715222    1.896651035
    1.237597106    2.032795246   55.787763884   22.753854310   -2.253495636
    1.427996661    2.032795246   61.320668699   34.172500631   -5.353475562
    1.618396215    2.032795246   68.259930286   36.945958363   -7.374448686
    1.808795770    2.032795246   74.718611725   29.084204782   -8.713739852
    1.999195325    2.032795246   78.737542084   11.767269657   -9.932941959
    2.189594880    2.032795246   78.832507586  -11.371335943  -11.446044273
    2.379994435    2.032795246   74.349387567  -35.477011334  -13.332100146
    2.570393989    2.032795246   65.584554500  -55.548955648  -15.333518234
    2.760793544    2.032795246   53.722106097  -67.429701899  -16.993547112
    2.951193099    2.032795246   40.588510012  -68.709790858  -17.852054395

   -3.141592654    2.402394382   20.250350053  -60.634927266  -11.483210786
   -2.951193099    2.402394382   10.439085980  -41.621269666   -9.547844443
   -2.760793544    2.402394382    4.560897715  -20.387898158   -7.034091486
   -2.570393989    2.402394382    2.449654234   -2.889369228   -4.207626058
   -2.379994435    2.402394382    2.956849999    6.711932675   -1.192754810
   -2.189594880    2.402394382    4.453764348    7.712465514    2.070345362
   -1.999195325    2.402394382    5.529153155    3.022130127    5.714340765
   -1.808795770    2.402394382    5.574464964   -2.183618519    9.725442085
   -1.618396215    2.402394382    4.997966757   -2.795534275   13.807146789
   -1.427996661    2.402394382    4.988939737    3.946503721   17.435371505
   -1.237597106    2.402394382    6.937048268   17.332605564   20.083463614
   -1.047197551    2.402394382   11.793555280   33.672155264   21.479761297
   -0.856797996    2.402394382   19.649057300   48.023516476   21.708771608
   -0.666398442    2.402394382   29.701361972   56.106640870   21.105493025
   -0.475998887    2.402394382   40.497340857   55.638471092   20.028260601
   -0.285599332    2.402394382   50.362141418   46.515329160   18.652196818
   -0.095199777    2.402394382   57.795647039   30.562419614   16.892993217
    0.095199777    2.402394382   61.793635743   11.100885583   14.478378532
    0.285599332    2.402394382   62.095068089   -7.480132995   11.114774824
    0.475998887    2.402394382   59.320572887  -20.458268524    6.704774153
    0.666398442    2.402394382   54.928172788  -23.998050200    1.515450685
    0.856797996    2.402394382   50.897266571  -16.728430500   -3.800020769
    1.047197551    2.402394382   49.136507561   -0.836384874   -8.393507549
    1.237597106    2.402394382   50.797280625   18.138688631  -11.543676485
    1.427996661    2.402394382   55.798974895   33.093030778  -12.992508155
    1.618396215    2.402394382   62.778082834   38.177907121  -13.037767494
    1.808795770    2.402394382   69.550190386   30.848466735  -12.365245989
    1.999195325    2.402394382   73.825021343   12.485053069  -11.706338922
    2.189594880    2.402394382   73.881693146  -12.548872060  -11.523203220
    2.379994435    2.402394382   68.989480143  -38.514058111  -11.874087496
    2.570393989    2.402394382   59.523151756  -59.708315072  -12.469914647
    2.760793544    2.402394382   46.848434753  -71.605603557  -12.851716169
    2.951193099    2.402394382   33.008979260  -71.781520112  -12.598170343

   -3.141592654    2.771993518   16.379064655  -59.557495884    1.089215748
   -2.951193099    2.771993518    6.879285462  -39.479849983    3.544628708
   -2.760793544    2.771993518    1.491708170  -17.438772318    6.015929319
   -2.570393989    2.771993518    0.000000000    0.644120550    8.393079052
   -2.379994435    2.771993518    1.235056767   10.849558916   10.751201088
   -2.189594880    2.771993518    3.598169049   12.729917282   13.336853397
   -1.999195325    2.771993518    5.736854328    9.194620160   16.406786235
   -1.808795770    2.771993518    7.066673918    5.076743765   19.987586448
   -1.618396215    2.771993518    7.932618306    4.954645553   23.734797679
   -1.427996661    2.771993518    9.368919854   11.197815987   27.000080207
   -1.237597106    2.771993518   12.569982780   23.098577978   29.086200903
   -1.047197551    2.771993518   18.330823460   37.342953063   29.554314200
   -0.856797996    2.771993518   26.674004721   49.485897511   28.378428410
   -0.666398442    2.771993518   36.809396981   55.555500568   25.878786058
   -0.475998887    2.771993518   47.324443431   53.247639292   22.508513377
   -0.285599332    2.771993518   56.556636188   42.227939741   18.619482703
   -0.095199777    2.771993518   62.973105584   24.121366505   14.347885827
    0.095199777    2.771993518   65.523872329    2.340781279    9.650224285
    0.285599332    2.771993518   63.956820604  -18.240272203    4.454189570
    0.475998887    2.771993518   59.020388934  -32.171959395   -1.138301372
    0.666398442    2.771993518   52.435984995  -34.992889434   -6.713472864
    0.856797996    2.771993518   46.525161808  -25.194888052  -11.582987274
    1.047197551    2.771993518   43.500351551   -5.495703096  -15.016519927
    1.237597106    2.771993518   44.661939053   17.495046917  -16.550905454
    1.427996661    2.771993518   49.857701956   35.553624151  -16.221680520
    1.618396215    2.771993518   57.473822784   42.125692549  -14.528690903
    1.808795770    2.771993518   65.005109894   34.641125070  -12.195129914
    1.999195325    2.771993518   69.893465299   15.021655878   -9.855843498
    2.189594880    2.771993518   70.279523225  -11.614886845   -7.849813556
    2.379994435    2.771993518   65.431827661  -38.878903518   -6.193810693
    2.570393989    2.771993518   55.824349367  -60.691319658   -4.687520811
    2.760793544    2.771993518   42.966399543  -72.429563062   -3.070263152
    2.951193099    2.771993518   29.038697361  -71.809861820   -1.156222303
