#! FIELDS phi psi file.free der_phi der_psi
#! SET min_phi -pi
#! SET max_phi pi
#! SET nbins_phi  33
#! SET periodic_phi true
#! SET min_psi -pi
#! SET max_psi pi
#! SET nbins_psi  17
#! SET periodic_psi true
   -3.141592654   -3.141592654   19.292090594  -54.663754542   14.982564656
   -2.951193099   -3.141592654   10.661686402  -35.359198678   17.765939819
   -2.760793544   -3.141592654    5.948539243  -14.536110514   19.859210383
   -2.570393989   -3.141592654    4.884379609    2.259921966   21.345181934
   -2.379994435   -3.141592654    6.337087185   11.628821619   22.563632250
   -2.189594880   -3.141592654    8.835173700   13.523430345   24.012452246
   -1.999195325   -3.141592654   11.197233270   10.863525634   26.104112276
   -1.808795770   -3.141592654   12.968259900    8.055481792   28.894005106
   -1.618396215   -3.141592654   14.511585886    8.991321539   31.950286809
   -1.427996661   -3.141592654   16.751211739   15.418005285   34.471106827
   -1.237597106   -3.141592654   20.681914081   26.353023291   35.610459219
   -1.047197551   -3.141592654   26.886251744   38.608239037   34.848694495
   -0.856797996   -3.141592654   35.227447027   48.130651302   32.172420189
   -0.666398442   -3.141592654   44.835478399   51.374543294   27.985208782
   -0.475998887   -3.141592654   54.291284586   46.350231536   22.854240175
   -0.285599332   -3.141592654   61.976150031   32.948142802   17.236117435
   -0.095199777   -3.141592654   66.439576894   12.999373115   11.365465548
    0.095199777   -3.141592654   66.757442585   -9.833826246    5.319388748
    0.285599332   -3.141592654   62.855460387  -30.391034866   -0.805096816
    0.475998887   -3.141592654   55.710332203  -42.995551346   -6.717531294
    0.666398442   -3.141592654   47.296865019  -43.178787241  -11.879574196
    0.856797996   -3.141592654   40.159498395  -29.770572046  -15.638761232
    1.047197551   -3.141592654   36.636077165   -6.162821872  -17.490643744
    1.237597106   -3.141592654   38.007450196   20.223659075  -17.315949152
    1.427996661   -3.141592654   43.959107766   40.551837383  -15.451955581
    1.618396215   -3.141592654   52.636910944   48.081292573  -12.518292475
    1.808795770   -3.141592654   61.307023441   40.521752392   -9.138846022
    1.999195325   -3.141592654   67.264175883   20.337957372   -5.711848809
    2.189594880   -3.141592654   68.606975602   -6.845882571   -2.350658042
    2.379994435   -3.141592654   64.639275153  -34.343725401    1.017360199
    2.570393989   -3.141592654   55.901668312  -56.044504009    4.495871479
    2.760793544   -3.141592654   43.956104700  -67.498251292    8.092130218
    2.951193099   -3.141592654   30.989955394  -66.699560137   11.669758045

   -3.141592654   -2.771993518   28.128435872  -49.150154048   23.870984533
   -2.951193099   -2.771993518   20.331834812  -32.160837087   26.272395625
   -2.760793544   -2.771993518   16.015034424  -13.488364351   27.509604688
   -2.570393989   -2.771993518   15.005338760    1.963779070   27.845323431
   -2.379994435   -2.771993518   16.371588455   11.241754704   27.798931194
   -2.189594880   -2.771993518   18.889814605   14.303916480   27.982964100
   -1.999195325   -2.771993518   21.576609787   13.545891120   28.843907593
   -1.808795770   -2.771993518   24.032512774   12.452125799   30.432500281
   -1.618396215   -2.771993518   26.489359298   13.935313138   32.320498587
   -1.427996661   -2.771993518   29.584000500   19.148763117   33.726743296
   -1.237597106   -2.771993518   33.968804495   27.156943676   33.818592961
   -1.047197551   -2.771993518   39.953467836   35.405828490   32.055605809
   -0.856797996   -2.771993518   47.283142994   40.768500115   28.377762739
   -0.666398442   -2.771993518   55.140955963   40.538406196   23.161999122
   -0.475998887   -2.771993518   62.294669620   33.242694551   17.021841528
   -0.285599332   -2.771993518   67.375778948   18.942690847   10.545196893
   -0.095199777   -2.771993518   69.189177523   -0.625582654    4.159499126
    0.095199777   -2.771993518   67.034111561  -22.022997025   -1.867941024
    0.285599332   -2.771993518   61.014135645  -40.328576101   -7.317023578
    0.475998887   -2.771993518   52.239760541  -50.082133871  -11.902073993
    0.666398442   -2.771993518   42.777663295  -47.060141490  -15.251058604
    0.856797996   -2.771993518   35.209580399  -30.427954703  -17.014419598
    1.047197551   -2.771993518   31.838012312   -3.994398154  -17.034776858
    1.237597106   -2.771993518   33.831251678   24.449785323  -15.461519449
    1.427996661   -2.771993518   40.711047492   45.946373006  -12.712845022
    1.618396215   -2.771993518   50.468315344   53.954781069   -9.283753211
    1.808795770   -2.771993518   60.277533825   46.615308346   -5.546063438
    1.999195325   -2.771993518   67.425432268   26.800472627   -1.643445218
    2.189594880   -2.771993518   70.058716252    0.288732677    2.461447398
    2.379994435   -2.771993518   67.527165387  -26.400613758    6.840161194
    2.570393989   -2.771993518   60.362676596  -47.549056651   11.457685759
    2.760793544   -2.771993518   50.038284622  -59.116499968   16.094974581
    2.951193099   -2.771993518   38.587667428  -59.329727804   20.373847380

   -3.141592654   -2.402394382   37.200862100  -44.737196470   21.938067487
   -2.951193099   -2.402394382   30.026368138  -30.012077722   23.467760068
   -2.760793544   -2.402394382   25.941273078  -13.061587632   23.996985635
   -2.570393989   -2.402394382   24.927238706    1.681551912   23.855601648
   -2.379994435   -2.402394382   26.264535371   11.400392816   23.491699722
   -2.189594880   -2.402394382   28.925908069   15.739740811   23.319224310
   -1.999195325   -2.402394382   32.025708059   16.397426932   23.541706016
   -1.808795770   -2.402394382   35.107241729   15.981592518   24.053667186
   -1.618396215   -2.402394382   38.186142583   16.658894220   24.455046407
   -1.427996661   -2.402394382   41.582135894   19.316271746   24.183662671
   -1.237597106   -2.402394382   45.639916146   23.407619393   22.727879672
   -1.047197551   -2.402394382   50.493842839   27.320280621   19.838120053
   -0.856797996   -2.402394382   55.919320378   29.066888520   15.616016478
   -0.666398442   -2.402394382   61.324475212   26.801947881   10.454406242
   -0.475998887   -2.402394382   65.815261425   19.312920134    4.889644758
   -0.285599332   -2.402394382   68.350827416    6.349524864   -0.588523929
   -0.095199777   -2.402394382   67.968884162  -10.991771950   -5.622819657
    0.095199777   -2.402394382   64.079235847  -29.854966360   -9.996824223
    0.285599332   -2.402394382   56.808640293  -45.636765833  -13.557971556
    0.475998887   -2.402394382   47.256860040  -52.942217349  -16.149959340
    0.666398442   -2.402394382   37.476977147  -47.543845593  -17.600255477
    0.856797996   -2.402394382   30.028386265  -28.717761438  -17.789237301
    1.047197551   -2.402394382   27.158831417   -0.502299717  -16.734847069
    1.237597106   -2.402394382   29.938925110   29.126779144  -14.635158460
    1.427996661   -2.402394382   37.775254958   51.249080719  -11.801477751
    1.618396215   -2.402394382   48.575590291   59.593359147   -8.519987870
    1.808795770   -2.402394382   59.493889867   52.661956008   -4.955100657
    1.999195325   -2.402394382   67.854856207   33.541158205   -1.139305666
    2.189594880   -2.402394382   71.858015747    7.944150933    2.945964718
    2.379994435   -2.402394382   70.866179829  -17.941718972    7.260153090
    2.570393989   -2.402394382   65.349499310  -38.830365170   11.638436871
    2.760793544   -2.402394382   56.643550562  -51.006710137   15.782298615
    2.951193099   -2.402394382   46.606191282  -52.747424507   19.323703402

   -3.141592654   -2.032795246   42.884400716  -41.923036529   13.692640901
   -2.951193099   -2.032795246   36.093420041  -28.777332671   14.604353790
   -2.760793544   -2.032795246   32.118488349  -13.047060795   14.953693547
   -2.570393989   -2.032795246   31.037794946    1.068741583   14.910674772
   -2.379994435   -2.032795246   32.246167134   10.734764764   14.648858096
   -2.189594880   -2.032795246   34.798693267   15.261355011   14.293929455
   -1.999195325   -2.032795246   37.809400995   15.854908271   13.863205507
   -1.808795770   -2.032795246   40.729015427   14.688301399   13.257310506
   -1.618396215   -2.032795246   43.420444569   13.748337734   12.284286452
   -1.427996661   -2.032795246   46.052052577   14.125278237   10.721549873
   -1.237597106   -2.032795246   48.889017888   15.823816207    8.400904197
   -1.047197551   -2.032795246   52.110701015   17.926223083    5.297503218
   -0.856797996   -2.032795246   55.664496728   19.029911095    1.561912629
   -0.666398442   -2.032795246   59.205408595   17.489589999   -2.510093663
   -0.475998887   -2.032795246   62.082250792   11.817730320   -6.545083450
   -0.285599332   -2.032795246   63.408067052    1.169917734  -10.209054801
   -0.095199777   -2.032795246   62.252815937  -13.999732140  -13.271082377
    0.095199777   -2.032795246   57.955752866  -31.224348399  -15.646346936
    0.285599332   -2.032795246   50.533375956  -45.933292262  -17.345540129
    0.475998887   -2.032795246   40.998469246  -52.486485961  -18.396344955
    0.666398442   -2.032795246   31.372920438  -46.358030878  -18.775363667
    0.856797996   -2.032795246   24.228632464  -26.674774933  -18.411509256
    1.047197551   -2.032795246   21.836213956    2.472003679  -17.248489829
    1.237597106   -2.032795246   25.267276844   32.967845398  -15.322921191
    1.427996661   -2.032795246   33.906026176   55.806973915  -12.768829466
    1.618396215   -2.032795246   45.632028564   64.734705087   -9.760394101
    1.808795770   -2.032795246   57.579904602   58.318447116   -6.456737745
    1.999195325   -2.032795246   67.064025229   39.661905322   -2.985061071
    2.189594880   -2.032795246   72.269600961   14.414783497    0.535415210
    2.379994435   -2.032795246   72.526042803  -11.357060400    3.965326899
    2.570393989   -2.032795246   68.245962723  -32.504642537    7.147108289
    2.760793544   -2.032795246   60.683241946  -45.416393051    9.915893531
    2.951193099   -2.032795246   51.601952441  -48.376774711   12.128002248

   -3.141592654   -1.663196111   41.372787392  -41.334858947   11.932616187
   -2.951193099   -1.663196111   34.753280531  -27.573043071   12.267034041
   -2.760793544   -1.663196111   31.054167137  -11.416957014   11.961173400
   -2.570393989   -1.663196111   30.287145839    2.626939859   11.096134968
   -2.379994435   -1.663196111   31.734667351   11.579841726    9.750073918
   -2.189594880   -1.663196111   34.331655274   14.794101493    7.977987568
   -1.999195325   -1.663196111   37.095555112   13.688989256    5.796501039
   -1.808795770   -1.663196111   39.431815998   10.744532906    3.218694906
   -1.618396215   -1.663196111   41.221587340    8.296900960    0.288045722
   -1.427996661   -1.663196111   42.717382911    7.766170744   -2.904254202
   -1.237597106   -1.663196111   44.322352741    9.394079290   -6.221066026
   -1.047197551   -1.663196111   46.383133898   12.303931628   -9.483629504
   -0.856797996   -1.663196111   49.001745132   14.915742663  -12.486267728
   -0.666398442   -1.663196111   51.933629924   15.231372550  -15.015946735
   -0.475998887   -1.663196111   54.556039665   11.355509234  -16.875632906
   -0.285599332   -1.663196111   55.935951472    2.121934410  -17.951744393
   -0.095199777   -1.663196111   55.049817042  -12.235212538  -18.252905005
    0.095199777   -1.663196111   51.114010306  -29.296712930  -17.936514875
    0.285599332   -1.663196111   44.028812608  -44.387701292  -17.240469482
    0.475998887   -1.663196111   34.728518919  -51.577946710  -16.376171167
    0.666398442   -1.663196111   25.223990420  -45.940206896  -15.431530695
    0.856797996   -1.663196111   18.149032319  -26.264690135  -14.356459949
    1.047197551   -1.663196111   15.881859688    3.464871844  -13.026654161
    1.237597106   -1.663196111   19.594825051   34.970701389  -11.350164314
    1.427996661   -1.663196111   28.721737552   58.903087906   -9.302578246
    1.618396215   -1.663196111   41.121886512   68.638218246   -6.911524949
    1.808795770   -1.663196111   53.847777233   62.474685387   -4.233459794
    1.999195325   -1.663196111   64.097002475   43.429753341   -1.351112753
    2.189594880   -1.663196111   69.940726176   17.271815816    1.610422610
    2.379994435   -1.663196111   70.633592223   -9.643180646    4.485047669
    2.570393989   -1.663196111   66.579395883  -31.798268569    7.097402049
    2.760793544   -1.663196111   59.089042969  -45.274701864    9.287634239
    2.951193099   -1.663196111   50.025808875  -48.236985101   10.928212712

   -3.141592654   -1.293596975   40.008036472  -41.992713953    9.991014367
   -2.951193099   -1.293596975   33.247800493  -28.391141083    9.650983778
   -2.760793544   -1.293596975   29.375942617  -12.439175481    8.850323304
   -2.570393989   -1.293596975   28.378576924    1.172741712    7.605637181
   -2.379994435   -1.293596975   29.481350360    9.350369857    5.854086118
   -2.189594880   -1.293596975   31.552681883   11.452444996    3.473319702
   -1.999195325   -1.293596975   33.560440024    9.087707159    0.346554646
   -1.808795770   -1.293596975   34.912355099    5.071491270   -3.514542051
   -1.618396215   -1.293596975   35.562000028    2.116546139   -7.890140276
   -1.427996661   -1.293596975   35.897173901    1.901649592  -12.358855129
   -1.237597106   -1.293596975   36.484234700    4.701166064  -16.399281254
   -1.047197551   -1.293596975   37.815941959    9.418372517  -19.538638311
   -0.856797996   -1.293596975   40.082216968   14.112870947  -21.477112296
   -0.666398442   -1.293596975   43.053863536   16.410132157  -22.138426006
   -0.475998887   -1.293596975   46.060741180   14.127913445  -21.636060519
   -0.285599332   -1.293596975   48.075856111    5.913786726  -20.219160571
   -0.095199777   -1.293596975   47.952580277   -8.146863827  -18.196418927
    0.095199777   -1.293596975   44.760604812  -25.703960214  -15.892037031
    0.285599332   -1.293596975   38.254956395  -41.986112622  -13.571758536
    0.475998887   -1.293596975   29.268633629  -50.694538865  -11.396485750
    0.666398442   -1.293596975   19.803494670  -46.327200690   -9.404370621
    0.856797996   -1.293596975   12.593141869  -27.144235034   -7.552254915
    1.047197551   -1.293596975   10.191382481    3.075582815   -5.785001013
    1.237597106   -1.293596975   13.943782804   35.856271481   -4.090718469
    1.427996661   -1.293596975   23.389220840   61.356617295   -2.464261254
    1.618396215   -1.293596975   36.390830151   72.414741630   -0.862831187
    1.808795770   -1.293596975   49.914159444   66.940947250    0.797985849
    1.999195325   -1.293596975   61.017936310   47.801549730    2.583477283
    2.189594880   -1.293596975   67.630084634   20.868525670    4.464452249
    2.379994435   -1.293596975   68.900342634   -7.214616612    6.303885425
    2.570393989   -1.293596975   65.191850494  -30.575388294    7.912647673
    2.760793544   -1.293596975   57.837252564  -45.013735030    9.119999544
    2.951193099   -1.293596975   48.759894965  -48.584889631    9.822628273

   -3.141592654   -0.923997839   40.775019081  -44.030053322    6.268640142
   -2.951193099   -0.923997839   33.599328989  -30.667706495    4.896557551
   -2.760793544   -0.923997839   29.287982724  -14.759771004    3.192261671
   -2.570393989   -0.923997839   27.842352149   -1.248071064    1.216568901
   -2.379994435   -0.923997839   28.451505460    6.517944646   -1.096054836
   -2.189594880   -0.923997839   29.909894536    7.771673062   -3.913923460
   -1.999195325   -0.923997839   31.109109459    4.251995555   -7.390837637
   -1.808795770   -0.923997839   31.430840706   -0.860639829  -11.483179354
   -1.618396215   -0.923997839   30.885901091   -4.369917053  -15.842692765
   -1.427996661   -0.923997839   30.004721440   -4.210723949  -19.853869339
   -1.237597106   -0.923997839   29.546549441    0.008162363  -22.820575023
   -1.047197551   -0.923997839   30.189527327    6.989365553  -24.220944212
   -0.856797996   -0.923997839   32.244308862   14.340056761  -23.886830125
   -0.666398442   -0.923997839   35.503810641   19.134376244  -22.029799292
   -0.475998887   -0.923997839   39.217893641   18.683833662  -19.116703104
   -0.285599332   -0.923997839   42.196251385   11.293533897  -15.682425282
   -0.095199777   -0.923997839   43.086365575   -3.068263082  -12.164608680
    0.095199777   -0.923997839   40.755490074  -21.859467443   -8.834519910
    0.285599332   -0.923997839   34.823020686  -39.829707022   -5.787400552
    0.475998887   -0.923997839   26.098574935  -50.012734770   -3.011316485
    0.666398442   -0.923997839   16.682699392  -46.336575698   -0.479831885
    0.856797996   -0.923997839    9.483080503  -26.876937869    1.766800633
    1.047197551   -0.923997839    7.218784180    4.312131851    3.607914887
    1.237597106   -0.923997839   11.318895221   38.248041101    4.901174239
    1.427996661   -0.923997839   21.312584402   64.648733180    5.616079583
    1.618396215   -0.923997839   34.993320055   76.171372457    5.895721783
    1.808795770   -0.923997839   49.242544454   70.737437794    6.009391944
    1.999195325   -0.923997839   61.043376666   51.260350442    6.212194917
    2.189594880   -0.923997839   68.254496303   23.640702866    6.608053893
    2.379994435   -0.923997839   69.962143321   -5.434013380    7.112786508
    2.570393989   -0.923997839   66.482913079  -29.960083752    7.517701432
    2.760793544   -0.923997839   59.134394713  -45.540840904    7.595014677
    2.951193099   -0.923997839   49.863907215  -50.036483631    7.191549699

   -3.141592654   -0.554398704   42.142666863  -47.850879078    3.532039900
   -2.951193099   -0.554398704   34.171888607  -35.113257069    0.993070739
   -2.760793544   -0.554398704   28.987444868  -19.423151713   -1.731550873
   -2.570393989   -0.554398704   26.648020603   -5.974671391   -4.464687512
   -2.379994435   -0.554398704   26.338411502    1.539089294   -7.206881684
   -2.189594880   -0.554398704   26.795602475    2.174430857  -10.127792069
   -1.999195325   -0.554398704   26.853367014   -2.126370117  -13.399263296
   -1.808795770   -0.554398704   25.910653343   -7.641765557  -16.954666802
   -1.618396215   -0.554398704   24.111390822  -10.557359219  -20.362931351
   -1.427996661   -0.554398704   22.211655715   -8.498849251  -22.919855138
   -1.237597106   -0.554398704   21.207660522   -1.297304335  -23.931793914
   -1.047197551   -0.554398704   21.924327915    9.069084177  -23.047078032
   -0.856797996   -0.554398704   24.667675207   19.354687701  -20.420262642
   -0.666398442   -0.554398704   29.076842363   25.970780934  -16.630312289
   -0.475998887   -0.554398704   34.156849101   25.963161020  -12.425029153
   -0.285599332   -0.554398704   38.463316734   17.795121747   -8.420391831
   -0.095199777   -0.554398704   40.454074570    1.913364456   -4.912215495
    0.095199777   -0.554398704   38.914326758  -18.494870597   -1.854512515
    0.285599332   -0.554398704   33.502975703  -37.600876366    1.024552161
    0.475998887   -0.554398704   25.157908767  -48.124976549    4.001044967
    0.666398442   -0.554398704   16.128877503  -44.086206620    7.138763942
    0.856797996   -0.554398704    9.418336178  -24.006871995   10.188713804
    1.047197551   -0.554398704    7.741780843    7.514576514   12.674874893
    1.237597106   -0.554398704   12.439515064   41.216328833   14.129213633
    1.427996661   -0.554398704   22.937909430   66.927016353   14.365811703
    1.618396215   -0.554398704   36.978107837   77.681851533   13.584332447
    1.808795770   -0.554398704   51.460480711   71.729745830   12.261939159
    1.999195325   -0.554398704   63.425537310   52.030499800   10.905285824
    2.189594880   -0.554398704   70.771360606   24.274661591    9.815315462
    2.379994435   -0.554398704   72.571716548   -5.148512225    8.998480429
    2.570393989   -0.554398704   69.083014831  -30.412956798    8.226630684
    2.760793544   -0.554398704   61.547730021  -47.089991217    7.186789168
    2.951193099   -0.554398704   51.865089859  -52.816489044    5.641966734

   -3.141592654   -0.184799568   42.833420455  -53.462799751    1.029891232
   -2.951193099   -0.184799568   33.731471363  -41.263850700   -1.941817311
   -2.760793544   -0.184799568   27.368618877  -25.561753715   -4.906467200
   -2.570393989   -0.184799568   23.888106233  -11.799926766   -7.670950322
   -2.379994435   -0.184799568   22.494230464   -4.066685482  -10.240929386
   -2.189594880   -0.184799568   21.881385061   -3.503127877  -12.802075262
   -1.999195325   -0.184799568   20.842962589   -7.920618357  -15.518387591
   -1.808795770   -0.184799568   18.825665095  -12.973933446  -18.275698169
   -1.618396215   -0.184799568   16.148086414  -14.214735137  -20.574335458
   -1.427996661   -0.184799568   13.821089713   -9.119733779  -21.683078901
   -1.237597106   -0.184799568   13.058028641    1.906610089  -20.993085342
   -1.047197551   -0.184799568   14.734902968   15.801425401  -18.378504422
   -0.856797996   -0.184799568   18.992149247   28.227085564  -14.306976953
   -0.666398442   -0.184799568   25.141616437   35.041048274   -9.639303797
   -0.475998887   -0.184799568   31.825985553   33.510719788   -5.254510218
   -0.285599332   -0.184799568   37.346860431   22.947052016   -1.675232370
   -0.095199777   -0.184799568   40.101897460    4.910279790    1.090469607
    0.095199777   -0.184799568   39.014886871  -16.497849379    3.471605631
    0.285599332   -0.184799568   34.006782251  -35.130578173    6.060854529
    0.475998887   -0.184799568   26.268018659  -44.128023767    9.263893032
    0.666398442   -0.184799568   18.161494242  -38.492973667   13.029626864
    0.856797996   -0.184799568   12.598846692  -17.791373529   16.810171172
    1.047197551   -0.184799568   12.045199630   12.815973187   19.788797207
    1.237597106   -0.184799568   17.557777492   44.313375988   21.263467571
    1.427996661   -0.184799568   28.393503068   67.385155045   20.989380993
    1.618396215   -0.184799568   42.305289100   76.023450846   19.258104436
    1.808795770   -0.184799568   56.352690763   69.010329611   16.715651953
    1.999195325   -0.184799568   67.778909585   49.223467986   14.040445581
    2.189594880   -0.184799568   74.623020498   21.839392558   11.668891209
    2.379994435   -0.184799568   75.987864099   -7.354914750    9.690340223
    2.570393989   -0.184799568   72.060165890  -32.921619136    7.908112060
    2.760793544   -0.184799568   63.970708379  -50.478924363    6.005603828
    2.951193099   -0.184799568   53.531709537  -57.390372436    3.732571489

   -3.141592654    0.184799568   42.816937384  -58.763007535   -1.554038618
   -2.951193099    0.184799568   32.675277278  -46.772803551   -3.996059075
   -2.760793544    0.184799568   25.282563007  -30.796002606   -6.197200241
   -2.570393989    0.184799568   20.851738207  -16.535798035   -8.102090711
   -2.379994435    0.184799568   18.595002970   -8.432887537   -9.810738924
   -2.189594880    0.184799568   17.167592196   -7.709005984  -11.527414614
   -1.999195325    0.184799568   15.350664783  -11.810216208  -13.365753207
   -1.808795770    0.184799568   12.681184703  -15.746377473  -15.146505188
   -1.618396215    0.184799568    9.681479946  -14.606330899  -16.354430223
   -1.427996661    0.184799568    7.596721588   -6.055273052  -16.337051611
   -1.237597106    0.184799568    7.767070518    8.564268739  -14.658314782
   -1.047197551    0.184799568   10.973921277   24.923514658  -11.409002598
   -0.856797996    0.184799568   17.040979036   37.734080559   -7.226009276
   -0.666398442    0.184799568   24.861965726   42.765971793   -3.002128155
   -0.475998887    0.184799568   32.733197810   38.134260765    0.532260766
   -0.285599332    0.184799568   38.831836438   24.515149458    3.155888625
   -0.095199777    0.184799568   41.694114417    4.770310901    5.210785895
    0.095199777    0.184799568   40.577884066  -16.321436248    7.392337258
    0.285599332    0.184799568   35.782281460  -32.846796938   10.357999986
    0.475998887    0.184799568   28.748610194  -39.009745740   14.343610401
    0.666398442    0.184799568   21.842547989  -31.249355819   18.961512075
    0.856797996    0.184799568   17.722007127  -10.268721438   23.305072630
    1.047197551    0.184799568   18.455158089   18.468193173   26.326411734
    1.237597106    0.184799568   24.738723119   46.610146274   27.293744215
    1.427996661    0.184799568   35.660853577   66.066997974   26.090113105
    1.618396215    0.184799568   49.041682775   71.988955084   23.187934169
    1.808795770    0.184799568   62.177022192   63.724398072   19.378634615
    1.999195325    0.184799568   72.585522870   44.003728885   15.424404322
    2.189594880    0.184799568   78.503249255   17.385581866   11.816316645
    2.379994435    0.184799568   79.096631977  -11.063764727    8.710391176
    2.570393989    0.184799568   74.495206074  -36.400633140    6.002318859
    2.760793544    0.184799568   65.713937025  -54.353789852    3.479784216
    2.951193099    0.184799568   54.466846402  -62.026231016    0.973514348

   -3.141592654    0.554398704   44.434776327  -61.959944618   -1.187502914
   -2.951193099    0.554398704   33.637200313  -50.409415514   -2.314349904
   -2.760793544    0.554398704   25.531002855  -34.591411382   -3.246412665
   -2.570393989    0.554398704   20.385356994  -20.201720141   -4.083927761
   -2.379994435    0.554398704   17.456745298  -11.803745949   -4.958125906
   -2.189594880    0.554398704   15.423449631  -10.673548973   -5.984378823
   -1.999195325    0.554398704   13.098258211  -14.112064921   -7.149935988
   -1.808795770    0.554398704   10.094065978  -16.846184255   -8.233602000
   -1.618396215    0.554398704    7.054148886  -13.826915139   -8.830600580
   -1.427996661    0.554398704    5.330908513   -3.023310606   -8.519872125
   -1.237597106    0.554398704    6.270314634   13.470260191   -7.093652744
   -1.047197551    0.554398704   10.500061105   30.507842747   -4.719447088
   -0.856797996    0.554398704   17.569658659   42.432313400   -1.878103042
   -0.666398442    0.554398704   26.102050143   45.414774898    0.888811240
   -0.475998887    0.554398704   34.263016461   38.613313710    3.262746829
   -0.285599332    0.554398704   40.321568921   23.866777183    5.332670608
   -0.095199777    0.554398704   43.093628226    4.791917669    7.531751340
    0.095199777    0.554398704   42.188523806  -13.890129959   10.414987306
    0.285599332    0.554398704   38.163889724  -27.144817983   14.327906212
    0.475998887    0.554398704   32.497434671  -30.559410794   19.144151875
    0.666398442    0.554398704   27.327243646  -21.852733723   24.182964982
    0.856797996    0.554398704   24.899154397   -2.289853483   28.395822738
    1.047197551    0.554398704   26.853904582   23.070879257   30.765348841
    1.237597106    0.554398704   33.616987741   47.033732055   30.721069739
    1.427996661    0.554398704   44.251834404   62.809806300   28.350058230
    1.618396215    0.554398704   56.767721392   66.433062122   24.292467330
    1.808795770    0.554398704   68.753653228   57.458160054   19.438818760
    1.999195325    0.554398704   78.003633956   38.264439228   14.600801470
    2.189594880    0.554398704   82.933780683   12.803611997   10.313227523
    2.379994435    0.554398704   82.772460159  -14.453899510    6.799714119
    2.570393989    0.554398704   77.610434395  -38.992027374    4.040582362
    2.760793544    0.554398704   68.365185347  -56.728298985    1.892114911
    2.951193099    0.554398704   56.643590347  -64.697080837    0.190867483

   -3.141592654    0.923997839   44.282335471  -63.138657527   -0.703926314
   -2.951193099    0.923997839   33.325374384  -50.890037747   -0.164967681
   -2.760793544    0.923997839   25.185935097  -34.473079729    0.518524875
   -2.570393989    0.923997839   20.103697610  -19.690075166    1.055297338
   -2.379994435    0.923997839   17.284936024  -11.213321854    1.257652276
   -2.189594880    0.923997839   15.345171581  -10.320177406    1.072774571
   -1.999195325    0.923997839   13.049420610  -14.160828278    0.590701313
   -1.808795770    0.923997839   10.002202168  -17.216530887    0.001137928
   -1.618396215    0.923997839    6.880884869  -14.269056608   -0.463846197
   -1.427996661    0.923997839    5.084057494   -3.335723275   -0.595787530
   -1.237597106    0.923997839    5.976371386   13.253336824   -0.268466280
   -1.047197551    0.923997839   10.157268209   30.161440172    0.526434418
   -0.856797996    0.923997839   17.134668362   41.810843550    1.715819782
   -0.666398442    0.923997839   25.539782592   44.784093080    3.223895330
   -0.475998887    0.923997839   33.639542697   38.769345835    5.048254812
   -0.285599332    0.923997839   39.889948108   25.910762698    7.312253467
   -0.095199777    0.923997839   43.310867881    9.686947392   10.208121387
    0.095199777    0.923997839   43.643101982   -5.802771423   13.896731366
    0.285599332    0.923997839   41.423105425  -16.458825711   18.326839045
    0.475998887    0.923997839   37.921314944  -18.835572891   23.100276624
    0.666398442    0.923997839   34.910347883  -11.284685344   27.465058741
    0.856797996    0.923997839   34.208918538    4.956017994   30.509584401
    1.047197551    0.923997839   37.106707394   25.593136580   31.494599697
    1.237597106    0.923997839   43.876012709   44.664437484   30.155976033
    1.427996661    0.923997839   53.666688958   56.558902734   26.789527926
    1.618396215    0.923997839   64.755117577   57.989781261   22.086238131
    1.808795770    0.923997839   75.062836828   48.525336972   16.858799770
    1.999195325    0.923997839   82.669577992   30.089684408   11.801366659
    2.189594880    0.923997839   86.170961276    6.027028628    7.385712503
    2.379994435    0.923997839   84.866238355  -19.701919367    3.871715442
    2.570393989    0.923997839   78.838052773  -42.884182243    1.357704652
    2.760793544    0.923997839   68.958873873  -59.531476111   -0.164531428
    2.951193099    0.923997839   56.787977373  -66.631753430   -0.790907260

   -3.141592654    1.293596975   40.767669056  -61.409676067   -5.257949789
   -2.951193099    1.293596975   30.288583298  -47.723537664   -4.050094183
   -2.760793544    1.293596975   22.815964487  -30.800127360   -2.572208348
   -2.570393989    1.293596975   18.404103353  -16.457269216   -1.117251243
   -2.379994435    1.293596975   16.101267740   -9.109147653    0.171946380
   -2.189594880    1.293596975   14.426296171   -9.666171962    1.297971299
   -1.999195325    1.293596975   12.112536555  -14.992419120    2.343033514
   -1.808795770    1.293596975    8.776359594  -19.388848310    3.357784045
   -1.618396215    1.293596975    5.136979699  -17.477209892    4.309691163
   -1.427996661    1.293596975    2.670866899   -7.054952356    5.113782455
   -1.237597106    1.293596975    2.868516311    9.814257736    5.719316944
   -1.047197551    1.293596975    6.499242724   27.979500502    6.180345832
   -0.856797996    1.293596975   13.257756001   41.827634974    6.677617193
   -0.666398442    1.293596975   21.930727550   47.645143578    7.473983847
   -0.475998887    1.293596975   30.862753401   44.636662358    8.831914902
   -0.285599332    1.293596975   38.490900150   34.411091298   10.952286297
   -0.095199777    1.293596975   43.719795702   20.015040472   13.900614781
    0.095199777    1.293596975   46.104849804    5.221732327   17.565690383
    0.285599332    1.293596975   45.945029868   -6.082018361   21.587214774
    0.475998887    1.293596975   44.243563396  -10.533783863   25.349698537
    0.666398442    1.293596975   42.512628937   -6.315275113   28.078507455
    0.856797996    1.293596975   42.376875070    5.869888589   29.073697943
    1.047197551    1.293596975   45.062886198   22.539566636   27.977162298
    1.237597106    1.293596975   50.937371033   38.509659955   24.936035468
    1.427996661    1.293596975   59.362362241   48.577477175   20.514665998
    1.618396215    1.293596975   68.855934828   49.382217590   15.434702735
    1.808795770    1.293596975   77.533645067   40.102971116   10.321373076
    1.999195325    1.293596975   83.589970474   22.270828415    5.586883046
    2.189594880    1.293596975   85.677771951   -0.962047653    1.474957083
    2.379994435    1.293596975   83.140840383  -25.600686412   -1.842721821
    2.570393989    1.293596975   76.122995848  -47.302700177   -4.220904008
    2.760793544    1.293596975   65.577930110  -62.032989304   -5.557484109
    2.951193099    1.293596975   53.135312130  -66.953748944   -5.854411914

   -3.141592654    1.663196111   35.222969985  -59.450984314  -13.710361169
   -2.951193099    1.663196111   25.264221294  -44.355189433  -12.491847758
   -2.760793544    1.663196111   18.494981379  -26.939319266  -10.561554318
   -2.570393989    1.663196111   14.800112962  -12.889303265   -8.161050683
   -2.379994435    1.663196111   13.113265691   -6.239566898   -5.444872910
   -2.189594880    1.663196111   11.914303361   -7.515547337   -2.491742046
   -1.999195325    1.663196111    9.952998166  -13.419734619    0.616632295
   -1.808795770    1.663196111    6.869357802  -18.312374387    3.681527622
   -1.618396215    1.663196111    3.387716643  -16.906267199    6.376292665
   -1.427996661    1.663196111    0.987992272   -6.905954801    8.366671164
   -1.237597106    1.663196111    1.203071972    9.926488854    9.496992993
   -1.047197551    1.663196111    4.907069828   28.760861856    9.919025360
   -0.856797996    1.663196111   11.942286236   44.068839907   10.064576642
   -0.666398442    1.663196111   21.227794196   51.884721438   10.472089980
   -0.475998887    1.663196111   31.165656239   50.926319245   11.553654846
   -0.285599332    1.663196111   40.152051477   42.262492801   13.445862998
   -0.095199777    1.663196111   46.955121338   28.522078904   15.967475381
    0.095199777    1.663196111   50.929386680   13.191132886   18.693965466
    0.285599332    1.663196111   52.133670207    0.057242726   21.048462945
    0.475998887    1.663196111   51.332485985   -7.383391204   22.427223667
    0.666398442    1.663196111   49.855393172   -6.849722098   22.345151149
    0.856797996    1.663196111   49.265239514    1.713799174   20.600678617
    1.047197551    1.663196111   50.880261989   15.649106561   17.373132400
    1.237597106    1.663196111   55.289850818   30.248182754   13.191382983
    1.427996661    1.663196111   62.115732381   40.208278373    8.702522502
    1.618396215    1.663196111   70.067326964   41.612324172    4.409267053
    1.808795770    1.663196111   77.333052653   33.012875758    0.522849349
    1.999195325    1.663196111   82.086817205   15.642508481   -2.986142354
    2.189594880    1.663196111   82.945647987   -7.221593805   -6.205120833
    2.379994435    1.663196111   79.271099112  -31.203115051   -9.115184116
    2.570393989    1.663196111   71.295659021  -51.634956534  -11.547473247
    2.760793544    1.663196111   60.099202443  -64.442528384  -13.246679676
    2.951193099    1.663196111   47.410962381  -67.088803860  -13.994791369

   -3.141592654    2.032795246   28.099456241  -59.371291959  -17.661618013
   -2.951193099    2.032795246   18.325820720  -42.519570577  -16.177315719
   -2.760793544    2.032795246   12.056735978  -23.582718922  -13.815046701
   -2.570393989    2.032795246    9.123403023   -8.295127025  -10.844581781
   -2.379994435    2.032795246    8.408334627   -0.671956711   -7.461262614
   -2.189594880    2.032795246    8.340175667   -1.262476083   -3.755272046
   -1.999195325    2.032795246    7.601112410   -6.933551301    0.213540686
   -1.808795770    2.032795246    5.724384209  -12.250735454    4.270272757
   -1.618396215    2.032795246    3.300373503  -11.968287339    8.067453843
   -1.427996661    2.032795246    1.698867555   -3.493417878   11.183241391
   -1.237597106    2.032795246    2.428627838   11.993390360   13.325367134
   -1.047197551    2.032795246    6.456662111   30.246554650   14.508877336
   -0.856797996    2.032795246   13.799907622   45.974052774   15.061657078
   -0.666398442    2.032795246   23.551428022   54.946012648   15.449772953
   -0.475998887    2.032795246   34.196897279   55.246250013   16.022070888
   -0.285599332    2.032795246   44.083782775   47.242290467   16.834997522
   -0.095199777    2.032795246   51.813593013   33.068304967   17.617065856
    0.095199777    2.032795246   56.512634413   16.051875268   17.887540883
    0.285599332    2.032795246   58.015651933    0.189618924   17.129379280
    0.475998887    2.032795246   56.933153300  -10.499897060   14.998223577
    0.666398442    2.032795246   54.563838282  -12.987438161   11.489941034
    0.856797996    2.032795246   52.590701368   -6.450228500    7.010596859
    1.047197551    2.032795246   52.575589138    6.961949634    2.269101450
    1.237597106    2.032795246   55.399142067   22.476160224   -1.965759209
    1.427996661    2.032795246   60.904006474   34.165933262   -5.199683169
    1.618396215    2.032795246   67.870896032   37.233861151   -7.398080549
    1.808795770    2.032795246   74.406060344   29.569713267   -8.935334907
    1.999195325    2.032795246   78.522885511   12.274623279  -10.337454062
    2.189594880    2.032795246   78.702056771  -11.021712006  -11.978888063
    2.379994435    2.032795246   74.262376937  -35.376187939  -13.907264019
    2.570393989    2.032795246   65.495202710  -55.658320438  -15.854184658
    2.760793544    2.032795246   53.602883405  -67.605733693  -17.379307380
    2.951193099    2.032795246   40.443484777  -68.782652291  -18.063630540

   -3.141592654    2.402394382   20.077051827  -60.287850227  -11.505336154
   -2.951193099    2.402394382   10.342716228  -41.175860671   -9.519479630
   -2.760793544    2.402394382    4.550413148  -19.956235408   -7.008276847
   -2.570393989    2.402394382    2.509644600   -2.602759225   -4.220096478
   -2.379994435    2.402394382    3.048914461    6.743049209   -1.252179182
   -2.189594880    2.402394382    4.523193085    7.439921367    1.978669097
   -1.999195325    2.402394382    5.518748228    2.464047895    5.615690517
   -1.808795770    2.402394382    5.436685752   -2.950253402    9.644479068
   -1.618396215    2.402394382    4.703837401   -3.652468915   13.763358413
   -1.427996661    2.402394382    4.533108117    3.124408461   17.445579667
   -1.237597106    2.402394382    6.337377767   16.657574144   20.166035778
   -1.047197551    2.402394382   11.087124581   33.236725235   21.655573619
   -0.856797996    2.402394382   18.888479447   47.896897903   21.995772834
   -0.666398442    2.402394382   28.949895302   56.331232909   21.509028050
   -0.475998887    2.402394382   39.821588566   56.199687484   20.531085094
   -0.285599332    2.402394382   49.818665827   47.319117186   19.212469532
   -0.095199777    2.402394382   57.414795656   31.429089621   17.453769183
    0.095199777    2.402394382   61.566754490   11.815330113   14.986744467
    0.285599332    2.402394382   61.975251494   -7.092798969   11.541142531
    0.475998887    2.402394382   59.237473849  -20.462848261    7.051323461
    0.666398442    2.402394382   54.810849867  -24.336898315    1.807638039
    0.856797996    2.402394382   50.694669150  -17.261218686   -3.533522510
    1.047197551    2.402394382   48.827719543   -1.393388579   -8.141724912
    1.237597106    2.402394382   50.392943808   17.711656945  -11.322795577
    1.427996661    2.402394382   55.334787255   32.899588550  -12.839835165
    1.618396215    2.402394382   62.302322964   38.243687198  -12.995407658
    1.808795770    2.402394382   69.107357671   31.105753891  -12.460630093
    1.999195325    2.402394382   73.439881677   12.807978670  -11.937647192
    2.189594880    2.402394382   73.554202717  -12.284941250  -11.854366489
    2.379994435    2.402394382   68.701676367  -38.363270777  -12.241561468
    2.570393989    2.402394382   59.255647481  -59.634061592  -12.801014267
    2.760793544    2.402394382   46.595257031  -71.513106300  -13.088570290
    2.951193099    2.402394382   32.783071844  -71.579286382  -12.718472122

   -3.141592654    2.771993518   16.127608352  -59.122831146    1.301308599
   -2.951193099    2.771993518    6.717783281  -38.986669921    3.750882753
   -2.760793544    2.771993518    1.421442899  -16.996412191    6.169341295
   -2.570393989    2.771993518    0.000000000    0.920800497    8.468247554
   -2.379994435    2.771993518    1.264768712   10.868671051   10.751864666
   -2.189594880    2.771993518    3.603807966   12.455596497   13.291307174
   -1.999195325    2.771993518    5.663971951    8.653135496   16.355048481
   -1.808795770    2.771993518    6.872122026    4.355211467   19.970520859
   -1.618396215    2.771993518    7.594206953    4.186565898   23.788843867
   -1.427996661    2.771993518    8.891309464   10.525570961   27.156166630
   -1.237597106    2.771993518   11.983690791   22.643074756   29.368865782
   -1.047197551    2.771993518   17.685497625   37.185098308   29.978281203
   -0.856797996    2.771993518   26.030091654   49.656979895   28.941646193
   -0.666398442    2.771993518   36.228431815   56.036598261   26.555703015
   -0.475998887    2.771993518   46.858695992   53.956466711   23.247154997
   -0.285599332    2.771993518   56.236725237   43.021171958   19.348552261
   -0.095199777    2.771993518   62.797765554   24.812000661   14.994669926
    0.095199777    2.771993518   65.456369980    2.757959896   10.164471450
    0.285599332    2.771993518   63.934628195  -18.189054694    4.826665420
    0.475998887    2.771993518   58.974382766  -32.463288569   -0.873363880
    0.666398442    2.771993518   52.310826000  -35.511179470   -6.495495513
    0.856797996    2.771993518   46.291756771  -25.792930311  -11.353023381
    1.047197551    2.771993518   43.156429498   -6.042407765  -14.742186893
    1.237597106    2.771993518   44.226820046   17.093265977  -16.236357459
    1.427996661    2.771993518   49.364519854   35.346877482  -15.900232791
    1.618396215    2.771993518   56.960577267   42.114616663  -14.245194496
    1.808795770    2.771993518   64.504569855   34.767822568  -11.986084385
    1.999195325    2.771993518   69.423405925   15.197307882   -9.734250716
    2.189594880    2.771993518   69.841257060  -11.467126633   -7.799133542
    2.379994435    2.771993518   65.017198192  -38.776220815   -6.172591679
    2.570393989    2.771993518   55.428425723  -60.586636382   -4.645152591
    2.760793544    2.771993518   42.596708080  -72.248748605   -2.968135584
    2.951193099    2.771993518   28.715568696  -71.500392460   -0.986199713
