#! FIELDS phi psi file.free der_phi der_psi
#! SET min_phi -pi
#! SET max_phi pi
#! SET nbins_phi  33
#! SET periodic_phi true
#! SET min_psi -pi
#! SET max_psi pi
#! SET nbins_psi  17
#! SET periodic_psi true
   -3.141592654   -3.141592654   20.286966534  -56.220801037   12.867919399
   -2.951193099   -3.141592654   11.255791724  -37.782185903   15.753425533
   -2.760793544   -3.141592654    6.096109429  -16.569121112   18.090481047
   -2.570393989   -3.141592654    4.762100986    1.595589020   19.837101712
   -2.379994435   -3.141592654    6.248447906   12.656753842   21.230137548
   -2.189594880   -3.141592654    9.074750537   15.829047585   22.700909416
   -1.999195325   -3.141592654   11.926189915   13.539801955   24.630382098
   -1.808795770   -3.141592654   14.155623532   10.045460421   27.068580898
   -1.618396215   -3.141592654   15.939743351    9.439528078   29.598242586
   -1.427996661   -3.141592654   18.075697781   13.865966271   31.458164322
   -1.237597106   -3.141592654   21.514062642   22.789434053   31.878554998
   -1.047197551   -3.141592654   26.872702809   33.397370957   30.450139931
   -0.856797996   -3.141592654   34.112127510   41.913486160   27.290132074
   -0.666398442   -3.141592654   42.506204303   45.020456917   22.926736405
   -0.475998887   -3.141592654   50.822939360   40.951121985   18.010692689
   -0.285599332   -3.141592654   57.665060364   29.712780794   13.006265798
   -0.095199777   -3.141592654   61.801521605   12.957243499    8.060179976
    0.095199777   -3.141592654   62.453814074   -6.259727303    3.074522600
    0.285599332   -3.141592654   59.541565260  -23.716865875   -2.070592490
    0.475998887   -3.141592654   53.851659926  -34.663078089   -7.270467817
    0.666398442   -3.141592654   47.024047238  -35.172378486  -12.069053888
    0.856797996   -3.141592654   41.222095649  -24.006164674  -15.758275297
    1.047197551   -3.141592654   38.474159236   -3.887753993  -17.669421036
    1.237597106   -3.141592654   39.921341134   18.835053164  -17.496949110
    1.427996661   -3.141592654   45.328173767   36.488070231  -15.473424048
    1.618396215   -3.141592654   53.117087872   43.171788796  -12.253114581
    1.808795770   -3.141592654   60.931049328   36.761231207   -8.613364704
    1.999195325   -3.141592654   66.397222402   19.092094714   -5.134319469
    2.189594880   -3.141592654   67.768815212   -5.357109295   -2.035260281
    2.379994435   -3.141592654   64.277530343  -31.050976195    0.784439989
    2.570393989   -3.141592654   56.214378498  -52.518566019    3.575822611
    2.760793544   -3.141592654   44.838982032  -65.209371674    6.539325831
    2.951193099   -3.141592654   32.119363635  -66.425173939    9.697045775

   -3.141592654   -2.771993518   28.034166661  -49.731067772   21.091734248
   -2.951193099   -2.771993518   20.054264678  -33.331086015   23.992071048
   -2.760793544   -2.771993518   15.529138507  -14.329971153   25.761143461
   -2.570393989   -2.771993518   14.447040166    2.142146687   26.506671873
   -2.379994435   -2.771993518   15.958993099   12.584488961   26.651603629
   -2.189594880   -2.771993518   18.808950694   16.328353634   26.771442517
   -1.999195325   -2.771993518   21.875174776   15.356381423   27.319782977
   -1.808795770   -2.771993518   24.574038979   13.058842653   28.381892963
   -1.618396215   -2.771993518   26.969689351   12.621625049   29.586852820
   -1.427996661   -2.771993518   29.607292604   15.693645731   30.243722720
   -1.237597106   -2.771993518   33.150880236   21.896132645   29.648594381
   -1.047197551   -2.771993518   38.019127446   29.116045401   27.413054992
   -0.856797996   -2.771993518   44.131217068   34.464730762   23.619171440
   -0.666398442   -2.771993518   50.871127855   35.291974016   18.733996100
   -0.475998887   -2.771993518   57.206200913   30.061533466   13.370446213
   -0.285599332   -2.771993518   61.943120806   18.636496995    8.003829861
   -0.095199777   -2.771993518   64.006060532    2.342788566    2.846083495
    0.095199777   -2.771993518   62.711556902  -16.038234023   -2.105695183
    0.285599332   -2.771993518   58.040127926  -32.356370628   -6.873588764
    0.475998887   -2.771993518   50.845395723  -41.735285087  -11.296262021
    0.666398442   -2.771993518   42.864730880  -40.097534010  -14.950064895
    0.856797996   -2.771993518   36.372828512  -26.241104049  -17.272933908
    1.047197551   -2.771993518   33.474292065   -3.226681970  -17.825109418
    1.237597106   -2.771993518   35.299937672   22.054750011  -16.535762476
    1.427996661   -2.771993518   41.501486556   41.467804895  -13.770681666
    1.618396215   -2.771993518   50.330495914   48.981860447  -10.157415890
    1.808795770   -2.771993518   59.274208241   42.751162346   -6.301435987
    1.999195325   -2.771993518   65.882131819   25.111914305   -2.544018505
    2.189594880   -2.771993518   68.421955703    0.955624891    1.101037416
    2.379994435   -2.771993518   66.190609552  -24.080243638    4.824368242
    2.570393989   -2.771993518   59.529700165  -44.781864340    8.812825036
    2.760793544   -2.771993518   49.677246526  -57.057368977   13.059551510
    2.951193099   -2.771993518   38.491370680  -58.631133671   17.300650931

   -3.141592654   -2.402394382   36.283632264  -44.010457954   20.452649106
   -2.951193099   -2.402394382   29.181315827  -29.881830038   22.646813761
   -2.760793544   -2.402394382   25.103188816  -12.998334191   23.697401703
   -2.570393989   -2.402394382   24.131799890    2.141972019   23.804371288
   -2.379994435   -2.402394382   25.604008151   12.352475114   23.381992827
   -2.189594880   -2.402394382   28.464867432   16.789037783   22.882477152
   -1.999195325   -2.402394382   31.715660292   16.818058930   22.586540599
   -1.808795770   -2.402394382   34.753483605   15.006947141   22.479217790
   -1.618396215   -2.402394382   37.474357883   13.856797079   22.257606982
   -1.427996661   -2.402394382   40.165574380   14.803144039   21.470635471
   -1.237597106   -2.402394382   43.249414138   17.862101252   19.729582556
   -1.047197551   -2.402394382   47.027611319   21.770268295   16.894750974
   -0.856797996   -2.402394382   51.479968422   24.578266335   13.128595459
   -0.666398442   -2.402394382   56.200389757   24.232253923    8.801685511
   -0.475998887   -2.402394382   60.428583653   19.202231483    4.329953721
   -0.285599332   -2.402394382   63.193403707    8.889042573   -0.003999230
   -0.095199777   -2.402394382   63.532448756   -6.008192041   -4.096628550
    0.095199777   -2.402394382   60.772294421  -23.106307063   -7.963943002
    0.285599332   -2.402394382   54.865738663  -38.251381788  -11.584024826
    0.475998887   -2.402394382   46.671913616  -46.263506414  -14.767435033
    0.666398442   -2.402394382   37.996221669  -42.767021536  -17.133535259
    0.856797996   -2.402394382   31.211838246  -26.567558737  -18.246303151
    1.047197551   -2.402394382   28.485730965   -1.099910777  -17.824023374
    1.237597106   -2.402394382   30.919842858   26.214783333  -15.915058044
    1.427996661   -2.402394382   38.045635006   46.878984212  -12.899180346
    1.618396215   -2.402394382   47.960498062   54.868605820   -9.309671343
    1.808795770   -2.402394382   58.033956533   48.701415181   -5.600118946
    1.999195325   -2.402394382   65.782610364   31.184095808   -1.977406761
    2.189594880   -2.402394382   69.518881489    7.513863365    1.607123740
    2.379994435   -2.402394382   68.609943393  -16.719338949    5.323068113
    2.570393989   -2.402394382   63.426292099  -36.684318123    9.275767710
    2.760793544   -2.402394382   55.144383703  -48.803497738   13.358186842
    2.951193099   -2.402394382   45.472205857  -51.169431678   17.234025124

   -3.141592654   -2.032795246   42.219696273  -40.018558573   14.134923270
   -2.951193099   -2.032795246   35.696023482  -27.829620763   15.454323061
   -2.760793544   -2.032795246   31.830897214  -12.743927497   15.971533594
   -2.570393989   -2.032795246   30.780034866    1.166246840   15.826774467
   -2.379994435   -2.032795246   32.005571716   10.842838495   15.254832566
   -2.189594880   -2.032795246   34.566617059   15.186403335   14.482553409
   -1.999195325   -2.032795246   37.505091968   15.094646920   13.626314053
   -1.808795770   -2.032795246   40.169031438   12.705435148   12.661153570
   -1.618396215   -2.032795246   42.346656757   10.355872818   11.453234709
   -1.427996661   -2.032795246   44.220291212    9.679597509    9.839548340
   -1.237597106   -2.032795246   46.173030433   11.170022795    7.718130733
   -1.047197551   -2.032795246   48.568879923   14.093461178    5.115205928
   -0.856797996   -2.032795246   51.538744020   16.855967964    2.181709123
   -0.666398442   -2.032795246   54.859315317   17.399329842   -0.869131343
   -0.475998887   -2.032795246   57.918676975   13.814184746   -3.836843382
   -0.285599332   -2.032795246   59.799170863    4.949485195   -6.623225109
   -0.095199777   -2.032795246   59.491307882   -8.961596441   -9.234366201
    0.095199777   -2.032795246   56.214351991  -25.662721044  -11.738955727
    0.285599332   -2.032795246   49.828721287  -40.733727952  -14.145550210
    0.475998887   -2.032795246   41.179173447  -48.483926017  -16.300300270
    0.666398442   -2.032795246   32.153332867  -44.093940025  -17.864380413
    0.856797996   -2.032795246   25.259539504  -26.276228244  -18.429014663
    1.047197551   -2.032795246   22.778176152    1.203266940  -17.709428607
    1.237597106   -2.032795246   25.834608800   30.373826634  -15.718544853
    1.427996661   -2.032795246   33.883036402   52.282726315  -12.776313421
    1.618396215   -2.032795246   44.886767604   60.784621965   -9.359107569
    1.808795770   -2.032795246   56.092858816   54.623280020   -5.891662173
    1.999195325   -2.032795246   64.957767153   36.992686796   -2.599064749
    2.189594880   -2.032795246   69.803428504   13.395537786    0.505246254
    2.379994435   -2.032795246   70.040982155  -10.534698733    3.518493215
    2.570393989   -2.032795246   66.066151895  -30.209384126    6.512744461
    2.760793544   -2.032795246   59.016434262  -42.441597653    9.427331205
    2.951193099   -2.032795246   50.490505758  -45.630828437   12.057763675

   -3.141592654   -1.663196111   41.929983575  -39.430374485   12.815455580
   -2.951193099   -1.663196111   35.539856288  -27.029470251   13.432095689
   -2.760793544   -1.663196111   31.838738914  -11.862045098   13.108983798
   -2.570393989   -1.663196111   30.939610230    1.808755728   11.973909384
   -2.379994435   -1.663196111   32.230837650   10.816456908   10.242239334
   -2.189594880   -1.663196111   34.689279527   14.072541053    8.121421999
   -1.999195325   -1.663196111   37.289263896   12.629071928    5.739621928
   -1.808795770   -1.663196111   39.352474649    8.889595434    3.158470482
   -1.618396215   -1.663196111   40.698383054    5.518872496    0.427249084
   -1.427996661   -1.663196111   41.601875662    4.447445776   -2.368487469
   -1.237597106   -1.663196111   42.582786523    6.331822685   -5.091013548
   -1.047197551   -1.663196111   44.152663239   10.361983280   -7.570028110
   -0.856797996   -1.663196111   46.553548846   14.641782769   -9.650133465
   -0.666398442   -1.663196111   49.598257319   16.676076292  -11.238362787
   -0.475998887   -1.663196111   52.629913394   14.141367769  -12.325308866
   -0.285599332   -1.663196111   54.620058613    5.661032609  -13.010024704
   -0.095199777   -1.663196111   54.428792690   -8.552380512  -13.466650685
    0.095199777   -1.663196111   51.161105954  -26.021737674  -13.892562966
    0.285599332   -1.663196111   44.622994134  -41.949287196  -14.398550932
    0.475998887   -1.663196111   35.686590072  -50.180970311  -14.922382238
    0.666398442   -1.663196111   26.350657970  -45.510543278  -15.213646144
    0.856797996   -1.663196111   19.283561106  -26.545736520  -14.938530247
    1.047197551   -1.663196111   16.911739748    2.677037269  -13.846635792
    1.237597106   -1.663196111   20.425293846   33.652114101  -11.925587046
    1.427996661   -1.663196111   29.234985803   56.873809927   -9.398120007
    1.618396215   -1.663196111   41.175005068   65.878429243   -6.596010464
    1.808795770   -1.663196111   53.333194940   59.406333951   -3.795490048
    1.999195325   -1.663196111   63.031828101   40.893660700   -1.113982024
    2.189594880   -1.663196111   68.515730951   16.180518787    1.477462196
    2.379994435   -1.663196111   69.180762456   -8.800284042    4.060964028
    2.570393989   -1.663196111   65.456765710  -29.256774926    6.660818616
    2.760793544   -1.663196111   58.542574158  -41.913570509    9.163098657
    2.951193099   -1.663196111   50.104518038  -45.188417966   11.315971501

   -3.141592654   -1.293596975   41.597310406  -40.534769324    9.617276894
   -2.951193099   -1.293596975   34.949596029  -28.617438297    9.501744531
   -2.760793544   -1.293596975   30.910402449  -13.809184378    8.650877770
   -2.570393989   -1.293596975   29.611602291   -0.446839745    7.159411647
   -2.379994435   -1.293596975   30.438821270    8.174077756    5.114900676
   -2.189594880   -1.293596975   32.343337231   10.862656730    2.545095736
   -1.999195325   -1.293596975   34.265821735    8.713478176   -0.565907800
   -1.808795770   -1.293596975   35.520055574    4.348972892   -4.171841345
   -1.618396215   -1.293596975   35.971180739    0.753761207   -8.063440643
   -1.427996661   -1.293596975   35.997249423    0.117819702  -11.851604626
   -1.237597106   -1.293596975   36.252039809    3.149418459  -15.057373159
   -1.047197551   -1.293596975   37.367026041    8.825426918  -17.270478559
   -0.856797996   -1.293596975   39.644671184   14.867259925  -18.290781346
   -0.666398442   -1.293596975   42.878834936   18.362167623  -18.185038970
   -0.475998887   -1.293596975   46.324350227   16.680837629  -17.233528874
   -0.285599332   -1.293596975   48.821473482    8.322171882  -15.830746077
   -0.095199777   -1.293596975   49.092185360   -6.470223392  -14.353513834
    0.095199777   -1.293596975   46.123727332  -25.021036850  -13.071134341
    0.285599332   -1.293596975   39.657676003  -42.179903305  -12.065300426
    0.475998887   -1.293596975   30.582384714  -51.315107360  -11.226664451
    0.666398442   -1.293596975   21.004452391  -46.770890160  -10.318029158
    0.856797996   -1.293596975   13.762684477  -26.967838036   -9.106707881
    1.047197551   -1.293596975   11.453758808    3.830645185   -7.497174780
    1.237597106   -1.293596975   15.358968495   36.581748214   -5.598212315
    1.427996661   -1.293596975   24.868664813   61.184228456   -3.635533501
    1.618396215   -1.293596975   37.702452343   70.810944283   -1.809964220
    1.808795770   -1.293596975   50.795777854   64.173452239   -0.183310127
    1.999195325   -1.293596975   61.338811030   44.920061702    1.327537897
    2.189594880   -1.293596975   67.495341268   19.191721555    2.859270737
    2.379994435   -1.293596975   68.633436678   -6.835570232    4.493740164
    2.570393989   -1.293596975   65.191666251  -28.235989086    6.189422773
    2.760793544   -1.293596975   58.392527474  -41.706554340    7.773829417
    2.951193099   -1.293596975   49.925253638  -45.686419305    8.995657298

   -3.141592654   -0.923997839   42.434356018  -42.109866676    4.914177775
   -2.951193099   -0.923997839   35.420324745  -30.847942883    3.707448242
   -2.760793544   -0.923997839   30.914282359  -16.436916160    1.970701342
   -2.570393989   -0.923997839   29.091575796   -3.310369873   -0.151194759
   -2.379994435   -0.923997839   29.348860285    5.023893182   -2.592660614
   -2.189594880   -0.923997839   30.608374018    7.188784194   -5.401735176
   -1.999195325   -0.923997839   31.762177892    4.291455712   -8.660169757
   -1.808795770   -0.923997839   32.102682610   -0.785703173  -12.315862898
   -1.618396215   -0.923997839   31.540508240   -4.646413521  -16.059446066
   -1.427996661   -0.923997839   30.574693468   -4.747229487  -19.344886888
   -1.237597106   -0.923997839   30.025417534   -0.283983924  -21.562210855
   -1.047197551   -0.923997839   30.678850387    7.493232203  -22.284556226
   -0.856797996   -0.923997839   32.922584311   15.829633206  -21.442117336
   -0.666398442   -0.923997839   36.534328145   21.264948305  -19.338556230
   -0.475998887   -0.923997839   40.656621135   20.725698376  -16.511340643
   -0.285599332   -0.923997839   43.953359902   12.508734642  -13.523191224
   -0.095199777   -0.923997839   44.959544227   -3.069456691  -10.776213259
    0.095199777   -0.923997839   42.514830645  -22.972385111   -8.429401082
    0.285599332   -0.923997839   36.303151193  -41.507941412   -6.401188919
    0.475998887   -0.923997839   27.264681365  -51.472118642   -4.481338091
    0.666398442   -0.923997839   17.649145252  -46.856422032   -2.487154881
    0.856797996   -0.923997839   10.467126423  -26.150905880   -0.402250735
    1.047197551   -0.923997839    8.434810667    5.914926402    1.586053024
    1.237597106   -0.923997839   12.845859150   39.723316306    3.169768885
    1.427996661   -0.923997839   23.009713942   64.797508014    4.119630986
    1.618396215   -0.923997839   36.529186566   74.311257097    4.427701497
    1.808795770   -0.923997839   50.249783389   67.227567695    4.324419292
    1.999195325   -0.923997839   61.324747310   47.451554055    4.154459860
    2.189594880   -0.923997839   67.916638449   21.235682540    4.195453023
    2.379994435   -0.923997839   69.397192839   -5.292369654    4.534350366
    2.570393989   -0.923997839   66.193610364  -27.301954919    5.045710330
    2.760793544   -0.923997839   59.501315454  -41.544091037    5.461098808
    2.951193099   -0.923997839   50.981784898  -46.407442275    5.485176525

   -3.141592654   -0.554398704   43.255023198  -45.215755737    1.453998080
   -2.951193099   -0.554398704   35.553232534  -34.888854508   -0.720648184
   -2.760793544   -0.554398704   30.224071976  -20.957859315   -3.233705787
   -2.570393989   -0.554398704   27.523520238   -7.974758076   -5.853203572
   -2.379994435   -0.554398704   26.883827113    0.244905020   -8.492586256
   -2.189594880   -0.554398704   27.206227771    2.081832954  -11.243237333
   -1.999195325   -0.554398704   27.342953750   -1.280271084  -14.235385759
   -1.808795770   -0.554398704   26.596206587   -6.538877078  -17.410672795
   -1.618396215   -0.554398704   24.982743274   -9.764509246  -20.383621020
   -1.427996661   -0.554398704   23.189709756   -8.130539502  -22.519969834
   -1.237597106   -0.554398704   22.236636731   -1.029290867  -23.203902506
   -1.047197551   -0.554398704   23.027605012    9.670710257  -22.150862477
   -0.856797996   -0.554398704   25.931402617   20.451593791  -19.555097565
   -0.666398442   -0.554398704   30.575978865   27.286754271  -15.996783672
   -0.475998887   -0.554398704   35.880832028   26.924981773  -12.185794312
   -0.285599332   -0.554398704   40.291629101   17.877892405   -8.669378730
   -0.095199777   -0.554398704   42.195553344    0.946838903   -5.659334250
    0.095199777   -0.554398704   40.388515752  -20.232617027   -3.025856413
    0.285599332   -0.554398704   34.618889577  -39.480700398   -0.430792423
    0.475998887   -0.554398704   25.959886771  -49.396621182    2.431949578
    0.666398442   -0.554398704   16.793397389  -44.169937773    5.604222067
    0.856797996   -0.554398704   10.190478995  -22.809338067    8.760851478
    1.047197551   -0.554398704    8.820924818    9.398609135   11.313909724
    1.237597106   -0.554398704   13.849862561   42.600594350   12.685588352
    1.427996661   -0.554398704   24.457753830   66.527023111   12.627074084
    1.618396215   -0.554398704   38.191275719   74.864322369   11.351915578
    1.808795770   -0.554398704   51.937961075   67.044874974    9.431328780
    1.999195325   -0.554398704   62.955523457   47.121509990    7.518780887
    2.189594880   -0.554398704   69.504131493   21.143878543    6.065565717
    2.379994435   -0.554398704   70.991654388   -5.165472869    5.177322288
    2.570393989   -0.554398704   67.804532609  -27.340732077    4.637618591
    2.760793544   -0.554398704   61.045310876  -42.293968141    4.056892387
    2.951193099   -0.554398704   52.279523374  -48.295184670    3.061716372

   -3.141592654   -0.184799568   43.254092514  -49.499400897   -1.000286076
   -2.951193099   -0.184799568   34.652006300  -39.956239203   -3.480703294
   -2.760793544   -0.184799568   28.324721831  -26.280172163   -6.117924709
   -2.570393989   -0.184799568   24.617816590  -13.186405158   -8.674954033
   -2.379994435   -0.184799568   22.999333666   -4.851929841  -11.084546262
   -2.189594880   -0.184799568   22.344924253   -3.117444688  -13.463054810
   -1.999195325   -0.184799568   21.475515873   -6.614043788  -15.938262978
   -1.808795770   -0.184799568   19.737014915  -11.477723834  -18.410207739
   -1.618396215   -0.184799568   17.305894389  -13.199620187  -20.435191564
   -1.427996661   -0.184799568   15.102064953   -8.822979734  -21.361719858
   -1.237597106   -0.184799568   14.340882019    1.719227360  -20.656184588
   -1.047197551   -0.184799568   15.967759922   15.561978222  -18.231634379
   -0.856797996   -0.184799568   20.197424982   28.223370871  -14.537524107
   -0.666398442   -0.184799568   26.366594884   35.240562124  -10.358271486
   -0.475998887   -0.184799568   33.085498718   33.638297274   -6.459681632
   -0.285599332   -0.184799568   38.599223054   22.723188893   -3.248462245
   -0.095199777   -0.184799568   41.267873471    4.254302855   -0.649692774
    0.095199777   -0.184799568   40.024357999  -17.416436111    1.792075648
    0.285599332   -0.184799568   34.841426370  -35.958070738    4.632031094
    0.475998887   -0.184799568   26.983297884  -44.467003019    8.180092578
    0.666398442   -0.184799568   18.879176278  -38.084329007   12.249203169
    0.856797996   -0.184799568   13.458585412  -16.744986021   16.146700015
    1.047197551   -0.184799568   13.117250262   13.862841260   18.943545411
    1.237597106   -0.184799568   18.744185735   44.288130887   19.900426128
    1.427996661   -0.184799568   29.384275751   65.236474748   18.835314361
    1.618396215   -0.184799568   42.647545782   71.415826695   16.192203621
    1.808795770   -0.184799568   55.638946248   62.796583957   12.813742900
    1.999195325   -0.184799568   65.872365618   43.299698396    9.557310735
    2.189594880   -0.184799568   71.788330956   18.362030717    6.969309635
    2.379994435   -0.184799568   72.841240199   -7.024482662    5.155933442
    2.570393989   -0.184799568   69.339902671  -28.912841274    3.851808663
    2.760793544   -0.184799568   62.244745488  -44.368898579    2.617686941
    2.951193099   -0.184799568   52.988340273  -51.433404929    1.060806015

   -3.141592654    0.184799568   42.750693861  -53.587859414   -3.244467727
   -2.951193099    0.184799568   33.316728009  -44.502180908   -5.290641316
   -2.760793544    0.184799568   26.117903447  -30.806494163   -7.234213409
   -2.570393989    0.184799568   21.576351804  -17.400629033   -8.971776426
   -2.379994435    0.184799568   19.184748494   -8.784204506  -10.552337705
   -2.189594880    0.184799568   17.795454823   -6.918327758  -12.138723343
   -1.999195325    0.184799568   16.220602776  -10.157441719  -13.825121734
   -1.808795770    0.184799568   13.881758544  -14.079132217  -15.444027518
   -1.618396215    0.184799568   11.131864222  -13.753723102  -16.518813857
   -1.427996661    0.184799568    9.097460411   -6.375692551  -16.452178094
   -1.237597106    0.184799568    9.107856675    7.305064087  -14.856862642
   -1.047197551    0.184799568   12.029174258   23.322292374  -11.835363822
   -0.856797996    0.184799568   17.805789742   36.392972594   -7.983284811
   -0.666398442    0.184799568   25.423710554   42.024736961   -4.106428802
   -0.475998887    0.184799568   33.213326576   38.020518901   -0.833406929
   -0.285599332    0.184799568   39.336374608   24.863630493    1.695395915
   -0.095199777    0.184799568   42.290465085    5.373688373    3.855104260
    0.095199777    0.184799568   41.298164841  -15.619384406    6.316557656
    0.285599332    0.184799568   36.637217358  -32.116018331    9.658357806
    0.475998887    0.184799568   29.742072466  -38.258039080   13.993790827
    0.666398442    0.184799568   22.976814440  -30.512562189   18.787205724
    0.856797996    0.184799568   18.976458943   -9.785128358   22.993553757
    1.047197551    0.184799568   19.733439794   18.124487814   25.484602151
    1.237597106    0.184799568   25.806123188   44.613532774   25.555553905
    1.427996661    0.184799568   36.131537402   61.746714488   23.241986882
    1.618396215    0.184799568   48.464720176   65.425127904   19.258978293
    1.808795770    0.184799568   60.220510300   56.110199949   14.647563836
    1.999195325    0.184799568   69.238711181   37.419384496   10.336752736
    2.189594880    0.184799568   74.174876449   13.995393054    6.850398771
    2.379994435    0.184799568   74.534911921  -10.023947598    4.251201267
    2.570393989    0.184799568   70.538915563  -31.254061161    2.270342239
    2.760793544    0.184799568   62.992313186  -46.891938194    0.527702978
    2.951193099    0.184799568   53.189264198  -54.705088773   -1.274927645

   -3.141592654    0.554398704   43.830770314  -55.371314729   -2.709370959
   -2.951193099    0.554398704   33.986689237  -46.983110228   -3.793874946
   -2.760793544    0.554398704   26.264726161  -33.763992798   -4.756056782
   -2.570393989    0.554398704   21.136134325  -20.563956957   -5.625396458
   -2.379994435    0.554398704   18.138612873  -11.960498378   -6.487373538
   -2.189594880    0.554398704   16.155399596   -9.945045612   -7.436244244
   -1.999195325    0.554398704   14.040568274  -12.727115952   -8.461465226
   -1.808795770    0.554398704   11.299732366  -15.615539042   -9.363959586
   -1.618396215    0.554398704    8.412238611  -13.556590595   -9.775647755
   -1.427996661    0.554398704    6.617808435   -4.029441239   -9.318677715
   -1.237597106    0.554398704    7.264762187   11.526439115   -7.820736868
   -1.047197551    0.554398704   11.092516873   28.401454835   -5.461043118
   -0.856797996    0.554398704   17.809421732   40.977439612   -2.705151502
   -0.666398442    0.554398704   26.167333769   45.104441258   -0.060932783
   -0.475998887    0.554398704   34.382916151   39.486894524    2.190968386
   -0.285599332    0.554398704   40.694850300   25.593085246    4.172848780
   -0.095199777    0.554398704   43.834842089    6.862873452    6.344412203
    0.095199777    0.554398704   43.314448681  -11.970410906    9.273061816
    0.285599332    0.554398704   39.608831294  -25.736256957   13.287753856
    0.475998887    0.554398704   34.142500126  -29.861634648   18.199277952
    0.666398442    0.554398704   29.025531897  -21.986082977   23.217275850
    0.856797996    0.554398704   26.475464346   -3.464797654   27.171143575
    1.047197551    0.554398704   28.074828979   20.440423752   28.970578933
    1.237597106    0.554398704   34.155034400   42.427381131   28.083764484
    1.427996661    0.554398704   43.698355630   55.975611601   24.766658742
    1.618396215    0.554398704   54.731695389   57.878917403   19.909959711
    1.808795770    0.554398704   65.035020973   48.684532764   14.633289663
    1.999195325    0.554398704   72.762603189   31.448704780    9.856057616
    2.189594880    0.554398704   76.747858641    9.999128950    6.057969596
    2.379994435    0.554398704   76.524194724  -12.246027081    3.281825116
    2.570393989    0.554398704   72.224959816  -32.348038655    1.289752779
    2.760793544    0.554398704   64.513619129  -47.650822923   -0.231307169
    2.951193099    0.554398704   54.541969777  -55.799635225   -1.525311541

   -3.141592654    0.923997839   43.613434100  -56.223204957   -3.080925799
   -2.951193099    0.923997839   33.635977645  -47.498307500   -2.811992008
   -2.760793544    0.923997839   25.849044680  -33.926718105   -2.298031143
   -2.570393989    0.923997839   20.715296241  -20.480186165   -1.793884703
   -2.379994435    0.923997839   17.739104079  -11.863002951   -1.515519894
   -2.189594880    0.923997839   15.755459221  -10.077145610   -1.567541253
   -1.999195325    0.923997839   13.584639023  -13.176250350   -1.899318898
   -1.808795770    0.923997839   10.739404662  -16.216375482   -2.328872495
   -1.618396215    0.923997839    7.749761192  -13.971241221   -2.608741500
   -1.427996661    0.923997839    5.918207633   -3.975244631   -2.516768611
   -1.237597106    0.923997839    6.624703636   12.066842265   -1.936842181
   -1.047197551    0.923997839   10.583964739   29.180219185   -0.899556012
   -0.856797996    0.923997839   17.447802419   41.709454534    0.463815278
   -0.666398442    0.923997839   25.937996858   45.797681147    2.021788222
   -0.475998887    0.923997839   34.317341542   40.634099368    3.744989480
   -0.285599332    0.923997839   40.958557172   28.064823656    5.777022812
   -0.095199777    0.923997839   44.768462607   11.556743530    8.378815351
    0.095199777    0.923997839   45.394360257   -4.612360539   11.798215932
    0.285599332    0.923997839   43.318019157  -16.136185448   16.043746731
    0.475998887    0.923997839   39.786441161  -19.454707721   20.710310167
    0.666398442    0.923997839   36.558853496  -12.938118247   24.965530195
    0.856797996    0.923997839   35.425226112    2.040122612   27.786937488
    1.047197551    0.923997839   37.617932662   21.048882966   28.364534264
    1.237597106    0.923997839   43.338077883   38.170666936   26.468990360
    1.427996661    0.923997839   51.706631677   48.202584619   22.548198205
    1.618396215    0.923997839   61.086227124   48.634444124   17.504048185
    1.808795770    0.923997839   69.645658025   39.881175575   12.311908499
    1.999195325    0.923997839   75.841853480   24.292569370    7.687278109
    2.189594880    0.923997839   78.656116073    4.851672747    3.961132885
    2.379994435    0.923997839   77.625941215  -15.652771406    1.155691994
    2.570393989    0.923997839   72.801049927  -34.557424607   -0.852537990
    2.760793544    0.923997839   64.740479337  -49.173962389   -2.183760563
    2.951193099    0.923997839   54.516608314  -56.946676803   -2.908045169

   -3.141592654    1.293596975   40.144808541  -55.985351896   -7.115906213
   -2.951193099    1.293596975   30.362605302  -45.754355322   -6.568424819
   -2.760793544    1.293596975   23.000191150  -31.345760667   -5.457611881
   -2.570393989    1.293596975   18.370118526  -17.903908746   -4.072746186
   -2.379994435    1.293596975   15.825461765  -10.000284692   -2.666225332
   -2.189594880    1.293596975   14.095211524   -9.312652854   -1.371471545
   -1.999195325    1.293596975   11.958603407  -13.568113062   -0.195686069
   -1.808795770    1.293596975    8.942032339  -17.580132310    0.902271059
   -1.618396215    1.293596975    5.627604745  -15.948942130    1.935082627
   -1.427996661    1.293596975    3.400516962   -6.061470863    2.866637987
   -1.237597106    1.293596975    3.749437783   10.494185164    3.651517271
   -1.047197551    1.293596975    7.510773995   28.765918068    4.292499074
   -0.856797996    1.293596975   14.449240781   42.969103130    4.882217707
   -0.666398442    1.293596975   23.362740061   48.997214305    5.600217659
   -0.475998887    1.293596975   32.536565662   45.758147269    6.673656087
   -0.285599332    1.293596975   40.317902286   34.857758716    8.341475909
   -0.095199777    1.293596975   45.548072171   19.599947926   10.777390638
    0.095199777    1.293596975   47.777983204    4.068647626   14.009233715
    0.285599332    1.293596975   47.348020444   -7.700072579   17.790759442
    0.475998887    1.293596975   45.308233689  -12.433494230   21.545823107
    0.666398442    1.293596975   43.182326700   -8.578857922   24.447033381
    0.856797996    1.293596975   42.549588813    2.846901348   25.679534139
    1.047197551    1.293596975   44.541436876   18.188420676   24.773554223
    1.237597106    1.293596975   49.422517045   32.405292948   21.839669728
    1.427996661    1.293596975   56.520616239   40.852467382   17.512477734
    1.618396215    1.293596975   64.457921138   41.021171472   12.654926197
    1.808795770    1.293596975   71.615709853   32.861391593    8.009472446
    1.999195325    1.293596975   76.557027827   18.133570390    3.981314519
    2.189594880    1.293596975   78.272138441   -0.563689951    0.648550475
    2.379994435    1.293596975   76.268650350  -20.470449430   -2.078666992
    2.570393989    1.293596975   70.588237358  -38.680012188   -4.282019879
    2.760793544    1.293596975   61.837028502  -52.220790698   -5.932498326
    2.951193099    1.293596975   51.171433814  -58.461234819   -6.912062747

   -3.141592654    1.663196111   34.717903516  -56.487151880  -14.121606666
   -2.951193099    1.663196111   25.045054428  -44.166645341  -13.784207415
   -2.760793544    1.663196111   18.135236403  -28.326894883  -12.368262087
   -2.570393989    1.663196111   14.145528533  -14.341836475  -10.132440873
   -2.379994435    1.663196111   12.270458785   -6.622301019   -7.368523395
   -2.189594880    1.663196111   11.134396499   -6.477513788   -4.314576081
   -1.999195325    1.663196111    9.480084850  -11.333395137   -1.151425053
   -1.808795770    1.663196111    6.836024097  -15.897342159    1.919554270
   -1.618396215    1.663196111    3.792922175  -14.776217215    4.629923928
   -1.427996661    1.663196111    1.747684039   -5.302550224    6.699053248
   -1.237597106    1.663196111    2.223387088   11.119365168    7.961642414
   -1.047197551    1.663196111    6.130170974   29.750280923    8.483052624
   -0.856797996    1.663196111   13.335901859   44.871249009    8.568431857
   -0.666398442    1.663196111   22.734193508   52.224261575    8.655319088
   -0.475998887    1.663196111   32.660404805   50.425391275    9.144612583
   -0.285599332    1.663196111   41.453501981   40.753775349   10.278623296
   -0.095199777    1.663196111   47.886698471   26.239906884   12.075699933
    0.095199777    1.663196111   51.394103656   10.696398572   14.332680467
    0.285599332    1.663196111   52.148832546   -2.070215657   16.630789282
    0.475998887    1.663196111   50.999935546   -8.881820394   18.399464229
    0.666398442    1.663196111   49.279746370   -7.965225101   19.051754168
    0.856797996    1.663196111   48.457544485    0.266590288   18.198018740
    1.047197551    1.663196111   49.692375549   12.975570343   15.828385687
    1.237597106    1.663196111   53.421308022   25.739626256   12.365468966
    1.427996661    1.663196111   59.216187094   34.014449895    8.470846013
    1.618396215    1.663196111   65.907317287   34.853394339    4.748987470
    1.808795770    1.663196111   71.971817050   27.514186258    1.506583177
    1.999195325    1.663196111   75.945475292   13.229347743   -1.295637154
    2.189594880    1.663196111   76.727332301   -5.526432542   -3.894643341
    2.379994435    1.663196111   73.753202907  -25.691844014   -6.498825713
    2.570393989    1.663196111   67.074318482  -43.845139348   -9.118045471
    2.760793544    1.663196111   57.402388188  -56.575031994  -11.516837634
    2.951193099    1.663196111   46.052947882  -61.147404419  -13.307313086

   -3.141592654    2.032795246   27.839306149  -58.547730547  -16.485754562
   -2.951193099    2.032795246   18.008575275  -43.743663403  -15.950112374
   -2.760793544    2.032795246   11.410776975  -25.540020545  -14.163313173
   -2.570393989    2.032795246    8.141858948   -9.653962941  -11.405957813
   -2.379994435    2.032795246    7.293518910   -0.626306886   -7.996256185
   -2.189594880    2.032795246    7.377097276    0.241517539   -4.175762335
   -1.999195325    2.032795246    7.024483679   -4.484735073   -0.115692295
   -1.808795770    2.032795246    5.645926638   -9.569157884    3.966520963
   -1.618396215    2.032795246    3.706623413   -9.607026918    7.723316212
   -1.427996661    2.032795246    2.500155376   -1.702815966   10.731621980
   -1.237597106    2.032795246    3.511971515   13.192722371   12.664911109
   -1.047197551    2.032795246    7.709581968   30.840612706   13.474197520
   -0.856797996    2.032795246   15.094118565   45.790414882   13.432577141
   -0.666398442    2.032795246   24.710867034   53.683415480   13.011529148
   -0.475998887    2.032795246   34.996060270   52.739347872   12.660029680
   -0.285599332    2.032795246   44.301602935   43.747164462   12.622460199
   -0.095199777    2.032795246   51.326210946   29.335317075   12.852730466
    0.095199777    2.032795246   55.369508556   13.081929735   13.054771302
    0.285599332    2.032795246   56.444449688   -1.226662697   12.785279032
    0.475998887    2.032795246   55.257811546  -10.192662897   11.632505305
    0.666398442    2.032795246   53.066276478  -11.566643143    9.405711013
    0.856797996    2.032795246   51.374118016   -5.130433393    6.273012269
    1.047197551    2.032795246   51.490022229    6.830580944    2.740078702
    1.237597106    2.032795246   54.073243785   20.032199475   -0.523773560
    1.427996661    2.032795246   58.892967698   29.559760951   -3.001004807
    1.618396215    2.032795246   64.868381818   31.744377829   -4.553564623
    1.808795770    2.032795246   70.425106348   25.150936365   -5.461627001
    1.999195325    2.032795246   73.946811600   10.693316617   -6.252978239
    2.189594880    2.032795246   74.164705778   -9.000831821   -7.427402498
    2.379994435    2.032795246   70.414557348  -30.350496748   -9.224904032
    2.570393989    2.032795246   62.761755153  -49.296538537  -11.522733886
    2.760793544    2.032795246   52.045157677  -61.915571153  -13.881773499
    2.951193099    2.032795246   39.775490825  -65.286588673  -15.710200883

   -3.141592654    2.402394382   20.711446426  -61.077909448  -10.400643646
   -2.951193099    2.402394382   10.659093960  -43.493156835   -9.144239103
   -2.760793544    2.402394382    4.385882330  -22.426502783   -7.026792350
   -2.570393989    2.402394382    1.956172636   -4.044397192   -4.326325943
   -2.379994435    2.402394382    2.367365074    6.886241993   -1.253910213
   -2.189594880    2.402394382    4.011026403    9.004892508    2.138201123
   -1.999195325    2.402394382    5.391287384    4.826803229    5.883589166
   -1.808795770    2.402394382    5.774312881   -0.526505419    9.905054867
   -1.618396215    2.402394382    5.459744471   -1.731647948   13.868924663
   -1.427996661    2.402394382    5.578268411    4.232544212   17.226305254
   -1.237597106    2.402394382    7.503007502   16.824068069   19.431064876
   -1.047197551    2.402394382   12.184853968   32.361344125   20.207056747
   -0.856797996    2.402394382   19.707314742   45.837127327   19.671317751
   -0.666398442    2.402394382   29.253733787   53.000944323   18.248403518
   -0.475998887    2.402394382   39.383184378   51.823531831   16.440738078
   -0.285599332    2.402394382   48.499299031   42.624958908   14.594175950
   -0.095199777    2.402394382   55.259250627   27.574908470   12.772588675
    0.095199777    2.402394382   58.852903646    9.999759460   10.776892528
    0.285599332    2.402394382   59.169228104   -6.176836785    8.277067553
    0.475998887    2.402394382   56.855336731  -17.023856003    5.032702009
    0.666398442    2.402394382   53.235975407  -19.532646469    1.102626448
    0.856797996    2.402394382   50.024869983  -12.849725536   -3.063990107
    1.047197551    2.402394382   48.818059890    0.902050431   -6.750181649
    1.237597106    2.402394382   50.530771843   16.919977843   -9.255144646
    1.427996661    2.402394382   55.037666025   29.307039532  -10.245867659
    1.618396215    2.402394382   61.166042387   33.382805847   -9.909899369
    1.808795770    2.402394382   67.093016771   27.131845814   -8.864077464
    1.999195325    2.402394382   70.901579326   11.512895351   -7.862280404
    2.189594880    2.402394382   71.083127502  -10.291125447   -7.474016880
    2.379994435    2.402394382   66.868066944  -33.891014629   -7.889454788
    2.570393989    2.402394382   58.371470683  -54.454203457   -8.895450513
    2.760793544    2.402394382   46.610195992  -67.504972020  -10.000991570
    2.951193099    2.402394382   33.345234729  -69.930718137  -10.642868229

   -3.141592654    2.771993518   17.532343821  -60.727378858    0.849659609
   -2.951193099    2.771993518    7.674520246  -41.837812555    2.938830447
   -2.760793544    2.771993518    1.825560150  -19.686803149    5.244140768
   -2.570393989    2.771993518    0.000000000   -0.471633687    7.612378548
   -2.379994435    2.771993518    1.164436742   11.237488268   10.049804905
   -2.189594880    2.771993518    3.722968602   14.299096271   12.729410425
   -1.999195325    2.771993518    6.214065533   11.199240577   15.839947820
   -1.808795770    2.771993518    7.899026995    6.691106826   19.353016692
   -1.618396215    2.771993518    8.982329057    5.568083662   22.881191578
   -1.427996661    2.771993518   10.411308553   10.504913216   25.752946674
   -1.237597106    2.771993518   13.349145163   21.056158949   27.281425686
   -1.047197551    2.771993518   18.598268508   34.056431861   27.082428944
   -0.856797996    2.771993518   26.210292231   45.150356044   25.229672982
   -0.666398442    2.771993518   35.444764644   50.523069818   22.175151806
   -0.475998887    2.771993518   44.983143654   48.174710842   18.504760242
   -0.285599332    2.771993518   53.322011799   38.126956091   14.666908334
   -0.095199777    2.771993518   59.141100522   22.152706853   10.825376239
    0.095199777    2.771993518   61.592373285    3.378145066    6.880517854
    0.285599332    2.771993518   60.523629090  -14.085589867    2.631033416
    0.475998887    2.771993518   56.612080785  -25.765634602   -1.984487484
    0.666398442    2.771993518   51.330382274  -28.019633150   -6.697199267
    0.856797996    2.771993518   46.640419956  -19.647151641  -10.897352087
    1.047197551    2.771993518   44.400609138   -2.979202424  -13.847289258
    1.237597106    2.771993518   45.694562095   16.399622883  -15.011942235
    1.427996661    2.771993518   50.386037713   31.606129324  -14.346053020
    1.618396215    2.771993518   57.119599665   37.193821039  -12.316016268
    1.808795770    2.771993518   63.793657967   30.933442542   -9.685602347
    1.999195325    2.771993518   68.226592454   14.125906770   -7.183845553
    2.189594880    2.771993518   68.744583696   -9.394833917   -5.244562949
    2.379994435    2.771993518   64.543310782  -34.560361172   -3.925678358
    2.570393989    2.771993518   55.818359797  -56.044918686   -2.987982155
    2.760793544    2.771993518   43.735808209  -69.144410335   -2.065351246
    2.951193099    2.771993518   30.220386794  -70.814481245   -0.836635296
