#! FIELDS phi psi file.free der_phi der_psi
#! SET min_phi -pi
#! SET max_phi pi
#! SET nbins_phi  33
#! SET periodic_phi true
#! SET min_psi -pi
#! SET max_psi pi
#! SET nbins_psi  17
#! SET periodic_psi true
   -3.141592654   -3.141592654   20.670288459  -56.689040457   12.514371422
   -2.951193099   -3.141592654   11.522963399  -38.497690043   15.420009138
   -2.760793544   -3.141592654    6.220454075  -17.319320702   17.793056903
   -2.570393989   -3.141592654    4.754150381    0.978866172   19.587577618
   -2.379994435   -3.141592654    6.144044267   12.270116963   21.034458540
   -2.189594880   -3.141592654    8.921191948   15.698395405   22.556664677
   -1.999195325   -3.141592654   11.769772947   13.629945271   24.527664150
   -1.808795770   -3.141592654   14.030873383   10.269906575   26.993959291
   -1.618396215   -3.141592654   15.860953630    9.677955379   29.540801047
   -1.427996661   -3.141592654   18.033162813   13.993524789   31.413972075
   -1.237597106   -3.141592654   21.477150535   22.713472563   31.853140463
   -1.047197551   -3.141592654   26.798938623   33.089094853   30.456428077
   -0.856797996   -3.141592654   33.960221604   41.413101627   27.343859487
   -0.666398442   -3.141592654   42.247700109   44.420537040   23.039943286
   -0.475998887   -3.141592654   50.449603267   40.364381419   18.184535513
   -0.285599332   -3.141592654   57.189532668   29.241585248   13.227724345
   -0.095199777   -3.141592654   61.252733263   12.666931724    8.303378910
    0.095199777   -3.141592654   61.868614606   -6.353092908    3.307288755
    0.285599332   -3.141592654   58.955289605  -23.643078084   -1.878070636
    0.475998887   -3.141592654   53.290449360  -34.485929475   -7.138130175
    0.666398442   -3.141592654   46.500109752  -34.969572006  -12.002496237
    0.856797996   -3.141592654   40.733173751  -23.850343621  -15.748424260
    1.047197551   -3.141592654   38.006591158   -3.822420197  -17.696556809
    1.237597106   -3.141592654   39.457809206   18.820784558  -17.538918445
    1.427996661   -3.141592654   44.859880003   36.471531603  -15.515809202
    1.618396215   -3.141592654   52.655811733   43.287504900  -12.296310936
    1.808795770   -3.141592654   60.515853105   37.150021114   -8.673291982
    1.999195325   -3.141592654   66.088550858   19.824260312   -5.234690809
    2.189594880   -3.141592654   67.628457096   -4.344410415   -2.196536378
    2.379994435   -3.141592654   64.341500702  -29.959777757    0.554417983
    2.570393989   -3.141592654   56.472010893  -51.620871950    3.284456861
    2.760793544   -3.141592654   45.230138993  -64.732587436    6.204882840
    2.951193099   -3.141592654   32.552749333  -66.458441158    9.342277811

   -3.141592654   -2.771993518   28.264315220  -50.115246338   20.697342608
   -2.951193099   -2.771993518   20.188509398  -33.921257133   23.647842321
   -2.760793544   -2.771993518   15.546775031  -14.933952512   25.480038483
   -2.570393989   -2.771993518   14.360506856    1.671207859   26.291089620
   -2.379994435   -2.771993518   15.801950530   12.321039760   26.494781131
   -2.189594880   -2.771993518   18.622506887   16.279334075   26.658162388
   -1.999195325   -2.771993518   21.696516487   15.475861612   27.229774365
   -1.808795770   -2.771993518   24.427705263   13.262371767   28.295685611
   -1.618396215   -2.771993518   26.861711284   12.803907947   29.492992785
   -1.427996661   -2.771993518   29.523412616   15.753983981   30.143262704
   -1.237597106   -2.771993518   33.060874094   21.767562959   29.556100038
   -1.047197551   -2.771993518   37.885516615   28.792090252   27.352119449
   -0.856797996   -2.771993518   43.921136664   33.999041554   23.615844380
   -0.666398442   -2.771993518   50.566052230   34.777932208   18.809255551
   -0.475998887   -2.771993518   56.806625518   29.599276977   13.533166771
   -0.285599332   -2.771993518   61.466883526   18.304155927    8.248035329
   -0.095199777   -2.771993518   63.482079968    2.176636784    3.152127333
    0.095199777   -2.771993518   62.171328755  -16.047342136   -1.765439001
    0.285599332   -2.771993518   57.509805993  -32.252455886   -6.527776065
    0.475998887   -2.771993518   50.340690154  -41.580898771  -10.968915169
    0.666398442   -2.771993518   42.389026522  -39.955707890  -14.657196857
    0.856797996   -2.771993518   35.918631029  -26.162482304  -17.021831830
    1.047197551   -2.771993518   33.026764786   -3.236014978  -17.615808708
    1.237597106   -2.771993518   34.843117278   21.974717694  -16.365441421
    1.427996661   -2.771993518   41.027697991   41.386247664  -13.640299289
    1.618396215   -2.771993518   49.850030519   49.015447114  -10.076579932
    1.808795770   -2.771993518   58.821272923   43.025630300   -6.288952549
    1.999195325   -2.771993518   65.510667203   25.696532468   -2.621409128
    2.189594880   -2.771993518   68.188781658    1.804798860    0.919453914
    2.379994435   -2.771993518   66.131398449  -23.138857743    4.540494528
    2.570393989   -2.771993518   59.639380291  -43.990156295    8.447442285
    2.760793544   -2.771993518   49.906112463  -56.622772037   12.647113864
    2.951193099   -2.771993518   38.760941569  -58.638919306   16.880210416

   -3.141592654   -2.402394382   36.388843359  -44.295458609   20.120890406
   -2.951193099   -2.402394382   29.213060081  -30.340151765   22.357140695
   -2.760793544   -2.402394382   25.044260017  -13.466859583   23.460039845
   -2.570393989   -2.402394382   23.992670145    1.783304980   23.619278711
   -2.379994435   -2.402394382   25.411692724   12.155507608   23.241152092
   -2.189594880   -2.402394382   28.250342980   16.748280290   22.771268647
   -1.999195325   -2.402394382   31.505112042   16.891566366   22.487492196
   -1.808795770   -2.402394382   34.563078984   15.133946991   22.377660254
   -1.618396215   -2.402394382   37.307847673   13.970127819   22.148489207
   -1.427996661   -2.402394382   40.014069589   14.843040150   21.362626319
   -1.237597106   -2.402394382   43.095002433   17.790360565   19.645389270
   -1.047197551   -2.402394382   46.848656632   21.588629093   16.865560888
   -0.856797996   -2.402394382   51.258646807   24.324053744   13.185960136
   -0.666398442   -2.402394382   55.928194843   23.962783854    8.968263773
   -0.475998887   -2.402394382   60.108093864   18.973527352    4.611790736
   -0.285599332   -2.402394382   62.836527248    8.740633860    0.380803909
   -0.095199777   -2.402394382   63.156287784   -6.061321775   -3.635702270
    0.095199777   -2.402394382   60.394365657  -23.075147787   -7.459745273
    0.285599332   -2.402394382   54.499293407  -38.168295156  -11.067030901
    0.475998887   -2.402394382   46.322654871  -46.173995944  -14.261235023
    0.666398442   -2.402394382   37.660798402  -42.717221552  -16.654257698
    0.856797996   -2.402394382   30.879070733  -26.592903049  -17.804346690
    1.047197551   -2.402394382   28.139635852   -1.213877140  -17.426077659
    1.237597106   -2.402394382   30.544812278   26.032416783  -15.566504011
    1.427996661   -2.402394382   37.633901476   46.690261703  -12.607929921
    1.618396215   -2.402394382   47.520017213   54.774869455   -9.088828445
    1.808795770   -2.402394382   57.593706729   48.815674181   -5.468110479
    1.999195325   -2.402394382   65.390148568   31.577159108   -1.952371670
    2.189594880   -2.402394382   69.226814318    8.161740235    1.515443760
    2.379994435   -2.402394382   68.455285667  -15.954040365    5.120858990
    2.570393989   -2.402394382   63.412165142  -36.009577512    8.986788835
    2.760793544   -2.402394382   55.234476536  -48.407120603   13.018245812
    2.951193099   -2.402394382   45.603285354  -51.137784245   16.881884724

   -3.141592654   -2.032795246   42.263001776  -40.327975455   13.900294979
   -2.951193099   -2.032795246   35.665071753  -28.273172163   15.272178298
   -2.760793544   -2.032795246   31.714935477  -13.170269096   15.841036285
   -2.570393989   -2.032795246   30.593396733    0.863242105   15.740640165
   -2.379994435   -2.032795246   31.776451603   10.700196694   15.204024378
   -2.189594880   -2.032795246   34.324544434   15.187281685   14.457530621
   -1.999195325   -2.032795246   37.273343142   15.193504950   13.618592482
   -1.808795770   -2.032795246   39.961253493   12.849626882   12.665594738
   -1.618396215   -2.032795246   42.166683532   10.496798388   11.471773985
   -1.427996661   -2.032795246   44.063329911    9.779430874    9.883413288
   -1.237597106   -2.032795246   46.029080514   11.206725324    7.808011293
   -1.047197551   -2.032795246   48.426099316   14.072452075    5.276478526
   -0.856797996   -2.032795246   51.388212963   16.801363469    2.437433035
   -0.666398442   -2.032795246   54.697547567   17.340837885   -0.506532735
   -0.475998887   -2.032795246   57.747160494   13.773840962   -3.371825865
   -0.285599332   -2.032795246   59.622586499    4.937550069   -6.076854623
   -0.095199777   -2.032795246   59.315255370   -8.944064067   -8.638059392
    0.095199777   -2.032795246   56.043929329  -25.622472721  -11.124054034
    0.285599332   -2.032795246   49.666879517  -40.687009243  -13.535077574
    0.475998887   -2.032795246   41.024779588  -48.457274394  -15.706925910
    0.666398442   -2.032795246   31.999530200  -44.118507998  -17.293969924
    0.856797996   -2.032795246   25.094024220  -26.377080152  -17.886232450
    1.047197551   -2.032795246   22.585321332    1.018487485  -17.201820836
    1.237597106   -2.032795246   25.599835385   30.125340124  -15.258198352
    1.427996661   -2.032795246   33.599011157   52.026807577  -12.381264737
    1.618396215   -2.032795246   44.560245789   60.611582891   -9.052454783
    1.808795770   -2.032795246   55.749387925   54.635598817   -5.698200276
    1.999195325   -2.032795246   64.640055326   37.256545675   -2.536949711
    2.189594880   -2.032795246   69.559274596   13.892764066    0.433650922
    2.379994435   -2.032795246   69.904614778   -9.926544431    3.332680477
    2.570393989   -2.032795246   66.041302982  -29.678768016    6.251454169
    2.760793544   -2.032795246   59.071068083  -42.157964467    9.137661036
    2.951193099   -2.032795246   50.568627688  -45.668894459   11.781822902

   -3.141592654   -1.663196111   42.015252798  -39.738233997   12.548085439
   -2.951193099   -1.663196111   35.549116788  -27.491320632   13.230124211
   -2.760793544   -1.663196111   31.758608718  -12.313185135   12.969548811
   -2.570393989   -1.663196111   30.784874034    1.492223078   11.883814081
   -2.379994435   -1.663196111   32.033152838   10.683550588   10.187253797
   -2.189594880   -1.663196111   34.483019749   14.109658140    8.091417536
   -1.999195325   -1.663196111   37.102490863   12.787065238    5.731014312
   -1.808795770   -1.663196111   39.202708401    9.110871824    3.174184964
   -1.618396215   -1.663196111   40.592615650    5.752171133    0.476369384
   -1.427996661   -1.663196111   41.538227830    4.656470945   -2.271751705
   -1.237597106   -1.663196111   42.554640443    6.495552614   -4.929268580
   -1.047197551   -1.663196111   44.151460825   10.483788185   -7.326321562
   -0.856797996   -1.663196111   46.572515509   14.735186222   -9.312947755
   -0.666398442   -1.663196111   49.633205880   16.751588081  -10.807318960
   -0.475998887   -1.663196111   52.677493944   14.198766533  -11.814728990
   -0.285599332   -1.663196111   54.676443026    5.695536077  -12.446787364
   -0.095199777   -1.663196111   54.489637559   -8.538385054  -12.882832887
    0.095199777   -1.663196111   51.223500532  -26.016744422  -13.315166321
    0.285599332   -1.663196111   44.686222090  -41.944576934  -13.842803604
    0.475998887   -1.663196111   35.750193329  -50.184505872  -14.392163403
    0.666398442   -1.663196111   26.410563806  -45.550855507  -14.707446162
    0.856797996   -1.663196111   19.329286220  -26.659928964  -14.456458350
    1.047197551   -1.663196111   16.926238012    2.461758076  -13.394178395
    1.237597106   -1.663196111   20.388875936   33.336976546  -11.513669357
    1.427996661   -1.663196111   29.132296189   56.505220656   -9.043282407
    1.618396215   -1.663196111   41.004129690   65.550125565   -6.319801696
    1.808795770   -1.663196111   53.113123620   59.240359818   -3.622829069
    1.999195325   -1.663196111   62.803774269   40.987450815   -1.066633571
    2.189594880   -1.663196111   68.332294499   16.548869302    1.390345526
    2.379994435   -1.663196111   69.086181520   -8.260507732    3.851851563
    2.570393989   -1.663196111   65.466280884  -28.738291280    6.365269256
    2.760793544   -1.663196111   58.632732914  -41.610637882    8.831467293
    2.951193099   -1.663196111   50.222368105  -45.206103867   10.998430664

   -3.141592654   -1.293596975   41.642002157  -40.732467821    9.463716448
   -2.951193099   -1.293596975   34.939349388  -28.972589376    9.396409915
   -2.760793544   -1.293596975   30.828939666  -14.178312408    8.581615891
   -2.570393989   -1.293596975   29.468471094   -0.708343440    7.108399164
   -2.379994435   -1.293596975   30.261532816    8.081134411    5.069504660
   -2.189594880   -1.293596975   32.165080923   10.942937354    2.503205793
   -1.999195325   -1.293596975   34.116868274    8.933502150   -0.596017784
   -1.808795770   -1.293596975   35.422422137    4.659109900   -4.175825701
   -1.618396215   -1.293596975   35.937008109    1.101503243   -8.025608757
   -1.427996661   -1.293596975   36.028903549    0.459040961  -11.758171579
   -1.237597106   -1.293596975   36.345237583    3.452007678  -14.898343545
   -1.047197551   -1.293596975   37.513240129    9.079972013  -17.040678928
   -0.856797996   -1.293596975   39.834529246   15.071844431  -17.991571101
   -0.666398442   -1.293596975   43.102439069   18.510105757  -17.826783541
   -0.475998887   -1.293596975   46.569414446   16.756644730  -16.836030836
   -0.285599332   -1.293596975   49.073187356    8.315965400  -15.419581382
   -0.095199777   -1.293596975   49.335786943   -6.544007487  -13.952488429
    0.095199777   -1.293596975   46.349815688  -25.123040673  -12.693759704
    0.285599332   -1.293596975   39.864987547  -42.269315156  -11.710954088
    0.475998887   -1.293596975   30.775199632  -51.378466660  -10.884309541
    0.666398442   -1.293596975   21.185725665  -46.835081013   -9.975137705
    0.856797996   -1.293596975   13.927552747  -27.085231733   -8.758306361
    1.047197551   -1.293596975   11.586915735    3.610019029   -7.149749915
    1.237597106   -1.293596975   15.438184200   36.236927373   -5.267583607
    1.427996661   -1.293596975   24.872300642   60.745534564   -3.343099934
    1.618396215   -1.293596975   37.619941612   70.363476781   -1.578654828
    1.808795770   -1.293596975   50.636768208   63.842046794   -0.034744249
    1.999195325   -1.293596975   61.137159608   44.819911868    1.377423235
    2.189594880   -1.293596975   67.301213649   19.371144575    2.806154019
    2.379994435   -1.293596975   68.495854985   -6.439800621    4.350739839
    2.570393989   -1.293596975   65.137615458  -27.786051264    5.987462177
    2.760793544   -1.293596975   58.414073866  -41.389178379    7.554368179
    2.951193099   -1.293596975   49.983884496  -45.624554332    8.797295763

   -3.141592654   -0.923997839   42.413194053  -42.234820054    4.662966528
   -2.951193099   -0.923997839   35.357849295  -31.136582594    3.500004696
   -2.760793544   -0.923997839   30.791239757  -16.762015781    1.805661249
   -2.570393989   -0.923997839   28.913125856   -3.548507063   -0.282836789
   -2.379994435   -0.923997839   29.139855723    4.948344366   -2.699386616
   -2.189594880   -0.923997839   30.402565905    7.298195641   -5.485891334
   -1.999195325   -0.923997839   31.593346398    4.564205148   -8.716972601
   -1.808795770   -0.923997839   31.997738896   -0.396621841  -12.336685633
   -1.618396215   -0.923997839   31.516170102   -4.198973491  -16.036723926
   -1.427996661   -0.923997839   30.636458810   -4.295232716  -19.275760219
   -1.237597106   -0.923997839   30.170098219    0.130084855  -21.450334327
   -1.047197551   -0.923997839   30.896967021    7.848859502  -22.139036840
   -0.856797996   -0.923997839   33.201626031   16.112639952  -21.276054882
   -0.666398442   -0.923997839   36.858920212   21.456595052  -19.167433467
   -0.475998887   -0.923997839   41.007000395   20.802561804  -16.350308635
   -0.285599332   -0.923997839   44.306595087   12.462889362  -13.383477993
   -0.095199777   -0.923997839   45.294326364   -3.208802445  -10.661046927
    0.095199777   -0.923997839   42.819000913  -23.142332290   -8.331736324
    0.285599332   -0.923997839   36.577188546  -41.645904021   -6.305795642
    0.475998887   -0.923997839   27.517678171  -51.555239761   -4.371465051
    0.666398442   -0.923997839   17.889152131  -46.918300011   -2.352773565
    0.856797996   -0.923997839   10.692024162  -26.260266109   -0.245625634
    1.047197551   -0.923997839    8.628678673    5.691381994    1.750878764
    1.237597106   -0.923997839   12.983222199   39.353136051    3.322781121
    1.427996661   -0.923997839   23.064050929   64.305300041    4.240855010
    1.618396215   -0.923997839   36.484217074   73.778769009    4.500641681
    1.808795770   -0.923997839   50.109040355   66.779508387    4.335928766
    1.999195325   -0.923997839   61.116644802   47.210962038    4.094262552
    2.189594880   -0.923997839   67.688572906   21.271376949    4.058374750
    2.379994435   -0.923997839   69.200338724   -5.013951022    4.325023595
    2.570393989   -0.923997839   66.062669009  -26.916086387    4.781783342
    2.760793544   -0.923997839   59.439814717  -41.227749715    5.171581926
    2.951193099   -0.923997839   50.962378263  -46.295511846    5.202072398

   -3.141592654   -0.554398704   43.155750355  -45.263415818    1.310181441
   -2.951193099   -0.554398704   35.427897963  -35.098799602   -0.819459166
   -2.760793544   -0.554398704   30.051414836  -21.225013980   -3.297940400
   -2.570393989   -0.554398704   27.303917558   -8.181582179   -5.902033054
   -2.379994435   -0.554398704   26.637831030    0.184453492   -8.545007331
   -2.189594880   -0.554398704   26.966186489    2.208215178  -11.310588605
   -1.999195325   -0.554398704   27.144543058   -0.973891858  -14.319121575
   -1.808795770   -0.554398704   26.470082009   -6.095662519  -17.504837837
   -1.618396215   -0.554398704   24.948898094   -9.250652558  -20.480053346
   -1.427996661   -0.554398704   23.254650344   -7.615422243  -22.612899466
   -1.237597106   -0.554398704   22.395001356   -0.570518046  -23.293608971
   -1.047197551   -0.554398704   23.265250265   10.042013646  -22.243589123
   -0.856797996   -0.554398704   26.229883766   20.718058037  -19.661260655
   -0.666398442   -0.554398704   30.914175788   27.435372719  -16.127050095
   -0.475998887   -0.554398704   36.235122840   26.945856393  -12.345028078
   -0.285599332   -0.554398704   40.638404170   17.782601670   -8.852089033
   -0.095199777   -0.554398704   42.516733292    0.785114226   -5.848078431
    0.095199777   -0.554398704   40.678607492  -20.383920275   -3.194855412
    0.285599332   -0.554398704   34.886460488  -39.558833426   -0.554034758
    0.475998887   -0.554398704   26.220506243  -49.395503011    2.371114764
    0.666398442   -0.554398704   17.057165385  -44.151767619    5.606010125
    0.856797996   -0.554398704   10.451676268  -22.871016956    8.807870311
    1.047197551   -0.554398704    9.055666161    9.174455939   11.377091106
    1.237597106   -0.554398704   14.023376443   42.182993691   12.734681550
    1.427996661   -0.554398704   24.535794433   65.954239024   12.640081963
    1.618396215   -0.554398704   38.152745650   74.233267430   11.318971774
    1.808795770   -0.554398704   51.783947045   66.489200330    9.352225847
    1.999195325   -0.554398704   62.713128895   46.768486194    7.397106317
    2.189594880   -0.554398704   69.220408258   21.069368204    5.905695361
    2.379994435   -0.554398704   70.719559835   -4.979554728    4.985840943
    2.570393989   -0.554398704   67.584050244  -27.009033850    4.427144728
    2.760793544   -0.554398704   60.888834686  -41.979734706    3.847732085
    2.951193099   -0.554398704   52.169665872  -48.135368147    2.876638663

   -3.141592654   -0.184799568   43.120426952  -49.486044206   -1.001408064
   -2.951193099   -0.184799568   34.502815033  -40.119757859   -3.450993009
   -2.760793544   -0.184799568   28.134186251  -26.532693812   -6.072266106
   -2.570393989   -0.184799568   24.379703248  -13.414026262   -8.634373237
   -2.379994435   -0.184799568   22.728264291   -4.957792590  -11.069316523
   -2.189594880   -0.184799568   22.070196776   -3.043776849  -13.486180454
   -1.999195325   -0.184799568   21.232884575   -6.353402109  -16.003878382
   -1.808795770   -0.184799568   19.559083692  -11.068601002  -18.516023083
   -1.618396215   -0.184799568   17.214495962  -12.713335679  -20.577494389
   -1.427996661   -0.184799568   15.104037154   -8.339843604  -21.539295400
   -1.237597106   -0.184799568   14.428978357    2.131910685  -20.872992299
   -1.047197551   -0.184799568   16.124556223   15.868484388  -18.495477877
   -0.856797996   -0.184799568   20.401277825   28.411619998  -14.856720446
   -0.666398442   -0.184799568   26.595296149   35.315356593  -10.736295116
   -0.475998887   -0.184799568   33.318723570   33.616148700   -6.888518429
   -0.285599332   -0.184799568   38.821822188   22.642177256   -3.705771700
   -0.095199777   -0.184799568   41.474310781    4.178145459   -1.100819250
    0.095199777   -0.184799568   40.222385599  -17.418434977    1.385865337
    0.285599332   -0.184799568   35.049224867  -35.852905105    4.302484147
    0.475998887   -0.184799568   27.218870720  -44.291992665    7.942363794
    0.666398442   -0.184799568   19.146703834  -37.943448985   12.097199018
    0.856797996   -0.184799568   13.739840070  -16.760419894   16.055353316
    1.047197551   -0.184799568   13.373364153   13.608338942   18.877634860
    1.237597106   -0.184799568   18.927733014   43.787110554   19.826909410
    1.427996661   -0.184799568   29.454162755   64.561972637   18.734475668
    1.618396215   -0.184799568   42.582301177   70.695434788   16.061959503
    1.808795770   -0.184799568   55.443734188   62.178606606   12.666007314
    1.999195325   -0.184799568   65.579468841   42.909930647    9.408437547
    2.189594880   -0.184799568   71.448861656   18.267668529    6.832239113
    2.379994435   -0.184799568   72.510856845   -6.845693758    5.037401935
    2.570393989   -0.184799568   69.061268734  -28.571131505    3.755312153
    2.760793544   -0.184799568   62.034168297  -44.021695085    2.548005457
    2.951193099   -0.184799568   52.832789136  -51.219234320    1.023744860

   -3.141592654    0.184799568   42.629833208  -53.463725387   -3.105608355
   -2.951193099    0.184799568   33.199689198  -44.576341985   -5.132160044
   -2.760793544    0.184799568   25.973040484  -31.008315323   -7.077286324
   -2.570393989    0.184799568   21.389183862  -17.624200153   -8.840684886
   -2.379994435    0.184799568   18.961100574   -8.929861746  -10.468688400
   -2.189594880    0.184799568   17.557076968   -6.919632812  -12.115372260
   -1.999195325    0.184799568   15.997475072   -9.997338049  -13.865027495
   -1.808795770    0.184799568   13.702340186  -13.789044905  -15.543414028
   -1.618396215    0.184799568   11.014904141  -13.400599789  -16.673180379
   -1.427996661    0.184799568    9.047453336   -6.036934204  -16.660775580
   -1.237597106    0.184799568    9.115658077    7.565450286  -15.124540088
   -1.047197551    0.184799568   12.076227636   23.473218930  -12.169916742
   -0.856797996    0.184799568   17.870709910   36.432307999   -8.390726872
   -0.666398442    0.184799568   25.487156160   41.976143676   -4.585226954
   -0.475998887    0.184799568   33.262229529   37.925980133   -1.368688959
   -0.285599332    0.184799568   39.367696323   24.785552776    1.132735751
   -0.095199777    0.184799568   42.314344013    5.386380405    3.304233728
    0.095199777    0.184799568   41.337982489  -15.458535250    5.816967572
    0.285599332    0.184799568   36.722308469  -31.807752870    9.239213058
    0.475998887    0.184799568   29.893795923  -37.885979277   13.666673707
    0.666398442    0.184799568   23.193901100  -30.223970369   18.544394977
    0.856797996    0.184799568   19.228357533   -9.729236675   22.811951261
    1.047197551    0.184799568   19.966135329   17.862536111   25.333732893
    1.237597106    0.184799568   25.958953626   44.048470784   25.407498915
    1.427996661    0.184799568   36.155940909   60.987456940   23.081071818
    1.618396215    0.184799568   48.338770112   64.634631056   19.086306117
    1.808795770    0.184799568   59.954516498   55.457856205   14.478999564
    1.999195325    0.184799568   68.872349262   37.034948115   10.194074516
    2.189594880    0.184799568   73.766191859   13.938356732    6.752141977
    2.379994435    0.184799568   74.144776025   -9.784441588    4.206813755
    2.570393989    0.184799568   70.214002936  -30.831536790    2.280474658
    2.760793544    0.184799568   62.752675228  -46.445240912    0.588270569
    2.951193099    0.184799568   53.024960271  -54.378404467   -1.170596345

   -3.141592654    0.554398704   43.768537509  -55.215124990   -2.587323654
   -2.951193099    0.554398704   33.932987241  -47.041185100   -3.645967292
   -2.760793544    0.554398704   26.183795475  -33.977891636   -4.599936188
   -2.570393989    0.554398704   21.006943072  -20.839608482   -5.483483581
   -2.379994435    0.554398704   17.958876532  -12.201195422   -6.380939728
   -2.189594880    0.554398704   15.939308611  -10.076556687   -7.379006006
   -1.999195325    0.554398704   13.812738388  -12.717730173   -8.458250494
   -1.808795770    0.554398704   11.086125666  -15.482403097   -9.413644542
   -1.618396215    0.554398704    8.231382449  -13.357133791   -9.876716446
   -1.427996661    0.554398704    6.475293011   -3.837123579   -9.473006063
   -1.237597106    0.554398704    7.152934988   11.648646277   -8.035221641
   -1.047197551    0.554398704   10.994555910   28.424835451   -5.744754510
   -0.856797996    0.554398704   17.706622666   40.907624208   -3.065496537
   -0.666398442    0.554398704   26.045189047   44.980657784   -0.498822070
   -0.475998887    0.554398704   34.236655863   39.370066114    1.685891964
   -0.285599332    0.554398704   40.532931409   25.558984223    3.622946986
   -0.095199777    0.554398704   43.680108988    6.983412171    5.780517251
    0.095199777    0.554398704   43.200706648  -11.659102251    8.726245238
    0.285599332    0.554398704   39.570481686  -25.268072674   12.780690596
    0.475998887    0.554398704   34.199452055  -29.353474012   17.741447439
    0.666398442    0.554398704   29.169578419  -21.607863886   22.805486203
    0.856797996    0.554398704   26.666227525   -3.373163916   26.794590160
    1.047197551    0.554398704   28.248700805   20.169456124   28.617516237
    1.237597106    0.554398704   34.244894841   41.832564559   27.747253357
    1.427996661    0.554398704   43.654626659   55.197082701   24.448764656
    1.618396215    0.554398704   54.537277944   57.107984516   19.621583430
    1.808795770    0.554398704   64.709197868   48.103032073   14.390444210
    1.999195325    0.554398704   72.354316996   31.178033325    9.672538494
    2.189594880    0.554398704   76.321051950   10.073146481    5.939937846
    2.379994435    0.554398704   76.140230644  -11.886416358    3.226307149
    2.570393989    0.554398704   71.926553423  -31.833350088    1.288427286
    2.760793544    0.554398704   64.315245563  -47.140540714   -0.186272430
    2.951193099    0.554398704   54.429036620  -55.428448831   -1.439242966

   -3.141592654    0.923997839   43.635925821  -56.031129447   -2.887750482
   -2.951193099    0.923997839   33.670391028  -47.558609256   -2.647543354
   -2.760793544    0.923997839   25.851468152  -34.188807766   -2.162551858
   -2.570393989    0.923997839   20.655938346  -20.848475128   -1.685301376
   -2.379994435    0.923997839   17.608300137  -12.227564311   -1.432703187
   -2.189594880    0.923997839   15.563225806  -10.345345384   -1.510070751
   -1.999195325    0.923997839   13.354677674  -13.301318210   -1.867346549
   -1.808795770    0.923997839   10.498845366  -16.209218373   -2.323492610
   -1.618396215    0.923997839    7.518681641  -13.890393983   -2.633576263
   -1.427996661    0.923997839    5.703292403   -3.897934683   -2.578848816
   -1.237597106    0.923997839    6.418834424   12.077383492   -2.046995079
   -1.047197551    0.923997839   10.371276175   29.099349394   -1.070507445
   -0.856797996    0.923997839   17.211809168   41.551673054    0.219982965
   -0.666398442    0.923997839   25.668324262   45.613504620    1.697272467
   -0.475998887    0.923997839   34.015510058   40.494691826    3.340360000
   -0.285599332    0.923997839   40.640733401   28.050053934    5.302520097
   -0.095199777    0.923997839   44.465084698   11.732390911    7.852728327
    0.095199777    0.923997839   45.144662629   -4.226157273   11.241841277
    0.285599332    0.923997839   43.158304654  -15.592844772   15.476615435
    0.475998887    0.923997839   39.735084325  -18.886523588   20.148387507
    0.666398442    0.923997839   36.604060936  -12.520465806   24.422217744
    0.856797996    0.923997839   35.522917213    2.154364097   27.274974525
    1.047197551    0.923997839   37.702236028   20.793649937   27.896554306
    1.237597106    0.923997839   43.341766523   37.598053554   26.057019098
    1.427996661    0.923997839   51.582636627   47.465802085   22.204492123
    1.618396215    0.923997839   60.822221577   47.935261120   17.241771759
    1.808795770    0.923997839   69.267074194   39.403657062   12.144823170
    1.999195325    0.923997839   75.403146899   24.150129605    7.625108754
    2.189594880    0.923997839   78.224320685    5.061562184    4.003405697
    2.379994435    0.923997839   77.262196812  -15.166913909    1.286963975
    2.570393989    0.923997839   72.545159459  -33.935759932   -0.660954787
    2.760793544    0.923997839   64.602970730  -48.578058116   -1.965855593
    2.951193099    0.923997839   54.478773247  -56.511884337   -2.693286049

   -3.141592654    1.293596975   40.282048183  -55.935671974   -6.915216808
   -2.951193099    1.293596975   30.484130775  -45.956775775   -6.429434830
   -2.760793544    1.293596975   23.065185433  -31.719629394   -5.367296813
   -2.570393989    1.293596975   18.356097115  -18.340815822   -4.012058217
   -2.379994435    1.293596975   15.731119015  -10.390294753   -2.619430779
   -2.189594880    1.293596975   13.938149540   -9.570356470   -1.329631272
   -1.999195325    1.293596975   11.768473433  -13.656453452   -0.157133081
   -1.808795770    1.293596975    8.749908738  -17.521337768    0.933081491
   -1.618396215    1.293596975    5.455161307  -15.814256133    1.947900281
   -1.427996661    1.293596975    3.253573081   -5.941710204    2.845836903
   -1.237597106    1.293596975    3.617505421   10.523691902    3.576999649
   -1.047197551    1.293596975    7.372484742   28.669484974    4.143050492
   -0.856797996    1.293596975   14.280674555   42.752071059    4.640587458
   -0.666398442    1.293596975   23.144524005   48.704094178    5.259564084
   -0.475998887    1.293596975   32.260705273   45.460805192    6.241700657
   -0.285599332    1.293596975   39.992090539   34.647107287    7.838872454
   -0.095199777    1.293596975   45.197356165   19.562444525   10.230761971
    0.095199777    1.293596975   47.440826208    4.251259488   13.441903329
    0.285599332    1.293596975   47.065248442   -7.322685024   17.217746327
    0.475998887    1.293596975   45.107765722  -11.969754364   20.975934704
    0.666398442    1.293596975   43.065701345   -8.188475948   23.889135933
    0.856797996    1.293596975   42.487922884    3.013893465   25.147274480
    1.047197551    1.293596975   44.483339240   18.055820839   24.285100702
    1.237597106    1.293596975   49.312371254   32.006924389   21.413743921
    1.427996661    1.293596975   56.319297298   40.322193675   17.166569893
    1.618396215    1.293596975   64.157822933   40.546964154   12.405531735
    1.808795770    1.293596975   71.244839396   32.617523999    7.873045172
    1.999195325    1.293596975   76.170394661   18.220703867    3.970021153
    2.189594880    1.293596975   77.934070275   -0.150615800    0.762125389
    2.379994435    1.293596975   76.032470465  -19.837674211   -1.860980840
    2.570393989    1.293596975   70.480350268  -37.994172587   -4.001387677
    2.760793544    1.293596975   61.851002733  -51.652137747   -5.640066503
    2.951193099    1.293596975   51.272301587  -58.129129445   -6.652660508

   -3.141592654    1.663196111   34.945711732  -56.593737207  -13.854935173
   -2.951193099    1.663196111   25.228354082  -44.508471529  -13.610292893
   -2.760793544    1.663196111   18.239848945  -28.790275707  -12.271183900
   -2.570393989    1.663196111   14.159674978  -14.809873354  -10.083963550
   -2.379994435    1.663196111   12.203234299   -6.994677458   -7.342066734
   -2.189594880    1.663196111   11.011046316   -6.686994185   -4.293020911
   -1.999195325    1.663196111    9.334230438  -11.362135414   -1.128841170
   -1.808795770    1.663196111    6.699136634  -15.786023491    1.940692284
   -1.618396215    1.663196111    3.683557394  -14.614249458    4.642148194
   -1.427996661    1.663196111    1.665039045   -5.199489879    6.692360009
   -1.237597106    1.663196111    2.147033510   11.072793745    7.924623774
   -1.047197551    1.663196111    6.026745485   29.512597798    8.403959090
   -0.856797996    1.663196111   13.169890997   44.459382613    8.436831522
   -0.666398442    1.663196111   22.478460376   51.710819522    8.465151278
   -0.475998887    1.663196111   32.305512518   49.918024002    8.896086103
   -0.285599332    1.663196111   41.012016123   40.371892113    9.977240115
   -0.095199777    1.663196111   47.392363080   26.080367742   11.728629926
    0.095199777    1.663196111   50.894385037   10.800353972   13.944703961
    0.285599332    1.663196111   51.691889405   -1.737307981   16.204007400
    0.475998887    1.663196111   50.619903823   -8.429480108   17.937899079
    0.666398442    1.663196111   48.985130691   -7.545106338   18.567487193
    0.856797996    1.663196111   48.228072988    0.511655299   17.714032634
    1.047197551    1.663196111   49.485844232   12.966897468   15.375192167
    1.237597106    1.663196111   53.189774076   25.499583549   11.974024495
    1.427996661    1.663196111   58.925908406   33.665233364    8.167897663
    1.618396215    1.663196111   65.554568728   34.579692243    4.555850808
    1.808795770    1.663196111   71.588449609   27.490906967    1.440423781
    1.999195325    1.663196111   75.589779211   13.549037603   -1.223799442
    2.189594880    1.663196111   76.463583258   -4.896628477   -3.686496908
    2.379994435    1.663196111   73.627789541  -24.900402283   -6.176893523
    2.570393989    1.663196111   67.098801758  -43.095833601   -8.727674672
    2.760793544    1.663196111   57.550676282  -56.048281354  -11.117711033
    2.951193099    1.663196111   46.271818495  -60.938594149  -12.956045982

   -3.141592654    2.032795246   28.175449624  -58.839285712  -16.232540976
   -2.951193099    2.032795246   18.265233025  -44.259759941  -15.798337323
   -2.760793544    2.032795246   11.559962511  -26.126952039  -14.098032238
   -2.570393989    2.032795246    8.182920319  -10.184596326  -11.395229318
   -2.379994435    2.032795246    7.246141722   -1.013793317   -8.005541299
   -2.189594880    2.032795246    7.273401288    0.041127142   -4.178387483
   -1.999195325    2.032795246    6.900650202   -4.500478865   -0.097258257
   -1.808795770    2.032795246    5.532839669   -9.453631804    4.008929411
   -1.618396215    2.032795246    3.620433007   -9.456299941    7.784007118
   -1.427996661    2.032795246    2.436607437   -1.631040741   10.799125249
   -1.237597106    2.032795246    3.446468676   13.091103015   12.724593261
   -1.047197551    2.032795246    7.604156747   30.523121178   13.510468128
   -0.856797996    2.032795246   14.908926179   45.279149948   13.431749850
   -0.666398442    2.032795246   24.415941633   53.061168700   12.965041673
   -0.475998887    2.032795246   34.581339962   52.125735064   12.565349884
   -0.285599332    2.032795246   43.780981308   43.269569265   12.481069489
   -0.095199777    2.032795246   50.735656141   29.091964765   12.665965162
    0.095199777    2.032795246   54.758597343   13.112344560   12.820642353
    0.285599332    2.032795246   55.863469314   -0.954033098   12.499842042
    0.475998887    2.032795246   54.744372130   -9.776234406   11.295971246
    0.666398442    2.032795246   52.634941362  -11.142948304    9.029446054
    0.856797996    2.032795246   51.013152558   -4.833254028    5.882256089
    1.047197551    2.032795246   51.166476732    6.920308614    2.369483343
    1.237597106    2.032795246   53.747045557   19.926875835   -0.839182032
    1.427996661    2.032795246   58.536344853   29.372438087   -3.232941892
    1.618396215    2.032795246   64.482522922   31.658154350   -4.682880363
    1.808795770    2.032795246   70.046944656   25.342245795   -5.476171626
    1.999195325    2.032795246   73.639288361   11.246777028   -6.146255160
    2.189594880    2.032795246   73.993417646   -8.146102977   -7.202001794
    2.379994435    2.032795246   70.420078150  -29.387946017   -8.899556198
    2.570393989    2.032795246   62.941057590  -48.473576753  -11.136464366
    2.760793544    2.032795246   52.351278415  -61.430871751  -13.489368087
    2.951193099    2.032795246   40.134427826  -65.216490895  -15.367500043

   -3.141592654    2.402394382   21.123319534  -61.539291628  -10.258876978
   -2.951193099    2.402394382   10.958103507  -44.182696205   -9.070523375
   -2.760793544    2.402394382    4.547438536  -23.149506060   -7.013242360
   -2.570393989    2.402394382    1.989034248   -4.653520662   -4.351443310
   -2.379994435    2.402394382    2.302378444    6.476838273   -1.292454236
   -2.189594880    2.402394382    3.889842256    8.824622500    2.106825604
   -1.999195325    2.402394382    5.256306181    4.854395199    5.871348561
   -1.808795770    2.402394382    5.659120202   -0.362006856    9.915363750
   -1.618396215    2.402394382    5.380132628   -1.540696861   13.898716326
   -1.427996661    2.402394382    5.527156914    4.325065082   17.268123386
   -1.237597106    2.402394382    7.451432281   16.717403124   19.475790699
   -1.047197551    2.402394382   12.089923668   32.013414027   20.246001870
   -0.856797996    2.402394382   19.524970707   45.277699905   19.698702755
   -0.666398442    2.402394382   28.951640755   52.323324770   18.262865783
   -0.475998887    2.402394382   38.950773814   51.155511976   16.443585404
   -0.285599332    2.402394382   47.950841972   42.094549897   14.585580432
   -0.095199777    2.402394382   54.630455635   27.273566117   12.747449105
    0.095199777    2.402394382   58.191562908    9.959312191   10.723764384
    0.285599332    2.402394382   58.523042843   -5.987481645    8.182048072
    0.475998887    2.402394382   56.260664341  -16.689341604    4.886889583
    0.666398442    2.402394382   52.709749487  -19.166318118    0.909182887
    0.856797996    2.402394382   49.562193570  -12.563837938   -3.287592000
    1.047197551    2.402394382   48.395959352    1.036392328   -6.976543910
    1.237597106    2.402394382   50.119557432   16.910666777   -9.455617784
    1.427996661    2.402394382   54.618160789   29.253869236  -10.397967562
    1.618396215    2.402394382   60.745432154   33.456075831  -10.000173339
    1.808795770    2.402394382   66.712213291   27.499705393   -8.886170758
    1.999195325    2.402394382   70.626012525   12.251147821   -7.813603645
    2.189594880    2.402394382   70.978431900   -9.261432666   -7.355790356
    2.379994435    2.402394382   66.970219122  -32.793566276   -7.710495863
    2.570393989    2.402394382   58.666560132  -53.570173309   -8.676399563
    2.760793544    2.402394382   47.034948139  -67.052718530   -9.774117345
    2.951193099    2.402394382   33.808072058  -69.979316634  -10.444233389

   -3.141592654    2.771993518   17.935050461  -61.238733436    0.796127081
   -2.951193099    2.771993518    7.954329467  -42.580319852    2.873562775
   -2.760793544    2.771993518    1.958990682  -20.447898832    5.167321068
   -2.570393989    2.771993518    0.000000000   -1.090941195    7.529565918
   -2.379994435    2.771993518    1.067618600   10.848603556    9.969881734
   -2.189594880    2.771993518    3.576260091   14.162676713   12.660673763
   -1.999195325    2.771993518    6.063092192   11.280726949   15.787382188
   -1.808795770    2.771993518    7.777977294    6.906207905   19.317470775
   -1.618396215    2.771993518    8.905436173    5.797267330   22.860655264
   -1.427996661    2.771993518   10.368730623   10.620522757   25.744413760
   -1.237597106    2.771993518   13.309242945   20.960401628   27.283685883
   -1.047197551    2.771993518   18.516479426   33.714242559   27.097284974
   -0.856797996    2.771993518   26.042342812   44.599678341   25.261911621
   -0.666398442    2.771993518   35.159421718   49.861619195   22.230331424
   -0.475998887    2.771993518   44.571176267   47.528318633   18.584518032
   -0.285599332    2.771993518   52.797969308   37.614467639   14.765020728
   -0.095199777    2.771993518   58.538748166   21.852345596   10.926199679
    0.095199777    2.771993518   60.955064362    3.309839346    6.961996121
    0.285599332    2.771993518   59.892970072  -13.957529171    2.671345752
    0.475998887    2.771993518   56.018551264  -25.518710576   -1.999212856
    0.666398442    2.771993518   50.787551258  -27.748241397   -6.767161029
    0.856797996    2.771993518   46.144329292  -19.438706513  -11.008157258
    1.047197551    2.771993518   43.933741724   -2.884238177  -13.974649849
    1.237597106    2.771993518   45.235391581   16.395950647  -15.130690693
    1.427996661    2.771993518   49.923315563   31.594472937  -14.439299379
    1.618396215    2.771993518   56.665599246   37.325197239  -12.380011685
    1.808795770    2.771993518   63.390608192   31.357942245   -9.728318556
    1.999195325    2.771993518   67.938566476   14.909596718   -7.217820213
    2.189594880    2.771993518   68.634882738   -8.332012142   -5.279587601
    2.379994435    2.771993518   64.645690636  -33.441032848   -3.964990425
    2.570393989    2.771993518   56.116626586  -55.152543970   -3.029955556
    2.760793544    2.771993518   44.163590649  -68.702772395   -2.108455541
    2.951193099    2.771993518   30.682117659  -70.896069637   -0.882504483
