#! FIELDS phi psi file.free der_phi der_psi
#! SET min_phi -pi
#! SET max_phi pi
#! SET nbins_phi  33
#! SET periodic_phi true
#! SET min_psi -pi
#! SET max_psi pi
#! SET nbins_psi  17
#! SET periodic_psi true
   -3.141592654   -3.141592654   19.355500050  -54.719009581   15.350949664
   -2.951193099   -3.141592654   10.712502024  -35.447136469   18.149722667
   -2.760793544   -3.141592654    5.976982516  -14.692524609   20.209444287
   -2.570393989   -3.141592654    4.876409185    2.035110494   21.627646715
   -2.379994435   -3.141592654    6.283620137   11.382721342   22.764513827
   -2.189594880   -3.141592654    8.739837438   13.342175559   24.141284612
   -1.999195325   -3.141592654   11.080934138   10.836293208   26.191050946
   -1.808795770   -3.141592654   12.866405474    8.237924767   28.982618145
   -1.618396215   -3.141592654   14.465538135    9.387513991   32.088202004
   -1.427996661   -3.141592654   16.797940768   15.981859736   34.699220147
   -1.237597106   -3.141592654   20.846636575   27.012575689   35.953995891
   -1.047197551   -3.141592654   27.180010433   39.290085674   35.311450412
   -0.856797996   -3.141592654   35.648249161   48.771768062   32.734385613
   -0.666398442   -3.141592654   45.369642409   51.907929086   28.603662270
   -0.475998887   -3.141592654   54.909813895   46.682516148   23.470931134
   -0.285599332   -3.141592654   62.629656523   32.960951186   17.791263558
   -0.095199777   -3.141592654   67.056752337   12.587254153   11.816441117
    0.095199777   -3.141592654   67.252974786  -10.698108765    5.658562929
    0.285599332   -3.141592654   63.149249355  -31.627674562   -0.543425849
    0.475998887   -3.141592654   55.747040507  -44.426836202   -6.468284210
    0.666398442   -3.141592654   47.060325738  -44.582993307  -11.573627944
    0.856797996   -3.141592654   39.676398773  -30.924628557  -15.236325101
    1.047197551   -3.141592654   35.972932305   -6.875222566  -17.003645469
    1.237597106   -3.141592654   37.261475572   20.076979844  -16.807695542
    1.427996661   -3.141592654   43.241119922   40.980113433  -15.011275641
    1.618396215   -3.141592654   52.045823015   48.948605242  -12.220130743
    1.808795770   -3.141592654   60.903343392   41.572071260   -9.009984636
    1.999195325   -3.141592654   67.055394401   21.290333661   -5.718861169
    2.189594880   -3.141592654   68.553767150   -6.184580385   -2.415347112
    2.379994435   -3.141592654   64.679955705  -34.014336424    0.984239232
    2.570393989   -3.141592654   55.980052189  -55.960786694    4.561429349
    2.760793544   -3.141592654   44.037860669  -67.528889136    8.282314474
    2.951193099   -3.141592654   31.063212846  -66.753181458   11.970104303

   -3.141592654   -2.771993518   28.335913727  -49.205022973   24.050002583
   -2.951193099   -2.771993518   20.517811799  -32.337959329   26.469977083
   -2.760793544   -2.771993518   16.155693252  -13.789200273   27.690535159
   -2.570393989   -2.771993518   15.080165015    1.581350500   27.988991194
   -2.379994435   -2.771993518   16.373193127   10.869345638   27.900220628
   -2.189594880   -2.771993518   18.831648281   14.066976150   28.053437375
   -1.999195325   -2.771993518   21.496055214   13.561897322   28.910144830
   -1.808795770   -2.771993518   23.985053653   12.786822018   30.530844061
   -1.618396215   -2.771993518   26.536075091   14.578219584   32.488953210
   -1.427996661   -2.771993518   29.776407608   20.013818500   33.994568200
   -1.237597106   -2.771993518   34.337158405   28.113244698   34.196084519
   -1.047197551   -2.771993518   40.501608413   36.313164476   32.527764445
   -0.856797996   -2.771993518   47.989565393   41.503709401   28.904160406
   -0.666398442   -2.771993518   55.963008051   40.998639919   23.683576422
   -0.475998887   -2.771993518   63.171272763   33.339779995   17.475556336
   -0.285599332   -2.771993518   68.230990759   18.611282905   10.883211385
   -0.095199777   -2.771993518   69.939303683   -1.397625141    4.367261465
    0.095199777   -2.771993518   67.601121120  -23.155841059   -1.761450470
    0.285599332   -2.771993518   61.343972147  -41.659524524   -7.244655721
    0.475998887   -2.771993518   52.313675163  -51.408859086  -11.781012542
    0.666398442   -2.771993518   42.613788167  -48.210604445  -15.015521428
    0.856797996   -2.771993518   34.853392552  -31.286712993  -16.647124522
    1.047197551   -2.771993518   31.351851650   -4.495572595  -16.580828649
    1.237597106   -2.771993518   33.286686050   24.338920783  -15.016699426
    1.427996661   -2.771993518   40.182501269   46.217913509  -12.387482572
    1.618396215   -2.771993518   50.023104105   54.538465169   -9.156878077
    1.808795770   -2.771993518   59.962872880   47.374012591   -5.631197134
    1.999195325   -2.771993518   67.258837039   27.568972142   -1.883250927
    2.189594880   -2.771993518   70.028241689    0.932839389    2.168923243
    2.379994435   -2.771993518   67.602308211  -25.940065515    6.597737926
    2.570393989   -2.771993518   60.508827973  -47.262541332   11.332044228
    2.760793544   -2.771993518   50.226064168  -58.962172472   16.102184357
    2.951193099   -2.771993518   38.795102744  -59.279828645   20.489181713

   -3.141592654   -2.402394382   37.487472200  -44.864762750   21.896112552
   -2.951193099   -2.402394382   30.271829837  -30.313916955   23.442324764
   -2.760793544   -2.402394382   26.116469601  -13.492306760   23.973871567
   -2.570393989   -2.402394382   25.014167401    1.197494690   23.827605858
   -2.379994435   -2.402394382   26.263443543   10.976499849   23.455373366
   -2.189594880   -2.402394382   28.861075506   15.513493037   23.276518986
   -1.999195325   -2.402394382   31.946804846   16.488626783   23.502117275
   -1.808795770   -2.402394382   35.081231102   16.446055113   24.033944965
   -1.618396215   -2.402394382   38.282255434   17.460934210   24.474442896
   -1.427996661   -2.402394382   41.853867728   20.329437521   24.255901702
   -1.237597106   -2.402394382   46.110953323   24.453397689   22.852038918
   -1.047197551   -2.402394382   51.152627881   28.215802349   19.994242935
   -0.856797996   -2.402394382   56.722501004   29.666479382   15.767723843
   -0.666398442   -2.402394382   62.206192643   27.013123023   10.559323886
   -0.475998887   -2.402394382   66.696878825   19.096205588    4.915277820
   -0.285599332   -2.402394382   69.151250118    5.718475806   -0.649428701
   -0.095199777   -2.402394382   68.615658969  -11.959740368   -5.743856834
    0.095199777   -2.402394382   64.521321520  -31.009958362  -10.120943543
    0.285599332   -2.402394382   57.028143168  -46.794392138  -13.614312191
    0.475998887   -2.402394382   47.269088954  -53.944139888  -16.079455328
    0.666398442   -2.402394382   37.319798991  -48.321844277  -17.381029256
    0.856797996   -2.402394382   29.743973804  -29.286506967  -17.452100883
    1.047197551   -2.402394382   26.782819061   -0.903226054  -16.360201788
    1.237597106   -2.402394382   29.501903715   28.889990511  -14.330711830
    1.427996661   -2.402394382   37.312519370   51.225114946  -11.665888959
    1.618396215   -2.402394382   48.133686255   59.841049127   -8.605390470
    1.808795770   -2.402394382   59.126434219   53.188946041   -5.245982670
    1.999195325   -2.402394382   67.609249214   34.274044109   -1.559155683
    2.189594880   -2.402394382   71.761025555    8.746090482    2.501718916
    2.379994435   -2.402394382   70.916890719  -17.216304062    6.881043215
    2.570393989   -2.402394382   65.522447866  -38.290012709   11.369498975
    2.760793544   -2.402394382   56.898015592  -50.697500341   15.621255425
    2.951193099   -2.402394382   46.897689160  -52.669044336   19.239771699

   -3.141592654   -2.032795246   43.013156867  -41.939814899   13.403930949
   -2.951193099   -2.032795246   36.201767940  -28.970938756   14.363936963
   -2.760793544   -2.032795246   32.176869504  -13.373691681   14.758713759
   -2.570393989   -2.032795246   31.026566185    0.674628045   14.755502459
   -2.379994435   -2.032795246   32.162131488   10.380075558   14.520747833
   -2.189594880   -2.032795246   34.662203064   15.084540310   14.175442275
   -1.999195325   -2.032795246   37.666968737   15.982357897   13.737987060
   -1.808795770   -2.032795246   40.645466678   15.178526867   13.115476273
   -1.618396215   -2.032795246   43.462364836   14.557572940   12.123339560
   -1.427996661   -2.032795246   46.267608755   15.106494913   10.543819939
   -1.237597106   -2.032795246   49.292137112   16.774557030    8.206627212
   -1.047197551   -2.032795246   52.676435168   18.652181362    5.080068303
   -0.856797996   -2.032795246   56.336309877   19.401637311    1.307141153
   -0.666398442   -2.032795246   59.910414189   17.462790142   -2.817335882
   -0.475998887   -2.032795246   62.746374173   11.423012699   -6.908801712
   -0.285599332   -2.032795246   63.968317329    0.488313233  -10.610482234
   -0.095199777   -2.032795246   62.665375743  -14.851345249  -13.665009824
    0.095199777   -2.032795246   58.201467088  -32.103700027  -15.970037129
    0.285599332   -2.032795246   50.620069130  -46.711853504  -17.540453987
    0.475998887   -2.032795246   40.952870769  -53.096598492  -18.433154154
    0.666398442   -2.032795246   31.225693713  -46.832212640  -18.671693741
    0.856797996   -2.032795246   23.996760517  -27.110746149  -18.233414149
    1.047197551   -2.032795246   21.517897577    1.989963814  -17.093742098
    1.237597106   -2.032795246   24.852665814   32.448435093  -15.292378255
    1.427996661   -2.032795246   33.397857538   55.368882077  -12.935068248
    1.618396215   -2.032795246   45.061882150   64.546240504  -10.143932719
    1.808795770   -2.032795246   57.008325851   58.500754024   -7.020231149
    1.999195325   -2.032795246   66.563730371   40.215066927   -3.648477268
    2.189594880   -2.032795246   71.900490979   15.208185122   -0.135904497
    2.379994435   -2.032795246   72.315465564  -10.521775207    3.357291795
    2.570393989   -2.032795246   68.183917046  -31.809521016    6.634795265
    2.760793544   -2.032795246   60.731978180  -44.960186593    9.496838750
    2.951193099   -2.032795246   51.713465778  -48.174145271   11.782822253

   -3.141592654   -1.663196111   41.258251694  -41.137683152   11.520352307
   -2.951193099   -1.663196111   34.659205396  -27.553658600   11.910161906
   -2.760793544   -1.663196111   30.948937929  -11.553422656   11.683332531
   -2.570393989   -1.663196111   30.144130700    2.372201552   10.900746478
   -2.379994435   -1.663196111   31.538882663   11.293439153    9.616126604
   -2.189594880   -1.663196111   34.089179339   14.609232969    7.866582429
   -1.999195325   -1.663196111   36.839031607   13.741347570    5.663930512
   -1.808795770   -1.663196111   39.214792284   11.108066265    3.030817395
   -1.618396215   -1.663196111   41.102303861    8.944023390    0.028350858
   -1.427996661   -1.663196111   42.738598575    8.563242005   -3.233445562
   -1.237597106   -1.663196111   44.495077512   10.152959602   -6.607008284
   -1.047197551   -1.663196111   46.682737072   12.849664013   -9.913142535
   -0.856797996   -1.663196111   49.376407103   15.146890233  -12.952764470
   -0.666398442   -1.663196111   52.321232214   15.138521754  -15.516616234
   -0.475998887   -1.663196111   54.900083702   11.004341050  -17.400552204
   -0.285599332   -1.663196111   56.196832799    1.616490949  -18.472155251
   -0.095199777   -1.663196111   55.209218962  -12.780833008  -18.718520877
    0.095199777   -1.663196111   51.174208557  -29.782160026  -18.286894909
    0.285599332   -1.663196111   44.007230308  -44.764640404  -17.427789533
    0.475998887   -1.663196111   34.643745916  -51.881082086  -16.386388447
    0.666398442   -1.663196111   25.079560625  -46.293114767  -15.294334188
    0.856797996   -1.663196111   17.921214485  -26.811170335  -14.138133324
    1.047197551   -1.663196111   15.525327729    2.657692893  -12.810469693
    1.237597106   -1.663196111   19.065305932   33.986567511  -11.213084518
    1.427996661   -1.663196111   28.005380036   57.968369193   -9.296012835
    1.618396215   -1.663196111   40.254500167   68.025859761   -7.050836491
    1.808795770   -1.663196111   52.911361886   62.378534082   -4.500072358
    1.999195325   -1.663196111   63.195012753   43.874062526   -1.705854567
    2.189594880   -1.663196111   69.163902350   18.103615000    1.208461590
    2.379994435   -1.663196111   70.032852240   -8.671585233    4.062916727
    2.570393989   -1.663196111   66.158335651  -30.919135420    6.665079671
    2.760793544   -1.663196111   58.815626399  -44.618277259    8.848129638
    2.951193099   -1.663196111   49.853923780  -47.826959947   10.490872102

   -3.141592654   -1.293596975   39.722115186  -41.621304223    9.739794347
   -2.951193099   -1.293596975   33.018330302  -28.174746679    9.465591901
   -2.760793544   -1.293596975   29.171465986  -12.401003140    8.760616402
   -2.570393989   -1.293596975   28.163982446    1.027451780    7.616523321
   -2.379994435   -1.293596975   29.226233720    9.079894817    5.942385364
   -2.189594880   -1.293596975   31.244357648   11.183854386    3.593636997
   -1.999195325   -1.293596975   33.213900756    8.974995754    0.443887771
   -1.808795770   -1.293596975   34.569010961    5.225321251   -3.489634500
   -1.618396215   -1.293596975   35.275804309    2.554537602   -7.970704819
   -1.427996661   -1.293596975   35.714932168    2.528317581  -12.555299320
   -1.237597106   -1.293596975   36.426638578    5.349834306  -16.702702663
   -1.047197551   -1.293596975   37.870212235    9.915276456  -19.928512777
   -0.856797996   -1.293596975   40.207373021   14.347268063  -21.929483303
   -0.666398442   -1.293596975   43.197059954   16.367900255  -22.627972295
   -0.475998887   -1.293596975   46.175181266   13.884525444  -22.132146262
   -0.285599332   -1.293596975   48.134517046    5.590966846  -20.681145236
   -0.095199777   -1.293596975   47.952359582   -8.428706828  -18.575503252
    0.095199777   -1.293596975   44.717315142  -25.871469992  -16.143217545
    0.285599332   -1.293596975   38.190867320  -42.052533690  -13.671867600
    0.475998887   -1.293596975   29.193649273  -50.771110437  -11.356144811
    0.666398442   -1.293596975   19.699244695  -46.593855766   -9.267762130
    0.856797996   -1.293596975   12.407204051  -27.757104040   -7.382063964
    1.047197551   -1.293596975    9.851944247    2.082877062   -5.641306312
    1.237597106   -1.293596975   13.389404847   34.627311886   -4.013555062
    1.427996661   -1.293596975   22.600588356   60.176954577   -2.466506777
    1.618396215   -1.293596975   35.407732024   71.594660131   -0.933871476
    1.808795770   -1.293596975   48.827081470   66.684771424    0.679980505
    1.999195325   -1.293596975   59.938824320   48.125822027    2.437446090
    2.189594880   -1.293596975   66.656284950   21.610404725    4.297227895
    2.379994435   -1.293596975   68.088372820   -6.301948082    6.110026001
    2.570393989   -1.293596975   64.552291872  -29.709925835    7.683537243
    2.760793544   -1.293596975   57.348399916  -44.308673034    8.857560838
    2.951193099   -1.293596975   48.388432457  -48.056768886    9.547134438

   -3.141592654   -0.923997839   40.487631690  -43.667559022    6.233572167
   -2.951193099   -0.923997839   33.373399693  -30.392529996    4.872066414
   -2.760793544   -0.923997839   29.102428905  -14.626291371    3.220611220
   -2.570393989   -0.923997839   27.664594282   -1.308681045    1.318179174
   -2.379994435   -0.923997839   28.244572685    6.275188726   -0.927872738
   -2.189594880   -0.923997839   29.647158360    7.445097561   -3.710083360
   -1.999195325   -0.923997839   30.788471000    3.992924757   -7.195879473
   -1.808795770   -0.923997839   31.078772141   -0.918330770  -11.340973534
   -1.618396215   -0.923997839   30.547785701   -4.165859097  -15.784366177
   -1.427996661   -0.923997839   29.727752319   -3.792254705  -19.889146714
   -1.237597106   -0.923997839   29.360137890    0.511962737  -22.938131547
   -1.047197551   -0.923997839   30.094944881    7.421139116  -24.395213524
   -0.856797996   -0.923997839   32.215664083   14.585522733  -24.088234121
   -0.666398442   -0.923997839   35.501501926   19.165661873  -22.231261015
   -0.475998887   -0.923997839   39.205625642   18.562531288  -19.294800668
   -0.285599332   -0.923997839   42.155107327   11.129390899  -15.815780438
   -0.095199777   -0.923997839   43.018804356   -3.171271268  -12.234663234
    0.095199777   -0.923997839   40.678690210  -21.856370890   -8.832404672
    0.285599332   -0.923997839   34.754295854  -39.768572665   -5.723215757
    0.475998887   -0.923997839   26.036857779  -50.031836783   -2.916154707
    0.666398442   -0.923997839   16.595640416  -46.617303849   -0.397362056
    0.856797996   -0.923997839    9.306772040  -27.548717663    1.799361829
    1.047197551   -0.923997839    6.876973287    3.259790258    3.578190747
    1.237597106   -0.923997839   10.754200743   37.000726791    4.829637972
    1.427996661   -0.923997839   20.516046617   63.513971809    5.548530746
    1.618396215   -0.923997839   34.016574808   75.452230629    5.883717433
    1.808795770   -0.923997839   48.183853684   70.604228482    6.086619376
    1.999195325   -0.923997839   60.014422717   51.682308970    6.378085159
    2.189594880   -0.923997839   67.343760455   24.415427531    6.826766202
    2.379994435   -0.923997839   69.212013454   -4.566496443    7.328325906
    2.570393989   -0.923997839   65.890551224  -29.196714621    7.677723779
    2.760793544   -0.923997839   58.671323796  -44.949751731    7.672837909
    2.951193099   -0.923997839   49.499339592  -49.584978067    7.194637767

   -3.141592654   -0.554398704   41.802717319  -47.593271081    3.509421562
   -2.951193099   -0.554398704   33.884091216  -34.833007107    0.940772553
   -2.760793544   -0.554398704   28.749469578  -19.203334239   -1.754640573
   -2.570393989   -0.554398704   26.438053457   -5.918419117   -4.417003673
   -2.379994435   -0.554398704   26.120039038    1.389098449   -7.073791041
   -2.189594880   -0.554398704   26.533560237    1.878159470   -9.923903080
   -1.999195325   -0.554398704   26.531997123   -2.429159778  -13.160971675
   -1.808795770   -0.554398704   25.543693238   -7.799052812  -16.726029201
   -1.618396215   -0.554398704   23.737286880  -10.467107236  -20.180328731
   -1.427996661   -0.554398704   21.879474440   -8.161262599  -22.798887317
   -1.237597106   -0.554398704   20.956505370   -0.809427060  -23.863783314
   -1.047197551   -0.554398704   21.768742499    9.553763668  -23.005461539
   -0.856797996   -0.554398704   24.592981863   19.698443932  -20.373550623
   -0.666398442   -0.554398704   29.048594133   26.108371638  -16.553884159
   -0.475998887   -0.554398704   34.136720828   25.920363450  -12.307157823
   -0.285599332   -0.554398704   38.424583962   17.657676042   -8.262899036
   -0.095199777   -0.554398704   40.388053320    1.773164231   -4.728795374
    0.095199777   -0.554398704   38.825584305  -18.596256774   -1.670817295
    0.285599332   -0.554398704   33.396415072  -37.704526503    1.171437104
    0.475998887   -0.554398704   25.022875173  -48.346695155    4.069912456
    0.666398442   -0.554398704   15.929620210  -44.564225025    7.098171781
    0.856797996   -0.554398704    9.097262205  -24.813650209   10.035454042
    1.047197551   -0.554398704    7.239881347    6.443939235   12.444786743
    1.237597106   -0.554398704   11.725061368   40.097654045   13.893366268
    1.427996661   -0.554398704   22.029637674   66.057404336   14.210002864
    1.618396215   -0.554398704   35.949004135   77.308640756   13.579422674
    1.808795770   -0.554398704   50.416074267   71.934431958   12.436898198
    1.999195325   -0.554398704   62.466928672   52.689376975   11.234821415
    2.189594880   -0.554398704   69.961158939   25.123504513   10.228480991
    2.379994435   -0.554398704   71.919721183   -4.376387979    9.404741557
    2.570393989   -0.554398704   68.558091285  -29.864147675    8.547191980
    2.760793544   -0.554398704   61.106386284  -46.749508914    7.379127153
    2.951193099   -0.554398704   51.477816678  -52.569029920    5.707462288

   -3.141592654   -0.184799568   42.425109831  -53.383806080    1.029484408
   -2.951193099   -0.184799568   33.353397344  -41.033433390   -2.026541444
   -2.760793544   -0.184799568   27.042854091  -25.271064593   -5.006373064
   -2.570393989   -0.184799568   23.612328420  -11.592122577   -7.728726848
   -2.379994435   -0.184799568   22.242112207   -4.041478261  -10.223358793
   -2.189594880   -0.184799568   21.616932301   -3.652725406  -12.705700394
   -1.999195325   -0.184799568   20.541539930   -8.137125615  -15.364303120
   -1.808795770   -0.184799568   18.488939608  -13.107059294  -18.096567318
   -1.618396215   -0.184799568   15.804904038  -14.134893857  -20.398986020
   -1.427996661   -0.184799568   13.517914171   -8.784485286  -21.523965968
   -1.237597106   -0.184799568   12.839197712    2.436149323  -20.843001650
   -1.047197551   -0.184799568   14.624963546   16.383357049  -18.217304820
   -0.856797996   -0.184799568   18.985652408   28.704584653  -14.114190649
   -0.666398442   -0.184799568   25.207365572   35.308012692   -9.405478318
   -0.475998887   -0.184799568   31.920308828   33.545822751   -4.986981030
   -0.285599332   -0.184799568   37.429457390   22.799381426   -1.397668987
   -0.095199777   -0.184799568   40.145200932    4.652489118    1.342622006
    0.095199777   -0.184799568   39.002721002  -16.824099947    3.656004308
    0.285599332   -0.184799568   33.925240899  -35.545096445    6.135033359
    0.475998887   -0.184799568   26.093886576  -44.703369159    9.196904787
    0.666398442   -0.184799568   17.856754037  -39.302352378   12.816759855
    0.856797996   -0.184799568   12.117244233  -18.832836202   16.486971568
    1.047197551   -0.184799568   11.352644045   11.672248174   19.433172376
    1.237597106   -0.184799568   16.657036670   43.315216184   20.981035915
    1.427996661   -0.184799568   27.339348775   66.812187310   20.883555696
    1.618396215   -0.184799568   41.198401994   76.053946050   19.395949139
    1.808795770   -0.184799568   55.309333759   69.620618681   17.103629784
    1.999195325   -0.184799568   66.889973596   50.181321076   14.620313497
    2.189594880   -0.184799568   73.922916367   22.806181169   12.336184601
    2.379994435   -0.184799568   75.449431194   -6.661705860   10.327662353
    2.570393989   -0.184799568   71.618211308  -32.602937874    8.418659380
    2.760793544   -0.184799568   63.560596161  -50.436306700    6.336134561
    2.951193099   -0.184799568   53.119898184  -57.416452643    3.878922494

   -3.141592654    0.184799568   42.377068333  -58.979562289   -1.496137835
   -2.951193099    0.184799568   32.219059058  -46.730828461   -4.040121090
   -2.760793544    0.184799568   24.854741995  -30.568382414   -6.276211605
   -2.570393989    0.184799568   20.472959458  -16.279319450   -8.154044342
   -2.379994435    0.184799568   18.256767954   -8.286606068   -9.792111829
   -2.189594880    0.184799568   16.843244916   -7.710694720  -11.422467834
   -1.999195325    0.184799568   15.017052030  -11.887105093  -13.185563760
   -1.808795770    0.184799568   12.336919157  -15.759914001  -14.919103062
   -1.618396215    0.184799568    9.352248260  -14.417298939  -16.110576925
   -1.427996661    0.184799568    7.328825532   -5.601807641  -16.097150403
   -1.237597106    0.184799568    7.607908885    9.232435634  -14.426793709
   -1.047197551    0.184799568   10.951444786   25.655083277  -11.177951565
   -0.856797996    0.184799568   17.149033324   38.339221305   -6.984469484
   -0.666398442    0.184799568   25.060925988   43.093418742   -2.745517839
   -0.475998887    0.184799568   32.962618574   38.123421124    0.796051415
   -0.285599332    0.184799568   39.029214845   24.199900805    3.405012252
   -0.095199777    0.184799568   41.809586636    4.237006753    5.412207973
    0.095199777    0.184799568   40.578011399  -16.993683269    7.506685716
    0.285599332    0.184799568   35.644375637  -33.627404760   10.348539467
    0.475998887    0.184799568   28.450910596  -39.915448251   14.189641940
    0.666398442    0.184799568   21.359404151  -32.294484578   18.672869327
    0.856797996    0.184799568   17.030637887  -11.395572515   22.932792068
    1.047197551    0.184799568   17.554256290   17.428959145   25.960199155
    1.237597106    0.184799568   23.668248704   45.909888501   27.043659187
    1.427996661    0.184799568   34.508837814   65.939407937   26.055235405
    1.618396215    0.184799568   47.928788069   72.521602270   23.423573887
    1.808795770    0.184799568   61.219785578   64.782267088   19.875894862
    1.999195325    0.184799568   71.854796136   45.258353029   16.111280625
    2.189594880    0.184799568   77.998938804   18.446452632   12.580540116
    2.379994435    0.184799568   78.752370907  -10.477599464    9.433904874
    2.570393989    0.184799568   74.211337806  -36.343463724    6.592122520
    2.760793544    0.184799568   65.402869559  -54.657147810    3.885561869
    2.951193099    0.184799568   54.086229126  -62.406795257    1.189593019

   -3.141592654    0.554398704   44.024635205  -62.475650725   -0.976280943
   -2.951193099    0.554398704   33.162552484  -50.568224893   -2.203724364
   -2.760793544    0.554398704   25.058143173  -34.440801886   -3.180669595
   -2.570393989    0.554398704   19.958629177  -19.901144329   -4.010562706
   -2.379994435    0.554398704   17.088091178  -11.524173175   -4.837526084
   -2.189594880    0.554398704   15.098782911  -10.499880261   -5.797456121
   -1.999195325    0.554398704   12.797958824  -14.016664863   -6.899184166
   -1.808795770    0.554398704    9.813288999  -16.717471389   -7.937395840
   -1.618396215    0.554398704    6.812045686  -13.531027317   -8.513656354
   -1.427996661    0.554398704    5.167601974   -2.491598970   -8.204357131
   -1.237597106    0.554398704    6.228282579   14.191828745   -6.793586931
   -1.047197551    0.554398704   10.602003395   31.260262203   -4.440432515
   -0.856797996    0.554398704   17.801721207   43.009346853   -1.620026193
   -0.666398442    0.554398704   26.413852858   45.651344546    1.127756181
   -0.475998887    0.554398704   34.581832043   38.447824732    3.481777938
   -0.285599332    0.554398704   40.573931659   23.348126983    5.525058558
   -0.095199777    0.554398704   43.222618759    4.030661952    7.683749601
    0.095199777    0.554398704   42.158562862  -14.787852773   10.507597182
    0.285599332    0.554398704   37.955453985  -28.119361378   14.343989783
    0.475998887    0.554398704   32.097930861  -31.593404009   19.079659369
    0.666398442    0.554398704   26.727282980  -22.920400684   24.058526551
    0.856797996    0.554398704   24.099660400   -3.298537954   28.263348510
    1.047197551    0.554398704   25.881981597   22.302287657   30.703009147
    1.237597106    0.554398704   32.539693189   46.729396198   30.815923574
    1.427996661    0.554398704   43.175247494   63.136896361   28.671408730
    1.618396215    0.554398704   55.815453273   67.391392474   24.865903955
    1.808795770    0.554398704   68.028601345   58.830484456   20.232690951
    1.999195325    0.554398704   77.549898862   39.669562024   15.532134127
    2.189594880    0.554398704   82.718201910   13.838133743   11.271815567
    2.379994435    0.554398704   82.696592985  -14.049241730    7.680380761
    2.570393989    0.554398704   77.548989266  -39.227652264    4.768619961
    2.760793544    0.554398704   68.214396943  -57.382384303    2.434134189
    2.951193099    0.554398704   56.355466810  -65.429813456    0.551422209

   -3.141592654    0.923997839   43.906808540  -63.837507764   -0.210273556
   -2.951193099    0.923997839   32.858159989  -51.148883711    0.279699706
   -2.760793544    0.923997839   24.709987387  -34.333422259    0.926542133
   -2.570393989    0.923997839   19.679491609  -19.322169694    1.446062848
   -2.379994435    0.923997839   16.937031559  -10.814246183    1.656099531
   -2.189594880    0.923997839   15.066222547  -10.009457340    1.501670982
   -1.999195325    0.923997839   12.819635238  -13.947471402    1.061717567
   -1.808795770    0.923997839    9.809914272  -17.021314749    0.509587640
   -1.618396215    0.923997839    6.733046475  -13.982265974    0.061705629
   -1.427996661    0.923997839    5.005020534   -2.900268705   -0.083600986
   -1.237597106    0.923997839    5.992108617   13.795031145    0.199865396
   -1.047197551    0.923997839   10.276482470   30.673857495    0.929843280
   -0.856797996    0.923997839   17.335797792   42.129806723    2.049536328
   -0.666398442    0.923997839   25.773821824   44.794996929    3.499845126
   -0.475998887    0.923997839   33.844192847   38.452097115    5.288309121
   -0.285599332    0.923997839   40.007895938   25.331451860    7.537623110
   -0.095199777    0.923997839   43.301809157    8.943882414   10.430431455
    0.095199777    0.923997839   43.483748473   -6.633204315   14.115278288
    0.285599332    0.923997839   41.100378523  -17.345553680   18.534588379
    0.475998887    0.923997839   37.425149133  -19.771953409   23.294762990
    0.666398442    0.923997839   34.233948059  -12.234004848   27.658825921
    0.856797996    0.923997839   33.359354569    4.110108049   30.734491004
    1.047197551    0.923997839   36.121624402   25.051589552   31.796583770
    1.237597106    0.923997839   42.835006877   44.649892222   30.581664004
    1.427996661    0.923997839   52.685299658   57.207473376   27.368349873
    1.618396215    0.923997839   63.958034128   59.246222221   22.815356015
    1.808795770    0.923997839   74.542648307   50.111747534   17.699265560
    1.999195325    0.923997839   82.449816216   31.581012194   12.689070843
    2.189594880    0.923997839   86.192417026    7.008464849    8.253125008
    2.379994435    0.923997839   85.005510345  -19.468213078    4.670060627
    2.570393989    0.923997839   78.951356762  -43.364910480    2.067067208
    2.760793544    0.923997839   68.933183447  -60.453569108    0.459525303
    2.951193099    0.923997839   56.575562829  -67.608281429   -0.238374227

   -3.141592654    1.293596975   40.462172717  -62.063757609   -4.580925769
   -2.951193099    1.293596975   29.900399713  -47.935902717   -3.382748200
   -2.760793544    1.293596975   22.427004004  -30.624015508   -1.944362280
   -2.570393989    1.293596975   18.073027528  -16.059961037   -0.541242107
   -2.379994435    1.293596975   15.851903514   -8.681763388    0.708536427
   -2.189594880    1.293596975   14.251037056   -9.331292834    1.826486003
   -1.999195325    1.293596975   11.989355599  -14.776116130    2.898187653
   -1.808795770    1.293596975    8.687065330  -19.238718099    3.960033306
   -1.618396215    1.293596975    5.076921330  -17.308813794    4.953814094
   -1.427996661    1.293596975    2.649300036   -6.819275860    5.767337966
   -1.237597106    1.293596975    2.897292958   10.094674307    6.335432602
   -1.047197551    1.293596975    6.579560443   28.217853014    6.717149274
   -0.856797996    1.293596975   13.371686140   41.924768888    7.118058921
   -0.666398442    1.293596975   22.045043113   47.543983094    7.834150356
   -0.475998887    1.293596975   30.939272030   44.344179646    9.153520137
   -0.285599332    1.293596975   38.497696518   33.979678823   11.283242715
   -0.095199777    1.293596975   43.635861234   19.495174333   14.274270994
    0.095199777    1.293596975   45.915442737    4.629073098   17.989800658
    0.285599332    1.293596975   45.634592148   -6.768654687   22.047871248
    0.475998887    1.293596975   43.791706262  -11.336108791   25.825211665
    0.666398442    1.293596975   41.899528295   -7.196781313   28.555161555
    0.856797996    1.293596975   41.598922614    5.048949816   29.554528228
    1.047197551    1.293596975   44.152889973   22.015679376   28.480494549
    1.237597106    1.293596975   49.976638328   38.535310144   25.485378925
    1.427996661    1.293596975   58.471872588   49.295926802   21.124524514
    1.618396215    1.293596975   68.164376446   50.716414986   16.099304364
    1.808795770    1.293596975   77.131491126   41.736032047   11.014133772
    1.999195325    1.293596975   83.491596132   23.747306029    6.272647073
    2.189594880    1.293596975   85.811685799   -0.056203655    2.128684872
    2.379994435    1.293596975   83.374854013  -25.469678772   -1.221867904
    2.570393989    1.293596975   76.312648406  -47.866838603   -3.610955743
    2.760793544    1.293596975   65.617222385  -62.988240062   -4.930622788
    2.951193099    1.293596975   52.986610643  -67.913021480   -5.196928525

   -3.141592654    1.663196111   35.085473723  -59.900583399  -13.084833098
   -2.951193099    1.663196111   25.072334764  -44.479389139  -11.850047959
   -2.760793544    1.663196111   18.307692960  -26.789929496   -9.956971124
   -2.570393989    1.663196111   14.658228309  -12.585907528   -7.627022054
   -2.379994435    1.663196111   13.033905350   -5.909071721   -4.982968982
   -2.189594880    1.663196111   11.894262970   -7.233795741   -2.075293087
   -1.999195325    1.663196111    9.980130211  -13.204025589    1.025902527
   -1.808795770    1.663196111    6.933085596  -18.140679626    4.112157225
   -1.618396215    1.663196111    3.482917343  -16.745597042    6.832002374
   -1.427996661    1.663196111    1.113980361   -6.747996481    8.822761781
   -1.237597106    1.663196111    1.357217320   10.054418138    9.914216226
   -1.047197551    1.663196111    5.079490069   28.813047706   10.266080432
   -0.856797996    1.663196111   12.115091491   44.016326241   10.339487566
   -0.666398442    1.663196111   21.381392025   51.736519894   10.708889166
   -0.475998887    1.663196111   31.284946052   50.718211437   11.810049815
   -0.285599332    1.663196111   40.228800155   42.024310249   13.778035211
   -0.095199777    1.663196111   46.983523192   28.241826684   16.405293595
    0.095199777    1.663196111   50.896556035   12.812499917   19.229955716
    0.285599332    1.663196111   52.013662486   -0.493728951   21.645064421
    0.475998887    1.663196111   51.087759851   -8.145495121   23.035031685
    0.666398442    1.663196111   49.448958200   -7.771247024   22.922537040
    0.856797996    1.663196111   48.681298280    0.806263693   21.125061424
    1.047197551    1.663196111   50.146114319   15.025633653   17.841814579
    1.237597106    1.663196111   54.486317435   30.178610505   13.614709635
    1.427996661    1.663196111   61.364419915   40.829706916    9.093834541
    1.618396215    1.663196111   69.494763986   42.827983845    4.776380850
    1.808795770    1.663196111   77.024266899   34.495848615    0.866605055
    1.999195325    1.663196111   82.051688748   16.959370658   -2.665148688
    2.189594880    1.663196111   83.115764144   -6.428970510   -5.896030794
    2.379994435    1.663196111   79.529227633  -31.076532999   -8.790468845
    2.570393989    1.663196111   71.521592849  -52.066759276  -11.168477532
    2.760793544    1.663196111   60.211044597  -65.159069727  -12.781389152
    2.951193099    1.663196111   47.384313634  -67.782386563  -13.436119385

   -3.141592654    2.032795246   28.163798792  -59.707835931  -17.281361914
   -2.951193099    2.032795246   18.344342910  -42.668750668  -15.739406700
   -2.760793544    2.032795246   12.062762341  -23.581100332  -13.386379741
   -2.570393989    2.032795246    9.139288126   -8.205598699  -10.476754153
   -2.379994435    2.032795246    8.445462543   -0.549454193   -7.174681147
   -2.189594880    2.032795246    8.402294687   -1.126397452   -3.537716494
   -1.999195325    2.032795246    7.690592603   -6.780731604    0.394192401
   -1.808795770    2.032795246    5.845091594  -12.078031539    4.446860760
   -1.618396215    2.032795246    3.455410700  -11.787484922    8.258482599
   -1.427996661    2.032795246    1.886917495   -3.337587361   11.386813687
   -1.237597106    2.032795246    2.640990880   12.084253743   13.528035690
   -1.047197551    2.032795246    6.678647954   30.252920339   14.701804894
   -0.856797996    2.032795246   14.016650500   45.918014637   15.255196274
   -0.666398442    2.032795246   23.756077384   54.881487117   15.675135622
   -0.475998887    2.032795246   34.392524745   55.217888357   16.318289634
   -0.285599332    2.032795246   44.277561888   47.242022413   17.228132539
   -0.095199777    2.032795246   52.004473397   33.014839067   18.103856372
    0.095199777    2.032795246   56.678840073   15.820967480   18.434243883
    0.285599332    2.032795246   58.111883907   -0.331632000   17.686170116
    0.475998887    2.032795246   56.899027803  -11.347125109   15.519071913
    0.666398442    2.032795246   54.343514062  -14.073043562   11.948099017
    0.856797996    2.032795246   52.158040427   -7.551228443    7.401277818
    1.047197551    2.032795246   51.956672296    6.159042452    2.601326885
    1.237597106    2.032795246   54.680125906   22.265750194   -1.681951257
    1.427996661    2.032795246   60.214453906   34.687880250   -4.963297207
    1.618396215    2.032795246   67.344340427   38.381424009   -7.219930396
    1.808795770    2.032795246   74.132595514   31.008444838   -8.830299464
    1.999195325    2.032795246   78.517444947   13.579604830  -10.309616281
    2.189594880    2.032795246   78.904544507  -10.183819102  -12.007674352
    2.379994435    2.032795246   74.568934582  -35.122785671  -13.943893941
    2.570393989    2.032795246   65.801664145  -55.883262605  -15.834001628
    2.760793544    2.032795246   53.839327977  -68.075868464  -17.246991385
    2.951193099    2.032795246   40.586590021  -69.261601939  -17.796624758

   -3.141592654    2.402394382   20.230440109  -60.506000014  -11.289466172
   -2.951193099    2.402394382   10.461819538  -41.324309229   -9.244983747
   -2.760793544    2.402394382    4.646517648  -20.060541018   -6.735718019
   -2.570393989    2.402394382    2.588717271   -2.680461495   -4.000345908
   -2.379994435    2.402394382    3.116261814    6.695928362   -1.112054616
   -2.189594880    2.402394382    4.586993957    7.451761509    2.041227581
   -1.999195325    2.402394382    5.592513194    2.558886568    5.625360881
   -1.808795770    2.402394382    5.536454029   -2.777516408    9.636108628
   -1.618396215    2.402394382    4.841522250   -3.439233403   13.770156055
   -1.427996661    2.402394382    4.711174130    3.322484432   17.491079716
   -1.237597106    2.402394382    6.548276593   16.797111291   20.264620152
   -1.047197551    2.402394382   11.318763129   33.316131133   21.817732232
   -0.856797996    2.402394382   19.133121614   47.963320735   22.232959364
   -0.666398442    2.402394382   29.211399955   56.447546522   21.832005120
   -0.475998887    2.402394382   40.112300256   56.384883967   20.941841294
   -0.285599332    2.402394382   50.146823009   47.506458248   19.695659315
   -0.095199777    2.402394382   57.767805612   31.468881368   17.974775018
    0.095199777    2.402394382   61.900022562   11.539278408   15.501413114
    0.285599332    2.402394382   62.216573761   -7.795372945   12.013100430
    0.475998887    2.402394382   59.304530238  -21.579092469    7.465777157
    0.666398442    2.402394382   54.637642533  -25.709498062    2.174339416
    0.856797996    2.402394382   50.257818165  -18.606123713   -3.191946383
    1.047197551    2.402394382   48.165094582   -2.365266683   -7.808179287
    1.237597106    2.402394382   49.605373580   17.407024360  -11.000688299
    1.427996661    2.402394382   54.564211456   33.380041051  -12.556011561
    1.618396215    2.402394382   61.689785017   39.376892722  -12.790079743
    1.808795770    2.402394382   68.746522984   32.543916811  -12.367752420
    1.999195325    2.402394382   73.348696442   14.133821220  -11.965152469
    2.189594880    2.402394382   73.678744908  -11.381052288  -11.973867037
    2.379994435    2.402394382   68.948996537  -37.976105524  -12.393372769
    2.570393989    2.402394382   59.534964468  -59.658723598  -12.912991957
    2.760793544    2.402394382   46.846553805  -71.750817047  -13.102317877
    2.951193099    2.402394382   32.983723970  -71.853654648  -12.609202107

   -3.141592654    2.771993518   16.208638823  -59.290439063    1.537843630
   -2.951193099    2.771993518    6.770915108  -39.121696409    4.053267144
   -2.760793544    2.771993518    1.449604491  -17.135351354    6.477316065
   -2.570393989    2.771993518    0.000000000    0.761969567    8.730460996
   -2.379994435    2.771993518    1.234356602   10.710279579   10.938452779
   -2.189594880    2.771993518    3.547886066   12.353195413   13.399793437
   -1.999195325    2.771993518    5.598662147    8.663977891   16.407330473
   -1.808795770    2.771993518    6.822193044    4.505221519   20.003967502
   -1.618396215    2.771993518    7.585476363    4.459318715   23.846012085
   -1.427996661    2.771993518    8.942835558   10.872817086   27.274802098
   -1.237597106    2.771993518   12.104568756   23.014549758   29.575815236
   -1.047197551    2.771993518   17.877445283   37.556066837   30.286768503
   -0.856797996    2.771993518   26.293149235   50.034028372   29.350409521
   -0.666398442    2.771993518   36.564901319   56.425538557   27.047277754
   -0.475998887    2.771993518   47.267662138   54.313597050   23.787815873
   -0.285599332    2.771993518   56.702146317   43.230451075   19.892836219
   -0.095199777    2.771993518   63.276593495   24.711672733   15.496533715
    0.095199777    2.771993518   65.876037652    2.218792552   10.593960895
    0.285599332    2.771993518   64.206743802  -19.197673830    5.183867896
    0.475998887    2.771993518   59.017280796  -33.836720153   -0.557399423
    0.666398442    2.771993518   52.074614773  -37.027935101   -6.173103555
    0.856797996    2.771993518   45.776695216  -27.156251177  -10.986347041
    1.047197551    2.771993518   42.421372179   -6.945075984  -14.326831104
    1.237597106    2.771993518   43.383173207   16.879860070  -15.809818726
    1.427996661    2.771993518   48.552297659   35.879426816  -15.529176488
    1.618396215    2.771993518   56.309822810   43.230011822  -13.997931783
    1.808795770    2.771993518   64.095768972   36.125813426  -11.902528517
    1.999195325    2.771993518   69.265745358   16.416652949   -9.807301213
    2.189594880    2.771993518   69.879949213  -10.653049495   -7.975151213
    2.379994435    2.771993518   65.165689369  -38.431752377   -6.369822843
    2.570393989    2.771993518   55.606050549  -60.600106960   -4.780956124
    2.760793544    2.771993518   42.752640641  -72.434999706   -2.984887650
    2.951193099    2.771993518   28.832462680  -71.709810558   -0.865415508
