#! FIELDS phi psi file.free der_phi der_psi
#! SET min_phi -pi
#! SET max_phi pi
#! SET nbins_phi  33
#! SET periodic_phi true
#! SET min_psi -pi
#! SET max_psi pi
#! SET nbins_psi  17
#! SET periodic_psi true
   -3.141592654   -3.141592654   19.458043737  -54.817460055   14.035587485
   -2.951193099   -3.141592654   10.777912856  -35.692801163   16.902795309
   -2.760793544   -3.141592654    5.998614507  -14.863262208   19.137434177
   -2.570393989   -3.141592654    4.884209176    2.078921545   20.780034423
   -2.379994435   -3.141592654    6.320107802   11.638720708   22.126449615
   -2.189594880   -3.141592654    8.834780830   13.676452896   23.642699276
   -1.999195325   -3.141592654   11.231643417   11.057799430   25.729845368
   -1.808795770   -3.141592654   13.033333620    8.166691824   28.450418769
   -1.618396215   -3.141592654   14.579676942    8.897353577   31.390006857
   -1.427996661   -3.141592654   16.774221383   15.033769890   33.767212579
   -1.237597106   -3.141592654   20.601599339   25.660859315   34.756082785
   -1.047197551   -3.141592654   26.648760977   37.671072352   33.856783407
   -0.856797996   -3.141592654   34.797667942   47.078211389   31.077362747
   -0.666398442   -3.141592654   44.206887500   50.370139023   26.843928691
   -0.475998887   -3.141592654   53.489500197   45.567511795   21.742632547
   -0.285599332   -3.141592654   61.059453353   32.552877670   16.235510528
   -0.095199777   -3.141592654   65.494791073   13.121403809   10.540512584
    0.095199777   -3.141592654   65.888875351   -9.154954073    4.694247744
    0.285599332   -3.141592654   62.162384433  -29.250135172   -1.259216420
    0.475998887   -3.141592654   55.260682541  -41.620767672   -7.073826633
    0.666398442   -3.141592654   47.107848838  -41.859739459  -12.226812152
    0.856797996   -3.141592654   40.194890488  -28.761719707  -16.045555809
    1.047197551   -3.141592654   36.820178542   -5.621349430  -17.981209691
    1.237597106   -3.141592654   38.245632306   20.255989855  -17.869308158
    1.427996661   -3.141592654   44.159658224   40.149850641  -16.022893255
    1.618396215   -3.141592654   52.733067940   47.427828746  -13.066777587
    1.808795770   -3.141592654   61.275411017   39.886383016   -9.652829456
    1.999195325   -3.141592654   67.134625849   19.984621700   -6.214825351
    2.189594880   -3.141592654   68.449947730   -6.769730863   -2.891488868
    2.379994435   -3.141592654   64.534802315  -33.891975638    0.385375912
    2.570393989   -3.141592654   55.901479444  -55.445210447    3.739443853
    2.760793544   -3.141592654   44.061295953  -67.025822816    7.215578691
    2.951193099   -3.141592654   31.156771076  -66.536453151   10.719975322

   -3.141592654   -2.771993518   27.918922087  -48.979970286   22.848178054
   -2.951193099   -2.771993518   20.142808749  -32.092939135   25.413789292
   -2.760793544   -2.771993518   15.837641117  -13.414409333   26.846084795
   -2.570393989   -2.771993518   14.847722186    2.105729734   27.363828018
   -2.379994435   -2.771993518   16.246481411   11.439504622   27.448815070
   -2.189594880   -2.771993518   18.802036498   14.485154533   27.690905861
   -1.999195325   -2.771993518   21.514094439   13.615377139   28.531830790
   -1.808795770   -2.771993518   23.964500930   12.313776009   30.032523668
   -1.618396215   -2.771993518   26.368548978   13.512375373   31.783754940
   -1.427996661   -2.771993518   29.352381592   18.413115521   33.029004135
   -1.237597106   -2.771993518   33.570265336   26.159918430   32.963766958
   -1.047197551   -2.771993518   39.350200221   34.286334248   31.076851490
   -0.856797996   -2.771993518   46.470257162   39.725851259   27.336010425
   -0.666398442   -2.771993518   54.153052815   39.776978696   22.140159601
   -0.475998887   -2.771993518   61.201499323   32.922863968   16.112579262
   -0.285599332   -2.771993518   66.270806767   19.148853656    9.830483184
   -0.095199777   -2.771993518   68.173100277    0.097636662    3.685992461
    0.095199777   -2.771993518   66.195968695  -20.901803940   -2.109820879
    0.285599332   -2.771993518   60.410275438  -39.026879839   -7.397391878
    0.475998887   -2.771993518   51.879208146  -48.867595927  -11.932609574
    0.666398442   -2.771993518   42.620658470  -46.163406505  -15.347681142
    0.856797996   -2.771993518   35.181638410  -29.973369782  -17.258664975
    1.047197551   -2.771993518   31.852448684   -3.993306364  -17.452663127
    1.237597106   -2.771993518   33.807227277   24.062274277  -16.028882800
    1.427996661   -2.771993518   40.584486327   45.281674741  -13.380673695
    1.618396215   -2.771993518   50.200408552   53.166251343  -10.008538674
    1.808795770   -2.771993518   59.863268400   45.906702395   -6.309805526
    1.999195325   -2.771993518   66.900143212   26.374913095   -2.457272707
    2.189594880   -2.771993518   69.489795440    0.267500089    1.570585032
    2.379994435   -2.771993518   66.991039316  -26.051318143    5.850853888
    2.570393989   -2.771993518   59.914873055  -47.003616073   10.374458797
    2.760793544   -2.771993518   49.694906652  -58.590642865   14.957901713
    2.951193099   -2.771993518   38.329227519  -58.973207831   19.253428127

   -3.141592654   -2.402394382   36.609560751  -44.132493039   21.160060167
   -2.951193099   -2.402394382   29.545747041  -29.449662246   22.864372517
   -2.760793544   -2.402394382   25.563537746  -12.541038604   23.578594172
   -2.570393989   -2.402394382   24.642310952    2.132423422   23.591253679
   -2.379994435   -2.402394382   26.053620933   11.720492789   23.321433792
   -2.189594880   -2.402394382   28.757403115   15.854783644   23.171616049
   -1.999195325   -2.402394382   31.854591097   16.249768939   23.350849625
   -1.808795770   -2.402394382   34.879779657   15.537917147   23.771384517
   -1.618396215   -2.402394382   37.845556607   15.919794846   24.056914538
   -1.427996661   -2.402394382   41.075875001   18.332443083   23.672037440
   -1.237597106   -2.402394382   44.931599949   22.299176082   22.132498768
   -1.047197551   -2.402394382   49.576632499   26.273047179   19.212360616
   -0.856797996   -2.402394382   54.825260916   28.295057004   15.029358386
   -0.666398442   -2.402394382   60.124159602   26.484344202    9.981746294
   -0.475998887   -2.402394382   64.605529491   19.541679986    4.597087532
   -0.285599332   -2.402394382   67.235714470    7.106210196   -0.660537368
   -0.095199777   -2.402394382   67.038293996   -9.833846044   -5.475648586
    0.095199777   -2.402394382   63.389845385  -28.517584824   -9.682891264
    0.285599332   -2.402394382   56.369117135  -44.390427315  -13.174081117
    0.475998887   -2.402394382   47.025152565  -52.035896519  -15.811737471
    0.666398442   -2.402394382   37.372584423  -47.121122275  -17.406200069
    0.856797996   -2.402394382   29.956614913  -28.781645705  -17.790780895
    1.047197551   -2.402394382   27.035433773   -0.956127684  -16.927835914
    1.237597106   -2.402394382   29.701536550   28.404246877  -14.976064104
    1.427996661   -2.402394382   37.382851721   50.361574399  -12.236934608
    1.618396215   -2.402394382   48.006115115   58.641056207   -9.014363792
    1.808795770   -2.402394382   58.747392642   51.784997958   -5.502889965
    1.999195325   -2.402394382   66.961603319   32.906241886   -1.760149450
    2.189594880   -2.402394382   70.877846955    7.684927783    2.226024179
    2.379994435   -2.402394382   69.875119599  -17.799375638    6.430863080
    2.570393989   -2.402394382   64.416754016  -38.378612430   10.721528707
    2.760793544   -2.402394382   55.813675191  -50.394918724   14.834075459
    2.951193099   -2.402394382   45.896544628  -52.108639162   18.422270556

   -3.141592654   -2.032795246   42.211307528  -41.138256477   13.276522532
   -2.951193099   -2.032795246   35.567707909  -28.017522637   14.311784834
   -2.760793544   -2.032795246   31.731142326  -12.358732171   14.783325964
   -2.570393989   -2.032795246   30.769038886    1.617777794   14.836991603
   -2.379994435   -2.032795246   32.061682739   11.063122251   14.635367966
   -2.189594880   -2.032795246   34.649783819   15.298862885   14.305033877
   -1.999195325   -2.032795246   37.636915592   15.571111096   13.871669720
   -1.808795770   -2.032795246   40.471969182   14.092511520   13.246573561
   -1.618396215   -2.032795246   43.024023558   12.893737996   12.249131001
   -1.427996661   -2.032795246   45.475730405   13.116052272   10.669853107
   -1.237597106   -2.032795246   48.117652036   14.818985557    8.355843589
   -1.047197551   -2.032795246   51.163695304   17.123381639    5.295618548
   -0.856797996   -2.032795246   54.598953797   18.619040662    1.646222924
   -0.666398442   -2.032795246   58.109075830   17.592219401   -2.300086977
   -0.475998887   -2.032795246   61.056100911   12.448992844   -6.185922789
   -0.285599332   -2.032795246   62.545075695    2.232033108   -9.704311599
   -0.095199777   -2.032795246   61.617893574  -12.698584370  -12.657434591
    0.095199777   -2.032795246   57.570660747  -29.942227717  -14.990380397
    0.285599332   -2.032795246   50.368815748  -44.934435297  -16.728648910
    0.475998887   -2.032795246   40.980334077  -51.964771810  -17.891006452
    0.666398442   -2.032795246   31.403026395  -46.364395029  -18.423960539
    0.856797996   -2.032795246   24.213339874  -27.114456900  -18.217754277
    1.047197551   -2.032795246   21.708400556    1.760127040  -17.186020040
    1.237597106   -2.032795246   24.988708844   32.113645282  -15.355047350
    1.427996661   -2.032795246   33.456344031   54.872162833  -12.866914708
    1.618396215   -2.032795246   44.999406281   63.758323661   -9.913640786
    1.808795770   -2.032795246   56.763926776   57.394119335   -6.671439337
    1.999195325   -2.032795246   66.088722071   38.943601568   -3.276799313
    2.189594880   -2.032795246   71.189335422   14.055209758    0.153497292
    2.379994435   -2.032795246   71.416857596  -11.296505965    3.494560205
    2.570393989   -2.032795246   67.184050393  -32.081145835    6.611754791
    2.760793544   -2.032795246   59.725741085  -44.757718485    9.363407600
    2.951193099   -2.032795246   50.781069283  -47.614314396   11.617388483

   -3.141592654   -1.663196111   40.847960081  -40.651862039   11.708128571
   -2.951193099   -1.663196111   34.361378428  -26.866047409   12.145920718
   -2.760793544   -1.663196111   30.793523074  -10.753450409   11.919187698
   -2.570393989   -1.663196111   30.141482792    3.161611207   11.105342088
   -2.379994435   -1.663196111   31.671136793   11.900184025    9.793540928
   -2.189594880   -1.663196111   34.303395045   14.838413223    8.054595044
   -1.999195325   -1.663196111   37.047363874   13.439400892    5.915730317
   -1.808795770   -1.663196111   39.309052440   10.222260932    3.391205796
   -1.618396215   -1.663196111   40.977950698    7.564430825    0.519757183
   -1.427996661   -1.663196111   42.322256143    6.934083258   -2.610815414
   -1.237597106   -1.663196111   43.770815339    8.615998206   -5.860921193
   -1.047197551   -1.663196111   45.702265847   11.754764587   -9.046852863
   -0.856797996   -1.663196111   48.250197244   14.746380831  -11.961796098
   -0.666398442   -1.663196111   51.192321002   15.515865554  -14.400027600
   -0.475998887   -1.663196111   53.910424402   12.067748131  -16.182119902
   -0.285599332   -1.663196111   55.457294707    3.141202506  -17.217546271
   -0.095199777   -1.663196111   54.779290641  -11.097847767  -17.534946861
    0.095199777   -1.663196111   51.052906197  -28.267811843  -17.299032857
    0.285599332   -1.663196111   44.135923928  -43.673446334  -16.736051012
    0.475998887   -1.663196111   34.930545153  -51.300986037  -16.028182361
    0.666398442   -1.663196111   25.436568549  -46.089654064  -15.228248378
    0.856797996   -1.663196111   18.301128797  -26.718519478  -14.260280342
    1.047197551   -1.663196111   15.930117729    2.852205641  -12.994695915
    1.237597106   -1.663196111   19.518483492   34.283160437  -11.355080205
    1.427996661   -1.663196111   28.508070819   58.148659479   -9.342196091
    1.618396215   -1.663196111   40.757356418   67.812710057   -7.004783815
    1.808795770   -1.663196111   53.323428807   61.643290409   -4.406415307
    1.999195325   -1.663196111   63.423959667   42.728276768   -1.621149713
    2.189594880   -1.663196111   69.157865349   16.844830999    1.246203280
    2.379994435   -1.663196111   69.801362190   -9.726507580    4.053920235
    2.570393989   -1.663196111   65.761901400  -31.565644848    6.646646911
    2.760793544   -1.663196111   58.338592971  -44.810546898    8.872966854
    2.951193099   -1.663196111   49.377952844  -47.632092882   10.596489414

   -3.141592654   -1.293596975   39.524657275  -41.259852086    9.863659814
   -2.951193099   -1.293596975   32.905362207  -27.651494309    9.553994929
   -2.760793544   -1.293596975   29.169412862  -11.755909764    8.761283062
   -2.570393989   -1.293596975   28.291383481    1.739528599    7.514678333
   -2.379994435   -1.293596975   29.486340875    9.749317225    5.773032724
   -2.189594880   -1.293596975   31.614403171   11.645473520    3.432300955
   -1.999195325   -1.293596975   33.637331322    9.055805271    0.380321458
   -1.808795770   -1.293596975   34.960800138    4.810684195   -3.380115479
   -1.618396215   -1.293596975   35.540628649    1.652515564   -7.643633350
   -1.427996661   -1.293596975   35.773463997    1.312968367  -12.000154968
   -1.237597106   -1.293596975   36.246178055    4.118740743  -15.933283700
   -1.047197551   -1.293596975   37.480087483    9.002271484  -18.973833148
   -0.856797996   -1.293596975   39.693999155   14.000304165  -20.829957136
   -0.666398442   -1.293596975   42.678028884   16.657264245  -21.439277251
   -0.475998887   -1.293596975   45.762983016   14.689987163  -20.931942749
   -0.285599332   -1.293596975   47.904909760    6.661770595  -19.568582875
   -0.095199777   -1.293596975   47.927685327   -7.384698252  -17.656671188
    0.095199777   -1.293596975   44.867738846  -25.100977575  -15.502495869
    0.285599332   -1.293596975   38.450897583  -41.664080985  -13.339729551
    0.475998887   -1.293596975   29.495274702  -50.686460880  -11.292980148
    0.666398442   -1.293596975   20.006183132  -46.565103374   -9.374925801
    0.856797996   -1.293596975   12.735725450  -27.511919763   -7.538711988
    1.047197551   -1.293596975   10.258120687    2.655509936   -5.748954773
    1.237597106   -1.293596975   13.924906819   35.369407265   -4.026111609
    1.427996661   -1.293596975   23.265001191   60.727472275   -2.394041963
    1.618396215   -1.293596975   36.129149789   71.603801792   -0.824026712
    1.808795770   -1.293596975   49.485874976   66.030380416    0.772184720
    1.999195325   -1.293596975   60.420644459   46.975380406    2.476742668
    2.189594880   -1.293596975   66.899052085   20.322950838    4.282363938
    2.379994435   -1.293596975   68.100932467   -7.374960752    6.071749880
    2.570393989   -1.293596975   64.397702691  -30.364941478    7.667464674
    2.760793544   -1.293596975   57.110753317  -44.524970009    8.898525212
    2.951193099   -1.293596975   48.143554492  -47.929666929    9.647446263

   -3.141592654   -0.923997839   40.268740669  -43.276035466    6.151880591
   -2.951193099   -0.923997839   33.234980037  -29.938167165    4.760570734
   -2.760793544   -0.923997839   29.055718167  -14.100538752    3.003709898
   -2.570393989   -0.923997839   27.726495458   -0.680925156    0.972122441
   -2.379994435   -0.923997839   28.433323454    6.979298672   -1.363978617
   -2.189594880   -0.923997839   29.967634936    8.103717375   -4.148261498
   -1.999195325   -0.923997839   31.214916756    4.422272198   -7.532453073
   -1.808795770   -0.923997839   31.550307582   -0.887061764  -11.491072243
   -1.618396215   -0.923997839   30.980586752   -4.600308790  -15.702351837
   -1.427996661   -0.923997839   30.039544672   -4.590387565  -19.573995842
   -1.237597106   -0.923997839   29.503027397   -0.408219338  -22.424710436
   -1.047197551   -0.923997839   30.074315048    6.678012806  -23.741177453
   -0.856797996   -0.923997839   32.089123053   14.249464399  -23.362018856
   -0.666398442   -0.923997839   35.355704652   19.301550462  -21.505470456
   -0.475998887   -0.923997839   39.122420775   19.059571996  -18.643270264
   -0.285599332   -0.923997839   42.183438581   11.770005305  -15.307915345
   -0.095199777   -0.923997839   43.163759878   -2.610337444  -11.923188695
    0.095199777   -0.923997839   40.909753516  -21.518627678   -8.733998171
    0.285599332   -0.923997839   35.026174942  -39.654201583   -5.802496416
    0.475998887   -0.923997839   26.319158829  -49.994797301   -3.088839801
    0.666398442   -0.923997839   16.895457011  -46.421747215   -0.557771003
    0.856797996   -0.923997839    9.673454687  -27.015342294    1.734378537
    1.047197551   -0.923997839    7.377059206    4.107184935    3.631893331
    1.237597106   -0.923997839   11.424644491   37.883712834    4.955710462
    1.427996661   -0.923997839   21.324050485   64.011317313    5.654335958
    1.618396215   -0.923997839   34.853689536   75.230950890    5.872685050
    1.808795770   -0.923997839   48.903482268   69.621302550    5.900278099
    1.999195325   -0.923997839   60.493632243   50.212268640    6.019761139
    2.189594880   -0.923997839   67.531610161   22.910733248    6.359099182
    2.379994435   -0.923997839   69.142281431   -5.707617653    6.847894039
    2.570393989   -0.923997839   65.654304122  -29.785337409    7.277442673
    2.760793544   -0.923997839   58.372572431  -45.031784373    7.405435465
    2.951193099   -0.923997839   49.218499643  -49.342365209    7.052017397

   -3.141592654   -0.554398704   41.677351093  -47.073317687    3.512597443
   -2.951193099   -0.554398704   33.841979969  -34.470382456    0.985425706
   -2.760793544   -0.554398704   28.766582840  -18.905440358   -1.785758333
   -2.570393989   -0.554398704   26.518110306   -5.519297998   -4.585942050
   -2.379994435   -0.554398704   26.293861295    1.991976422   -7.370221749
   -2.189594880   -0.554398704   26.837776592    2.628167657  -10.276776135
   -1.999195325   -0.554398704   26.977413915   -1.731580789  -13.474144576
   -1.808795770   -0.554398704   26.096050815   -7.404059185  -16.917179830
   -1.618396215   -0.554398704   24.320351921  -10.555122439  -20.206771425
   -1.427996661   -0.554398704   22.397595069   -8.731742887  -22.666931097
   -1.237597106   -0.554398704   21.332500643   -1.682149580  -23.621592289
   -1.047197551   -0.554398704   21.971912320    8.668498553  -22.725113751
   -0.856797996   -0.554398704   24.647624442   19.066924609  -20.129707199
   -0.666398442   -0.554398704   29.018141722   25.861088151  -16.405952624
   -0.475998887   -0.554398704   34.094007202   26.028214732  -12.288858177
   -0.285599332   -0.554398704   38.425541060   17.987995450   -8.376867675
   -0.095199777   -0.554398704   40.460472428    2.181776398   -4.944866088
    0.095199777   -0.554398704   38.975058342  -18.194614789   -1.925572550
    0.285599332   -0.554398704   33.620941663  -37.298023795    0.967877265
    0.475998887   -0.554398704   25.331308892  -47.845211805    4.011622298
    0.666398442   -0.554398704   16.350787656  -43.857565992    7.248922449
    0.856797996   -0.554398704    9.674185724  -23.884524110   10.393129821
    1.047197551   -0.554398704    8.003052513    7.432366428   12.926710684
    1.237597106   -0.554398704   12.655359193   40.803922136   14.354381387
    1.427996661   -0.554398704   23.035819419   66.098582764   14.489095536
    1.618396215   -0.554398704   36.880379907   76.478731145   13.554478390
    1.808795770   -0.554398704   51.113159195   70.363167311   12.066434602
    1.999195325   -0.554398704   62.826809990   50.814481173   10.572144245
    2.189594880   -0.554398704   69.978890355   23.499285329    9.404657459
    2.379994435   -0.554398704   71.685880573   -5.342465977    8.587265224
    2.570393989   -0.554398704   68.212970579  -30.069947697    7.887998151
    2.760793544   -0.554398704   60.779786958  -46.392160965    6.967244653
    2.951193099   -0.554398704   51.245250019  -51.989269500    5.543523993

   -3.141592654   -0.184799568   42.436592594  -52.536115814    1.195308100
   -2.951193099   -0.184799568   33.484900625  -40.610364842   -1.746345137
   -2.760793544   -0.184799568   27.223375395  -25.122220065   -4.762363762
   -2.570393989   -0.184799568   23.817368731  -11.425012976   -7.617218137
   -2.379994435   -0.184799568   22.499553075   -3.621987264  -10.264680516
   -2.189594880   -0.184799568   21.980976475   -2.963202657  -12.852012901
   -1.999195325   -0.184799568   21.047551252   -7.379106795  -15.533730838
   -1.808795770   -0.184799568   19.120316026  -12.593588946  -18.214053898
   -1.618396215   -0.184799568   16.487947942  -14.136796503  -20.426223941
   -1.427996661   -0.184799568   14.142827184   -9.381181142  -21.471106683
   -1.237597106   -0.184799568   13.302689726    1.384032568  -20.760782228
   -1.047197551   -0.184799568   14.867420252   15.178381491  -18.173176797
   -0.856797996   -0.184799568   19.010074182   27.678756719  -14.164622772
   -0.666398442   -0.184799568   25.072331549   34.692953795   -9.574585202
   -0.475998887   -0.184799568   31.714515399   33.424923450   -5.258487496
   -0.285599332   -0.184799568   37.244529361   23.130021181   -1.718205583
   -0.095199777   -0.184799568   40.057551107    5.334160877    1.052301363
    0.095199777   -0.184799568   39.069174543  -15.894541427    3.487800476
    0.285599332   -0.184799568   34.185349763  -34.440337983    6.175904517
    0.475998887   -0.184799568   26.576321842  -43.472410963    9.502863879
    0.666398442   -0.184799568   18.580465139  -38.002522599   13.383469990
    0.856797996   -0.184799568   13.084347830  -17.597341047   17.228136652
    1.047197551   -0.184799568   12.529452276   12.593104729   20.185745776
    1.237597106   -0.184799568   17.952077871   43.584577593   21.543313208
    1.427996661   -0.184799568   28.598931270   66.143034364   21.075635667
    1.618396215   -0.184799568   42.234309817   74.400551393   19.117687215
    1.808795770   -0.184799568   55.958060512   67.297262908   16.367714916
    1.999195325   -0.184799568   67.078675296   47.792020671   13.550264235
    2.189594880   -0.184799568   73.703467185   21.013430206   11.131821663
    2.379994435   -0.184799568   74.981728384   -7.429965627    9.210589440
    2.570393989   -0.184799568   71.106199294  -32.325344531    7.574071969
    2.760793544   -0.184799568   63.174018428  -49.470879257    5.865169948
    2.951193099   -0.184799568   52.939715580  -56.293981526    3.776363937

   -3.141592654    0.184799568   42.503653375  -57.618147194   -1.278331036
   -2.951193099    0.184799568   32.535248406  -46.092910952   -3.678493916
   -2.760793544    0.184799568   25.234004103  -30.472043198   -5.918127570
   -2.570393989    0.184799568   20.849933267  -16.319717116   -7.905874756
   -2.379994435    0.184799568   18.642960392   -8.092689147   -9.697322097
   -2.189594880    0.184799568   17.299583573   -7.169130769  -11.462950238
   -1.999195325    0.184799568   15.597057616  -11.177942385  -13.305285765
   -1.808795770    0.184799568   13.039127507  -15.244221075  -15.056283240
   -1.618396215    0.184799568   10.104865390  -14.449156386  -16.223839225
   -1.427996661    0.184799568    8.008590140   -6.333217470  -16.178432396
   -1.237597106    0.184799568    8.088493403    7.920267771  -14.498814593
   -1.047197551    0.184799568   11.152843695   24.113164085  -11.276675181
   -0.856797996    0.184799568   17.069045417   37.007332033   -7.138103818
   -0.666398442    0.184799568   24.776188616   42.329741765   -2.958784966
   -0.475998887    0.184799568   32.602000206   38.108855853    0.546411742
   -0.285599332    0.184799568   38.736822168   24.919052604    3.166739473
   -0.095199777    0.184799568   41.711723438    5.536899099    5.248853552
    0.095199777    0.184799568   40.765275302  -15.327816474    7.488354626
    0.285599332    0.184799568   36.165808476  -31.806833516   10.536863654
    0.475998887    0.184799568   29.317861494  -38.128244996   14.613412412
    0.666398442    0.184799568   22.548322749  -30.721284042   19.300740396
    0.856797996    0.184799568   18.480612834  -10.258053105   23.656550286
    1.047197551    0.184799568   19.157188577   17.853637284   26.606998009
    1.237597106    0.184799568   25.260949843   45.343352318   27.419908681
    1.427996661    0.184799568   35.885535939   64.239614114   26.007772077
    1.618396215    0.184799568   48.882717208   69.842050857   22.891700876
    1.808795770    0.184799568   61.607840561   61.638264563   18.912953027
    1.999195325    0.184799568   71.658814260   42.405818456   14.870237855
    2.189594880    0.184799568   77.346975313   16.618187556   11.271549116
    2.379994435    0.184799568   77.885113873  -10.874621910    8.270342497
    2.570393989    0.184799568   73.401234346  -35.395381700    5.740447405
    2.760793544    0.184799568   64.861247244  -52.891895065    3.430001855
    2.951193099    0.184799568   53.900187266  -60.547181428    1.118423892

   -3.141592654    0.554398704   44.189171436  -60.360875226   -1.015423158
   -2.951193099    0.554398704   33.634647913  -49.454739901   -2.156684914
   -2.760793544    0.554398704   25.654876243  -34.170198410   -3.166841299
   -2.570393989    0.554398704   20.561120337  -20.019850505   -4.110575801
   -2.379994435    0.554398704   17.668125417  -11.568941010   -5.080771892
   -2.189594880    0.554398704   15.695998267  -10.262875470   -6.165604959
   -1.999195325    0.554398704   13.460341544  -13.611099141   -7.343770915
   -1.808795770    0.554398704   10.542862393  -16.475658490   -8.402575526
   -1.618396215    0.554398704    7.542842346  -13.807333886   -8.954566168
   -1.427996661    0.554398704    5.781476956   -3.442091880   -8.595807228
   -1.237597106    0.554398704    6.605079512   12.706302577   -7.130318487
   -1.047197551    0.554398704   10.674797228   29.641551439   -4.728772382
   -0.856797996    0.554398704   17.592536006   41.757940067   -1.869347566
   -0.666398442    0.554398704   26.033079079   45.157520551    0.910171273
   -0.475998887    0.554398704   34.193160880   38.869025642    3.291769493
   -0.285599332    0.554398704   40.346372043   24.591452908    5.362535078
   -0.095199777    0.554398704   43.289800309    5.843092078    7.554659475
    0.095199777    0.554398704   42.600231988  -12.708028331   10.426345619
    0.285599332    0.554398704   38.795728944  -26.044629338   14.328216981
    0.475998887    0.554398704   33.313247903  -29.757081814   19.133498990
    0.666398442    0.554398704   28.250910112  -21.546569316   24.150822548
    0.856797996    0.554398704   25.819986907   -2.640636184   28.314223974
    1.047197551    0.554398704   27.637442346   21.974887949   30.593648399
    1.237597106    0.554398704   34.120980106   45.210242808   30.422623455
    1.427996661    0.554398704   44.350439117   60.418803357   27.911390850
    1.618396215    0.554398704   56.380910995   63.793561268   23.734324900
    1.808795770    0.554398704   67.875393073   55.022261246   18.813865259
    1.999195325    0.554398704   76.719385679   36.514886848   13.981468259
    2.189594880    0.554398704   81.412696778   12.115102729    9.775243622
    2.379994435    0.554398704   81.233380583  -13.956113101    6.406216542
    2.570393989    0.554398704   76.266482923  -37.491775283    3.827949767
    2.760793544    0.554398704   67.367779881  -54.673859122    1.859300942
    2.951193099    0.554398704   56.045223776  -62.642276360    0.296419706

   -3.141592654    0.923997839   44.136748527  -61.537825805   -0.649149312
   -2.951193099    0.923997839   33.412837931  -50.037869713   -0.193234179
   -2.760793544    0.923997839   25.372984663  -34.224942584    0.392274563
   -2.570393989    0.923997839   20.306441206  -19.709034482    0.835174510
   -2.379994435    0.923997839   17.485614010  -11.168246629    0.958822911
   -2.189594880    0.923997839   15.574265884  -10.060509661    0.714263080
   -1.999195325    0.923997839   13.344378030  -13.755487489    0.192293483
   -1.808795770    0.923997839   10.371865147  -16.875598077   -0.415484550
   -1.618396215    0.923997839    7.291805578  -14.203958087   -0.872298968
   -1.427996661    0.923997839    5.473197832   -3.627293106   -0.965155792
   -1.237597106    0.923997839    6.281784925   12.698226788   -0.568113502
   -1.047197551    0.923997839   10.349162025   29.571013150    0.319764287
   -0.856797996    0.923997839   17.230819674   41.442658186    1.609922169
   -0.666398442    0.923997839   25.600761324   44.805350464    3.204395795
   -0.475998887    0.923997839   33.744907736   39.212221922    5.077637700
   -0.285599332    0.923997839   40.112961697   26.684814150    7.336580737
   -0.095199777    0.923997839   43.700540306   10.641454486   10.171668777
    0.095199777    0.923997839   44.218290988   -4.831559756   13.758812393
    0.285599332    0.923997839   42.171506475  -15.632124240   18.072439195
    0.475998887    0.923997839   38.799312041  -18.325480021   22.738530193
    0.666398442    0.923997839   35.840600212  -11.268604593   27.018538853
    0.856797996    0.923997839   35.081879281    4.323724723   30.002514522
    1.047197551    0.923997839   37.790371585   24.235497154   30.947959517
    1.237597106    0.923997839   44.234239666   42.626436423   29.590927286
    1.427996661    0.923997839   53.586163186   54.038225955   26.232538432
    1.618396215    0.923997839   64.175039461   55.335053208   21.570967623
    1.808795770    0.923997839   74.000016755   46.195918816   16.421762631
    1.999195325    0.923997839   81.231349475   28.550784346   11.474520524
    2.189594880    0.923997839   84.543262365    5.618905041    7.187761917
    2.379994435    0.923997839   83.277187832  -18.897468458    3.801784364
    2.570393989    0.923997839   77.501332773  -41.097952380    1.392203196
    2.760793544    0.923997839   68.017517103  -57.257413456   -0.069397711
    2.951193099    0.923997839   56.278206950  -64.458906293   -0.689858193

   -3.141592654    1.293596975   40.748117455  -60.187683493   -5.264502582
   -2.951193099    1.293596975   30.431334469  -47.225177733   -4.226803794
   -2.760793544    1.293596975   22.997522091  -30.832429852   -2.890273565
   -2.570393989    1.293596975   18.556078476  -16.672679956   -1.543168853
   -2.379994435    1.293596975   16.220631874   -9.191832872   -0.338954965
   -2.189594880    1.293596975   14.554839184   -9.482381561    0.712349518
   -1.999195325    1.293596975   12.297273541  -14.611212204    1.690644199
   -1.808795770    1.293596975    9.037675865  -18.998629834    2.657759519
   -1.618396215    1.293596975    5.458189427  -17.260502478    3.599211461
   -1.427996661    1.293596975    3.010344280   -7.076321398    4.443297626
   -1.237597106    1.293596975    3.186023889    9.632105233    5.138439695
   -1.047197551    1.293596975    6.779703717   27.806821416    5.721282043
   -0.856797996    1.293596975   13.519089465   41.828757719    6.342917097
   -0.666398442    1.293596975   22.214318128   47.883826565    7.230844954
   -0.475998887    1.293596975   31.211050390   45.066273796    8.617482723
   -0.285599332    1.293596975   38.930209607   34.921048635   10.688285869
   -0.095199777    1.293596975   44.255132248   20.505899555   13.514832654
    0.095199777    1.293596975   46.726753016    5.637920928   17.013181328
    0.285599332    1.293596975   46.635949998   -5.774463889   20.863142203
    0.475998887    1.293596975   44.977357966  -10.401839559   24.488813308
    0.666398442    1.293596975   43.245136731   -6.478530920   27.144119032
    0.856797996    1.293596975   43.037839129    5.264276154   28.141576831
    1.047197551    1.293596975   45.557025084   21.383996665   27.121549827
    1.237597106    1.293596975   51.157307348   36.798741104   24.220388351
    1.427996661    1.293596975   59.213364843   46.455035101   19.985922934
    1.618396215    1.293596975   68.286083726   47.149119453   15.120318886
    1.808795770    1.293596975   76.560343628   38.180230752   10.227169866
    1.999195325    1.293596975   82.314338487   21.087193522    5.695631072
    2.189594880    1.293596975   84.272309219   -1.106146373    1.744795043
    2.379994435    1.293596975   81.812178121  -24.666746508   -1.477220541
    2.570393989    1.293596975   75.055811136  -45.553685883   -3.842280100
    2.760793544    1.293596975   64.882823020  -59.962893206   -5.250893249
    2.951193099    1.293596975   52.820169479  -65.109305331   -5.687371855

   -3.141592654    1.663196111   35.301399310  -58.746023560  -13.670783852
   -2.951193099    1.663196111   25.414809692  -44.276038487  -12.662186868
   -2.760793544    1.663196111   18.617312410  -27.256549292  -10.877534141
   -2.570393989    1.663196111   14.850469791  -13.271246884   -8.568065492
   -2.379994435    1.663196111   13.107196370   -6.412424211   -5.917808448
   -2.189594880    1.663196111   11.904646728   -7.378692289   -3.032558139
   -1.999195325    1.663196111    9.994142252  -13.046451663   -0.000343202
   -1.808795770    1.663196111    6.990735285  -17.870919552    2.997012530
   -1.618396215    1.663196111    3.586090890  -16.557818704    5.660319964
   -1.427996661    1.663196111    1.237420780   -6.716213610    7.674299678
   -1.237597106    1.663196111    1.475744175    9.999994249    8.880760754
   -1.047197551    1.663196111    5.190661804   28.824800203    9.405667209
   -0.856797996    1.663196111   12.244015448   44.211716541    9.641347019
   -0.666398442    1.663196111   21.564611742   52.107736106   10.086392876
   -0.475998887    1.663196111   31.546589520   51.153902226   11.128369441
   -0.285599332    1.663196111   40.568931066   42.403335259   12.903526071
   -0.095199777    1.663196111   47.386847750   28.543857841   15.256003207
    0.095199777    1.663196111   51.356648679   13.138032626   17.804492411
    0.285599332    1.663196111   52.549092722    0.000796819   20.019191804
    0.475998887    1.663196111   51.738533488   -7.425352474   21.333596200
    0.666398442    1.663196111   50.249046374   -6.952914613   21.283036248
    0.856797996    1.663196111   49.621334560    1.400833311   19.668426949
    1.047197551    1.663196111   51.144161738   14.975199238   16.657072684
    1.237597106    1.663196111   55.383784233   29.137606341   12.754628873
    1.427996661    1.663196111   61.960048518   38.726214309    8.576761786
    1.618396215    1.663196111   69.610680208   39.987723429    4.591627721
    1.808795770    1.663196111   76.581020568   31.608783283    0.977612058
    1.999195325    1.663196111   81.118749000   14.839262741   -2.322302645
    2.189594880    1.663196111   81.903534057   -7.167107621   -5.418139199
    2.379994435    1.663196111   78.323433786  -30.286913839   -8.307753906
    2.570393989    1.663196111   70.584587649  -50.127949617  -10.828438390
    2.760793544    1.663196111   59.695469346  -62.799838719  -12.712224708
    2.951193099    1.663196111   47.294810088  -65.771043583  -13.704093881

   -3.141592654    2.032795246   28.234662350  -59.121275328  -17.508758646
   -2.951193099    2.032795246   18.458903841  -42.760058596  -16.235080704
   -2.760793544    2.032795246   12.114174099  -24.084467105  -14.007755061
   -2.570393989    2.032795246    9.082502067   -8.780881214  -11.109759338
   -2.379994435    2.032795246    8.293475034   -0.933473092   -7.769861196
   -2.189594880    2.032795246    8.203378698   -1.229999312   -4.108614496
   -1.999195325    2.032795246    7.494915334   -6.661093476   -0.195072441
   -1.808795770    2.032795246    5.683284769  -11.858391833    3.807334514
   -1.618396215    2.032795246    3.334980515  -11.579819278    7.569604686
   -1.427996661    2.032795246    1.800597081   -3.178564801   10.678097780
   -1.237597106    2.032795246    2.581880415   12.228006537   12.830699192
   -1.047197551    2.032795246    6.648948243   30.431788494   14.018234035
   -0.856797996    2.032795246   14.023747783   46.125275668   14.542551740
   -0.666398442    2.032795246   23.797636494   55.023097227   14.853776397
   -0.475998887    2.032795246   34.444746919   55.178311975   15.304179810
   -0.285599332    2.032795246   44.300958616   46.991221661   15.972583996
   -0.095199777    2.032795246   51.968602268   32.689700699   16.621697515
    0.095199777    2.032795246   56.593993887   15.688145963   16.805166609
    0.285599332    2.032795246   58.041429485   -0.004912622   16.029997564
    0.475998887    2.032795246   56.943908723  -10.458739110   13.960944680
    0.666398442    2.032795246   54.600013388  -12.779522527   10.590828001
    0.856797996    2.032795246   52.668079290   -6.255316928    6.315072156
    1.047197551    2.032795246   52.671323662    6.929479141    1.828326148
    1.237597106    2.032795246   55.453339553   22.058988256   -2.118569663
    1.427996661    2.032795246   60.838860249   33.345785705   -5.053460408
    1.618396215    2.032795246   67.622142649   36.170355837   -6.965747900
    1.808795770    2.032795246   73.955266691   28.579323996   -8.253353365
    1.999195325    2.032795246   77.918436270   11.709087567   -9.464642811
    2.189594880    2.032795246   78.050560364  -10.924257493  -10.996601641
    2.379994435    2.032795246   73.694106807  -34.621321880  -12.917685844
    2.570393989    2.032795246   65.114203055  -54.503097519  -14.969646094
    2.760793544    2.032795246   53.448223725  -66.448753200  -16.699735993
    2.951193099    2.032795246   40.478721501  -67.988257059  -17.647356646

   -3.141592654    2.402394382   20.320373992  -60.393003281  -11.533284320
   -2.951193099    2.402394382   10.527801759  -41.645476830   -9.661576925
   -2.760793544    2.402394382    4.628653987  -20.562192762   -7.185891468
   -2.570393989    2.402394382    2.477611318   -3.120538334   -4.380233460
   -2.379994435    2.402394382    2.938095294    6.452945749   -1.382212754
   -2.189594880    2.402394382    4.381493239    7.403834396    1.857492999
   -1.999195325    2.402394382    5.390342833    2.626756678    5.470055998
   -1.808795770    2.402394382    5.350549493   -2.681815355    9.448484037
   -1.618396215    2.402394382    4.670548926   -3.376838808   13.504717944
   -1.427996661    2.402394382    4.546589565    3.336154551   17.118118264
   -1.237597106    2.402394382    6.381471243   16.769307797   19.757868072
   -1.047197551    2.402394382   11.141669326   33.239016386   21.143014426
   -0.856797996    2.402394382   18.931857647   47.780036490   21.348378908
   -0.666398442    2.402394382   28.957235807   56.067843670   20.703189067
   -0.475998887    2.402394382   39.762866615   55.772896630   19.566446437
   -0.285599332    2.402394382   49.665662828   46.773772572   18.121756527
   -0.095199777    2.402394382   57.156581590   30.905464883   16.300571716
    0.095199777    2.402394382   61.226306425   11.512299212   13.851054257
    0.285599332    2.402394382   61.611510665   -7.011965220   10.498826300
    0.475998887    2.402394382   58.928886815  -19.969336659    6.157801132
    0.666398442    2.402394382   54.625530855  -23.566119128    1.094095683
    0.856797996    2.402394382   50.662637087  -16.463017719   -4.052811168
    1.047197551    2.402394382   48.927910246   -0.840875353   -8.457645466
    1.237597106    2.402394382   50.557833395   17.820071845  -11.425442064
    1.427996661    2.402394382   55.472737575   32.521545586  -12.722161129
    1.618396215    2.402394382   62.331922118   37.527055830  -12.662263372
    1.808795770    2.402394382   68.991462473   30.360919170  -11.937771670
    1.999195325    2.402394382   73.206763547   12.376715443  -11.276686747
    2.189594880    2.402394382   73.287624974  -12.183264187  -11.131625222
    2.379994435    2.402394382   68.505189365  -37.753282936  -11.550126888
    2.570393989    2.402394382   59.204506459  -58.771544742  -12.233838725
    2.760793544    2.402394382   46.703627659  -70.754156954  -12.715032839
    2.951193099    2.402394382   33.001786016  -71.207423293  -12.561144048

   -3.141592654    2.771993518   16.451314635  -59.438516100    0.803714428
   -2.951193099    2.771993518    6.950815866  -39.582515154    3.236242695
   -2.760793544    2.771993518    1.532277065  -17.640064280    5.709661649
   -2.570393989    2.771993518    0.000000000    0.429759802    8.101955618
   -2.379994435    2.771993518    1.194271032   10.633180071   10.475142677
   -2.189594880    2.771993518    3.512868213   12.470598969   13.066681143
   -1.999195325    2.771993518    5.593862361    8.841337963   16.131055033
   -1.808795770    2.771993518    6.845042257    4.603010203   19.698850439
   -1.618396215    2.771993518    7.609634839    4.369609220   23.431203634
   -1.427996661    2.771993518    8.926535193   10.541840727   26.682749760
   -1.237597106    2.771993518   12.000653186   22.435261151   28.754724752
   -1.047197551    2.771993518   17.640475220   36.750505789   29.203876409
   -0.856797996    2.771993518   25.883150061   49.035428744   27.999980025
   -0.666398442    2.771993518   35.949998591   55.292935824   25.462611124
   -0.475998887    2.771993518   46.434136478   53.188276641   22.048885423
   -0.285599332    2.771993518   55.674441493   42.374424654   18.118497520
   -0.095199777    2.771993518   62.138222248   24.475222050   13.816929076
    0.095199777    2.771993518   64.775806875    2.899144824    9.109016371
    0.285599332    2.771993518   63.331988346  -17.511118279    3.928201031
    0.475998887    2.771993518   58.544042469  -31.359455767   -1.621082681
    0.666398442    2.771993518   52.111370446  -34.235815460   -7.125428621
    0.856797996    2.771993518   46.326564997  -24.651289175  -11.899584780
    1.047197551    2.771993518   43.374216580   -5.292007534  -15.219586277
    1.237597106    2.771993518   44.537769296   17.314316859  -16.632808484
    1.427996661    2.771993518   49.667158996   35.060515037  -16.189698205
    1.618396215    2.771993518   57.173498327   41.504278442  -14.407417138
    1.808795770    2.771993518   64.593731733   34.140506270  -12.024237262
    1.999195325    2.771993518   69.416400876   14.862110704   -9.683403262
    2.189594880    2.771993518   69.813641380  -11.334323216   -7.722280238
    2.379994435    2.771993518   65.056691970  -38.232235317   -6.146777143
    2.570393989    2.771993518   55.590782890  -59.892304916   -4.739369311
    2.760793544    2.771993518   42.878899536  -71.729532420   -3.220624704
    2.951193099    2.771993518   29.059947427  -71.384152082   -1.387996697
